{
    "child iterations" : 15, 
    "is fertile" : false, 
    "is classifier" : false, 
    "is child" : false, 
    "weights" : [
        [
            -2.711767, 
            3.493426, 
            -1.238614, 
            -8.05053, 
            2.738621, 
            -0.8723710840242755, 
            0.558836, 
            -3.920004, 
            3.012115, 
            -5.624499, 
            5.170185, 
            0.824867103228567, 
            -0.895983, 
            -3.818292, 
            6.668543, 
            -6.398176, 
            5.014548, 
            -0.8819013896585106, 
            1.055568, 
            -4.120767, 
            -3.198268, 
            -1.841478, 
            -0.733839, 
            0.6660112851452045, 
            0.604649, 
            1.506891, 
            4.219612, 
            -1.930771, 
            -0.491697, 
            -0.2141486373334074
        ], 
        [
            -2.888173, 
            -2.199527, 
            0.48264, 
            1.729665, 
            -0.23757589519944622, 
            -4.268134, 
            2.30443, 
            -0.92978, 
            0.59789, 
            0.8317295707486838, 
            2.015135, 
            4.330065, 
            -1.563283, 
            -2.218881, 
            0.5654127086702585, 
            0.928113, 
            -3.385534, 
            -4.104211, 
            3.383111, 
            -0.21063662862002985, 
            -3.56766, 
            -2.104486, 
            -0.124662, 
            -3.752645, 
            0.3598874688417848, 
            -0.004792, 
            -1.491028, 
            3.922735, 
            -1.740678, 
            -0.162558829931444
        ], 
        [
            -1.595719, 
            2.275089, 
            2.147108, 
            -2.485966, 
            3.231922, 
            -3.244057, 
            -4.893897, 
            4.662718, 
            -0.104688, 
            0.372672
        ]
    ], 
    "momentum weights" : [
        [
            -2.711767, 
            3.493426, 
            -1.238614, 
            -8.05053, 
            2.738621, 
            -0.8723710840242755, 
            0.558836, 
            -3.920004, 
            3.012115, 
            -5.624499, 
            5.170185, 
            0.824867103228567, 
            -0.895983, 
            -3.818292, 
            6.668543, 
            -6.398176, 
            5.014548, 
            -0.8819013896585106, 
            1.055568, 
            -4.120767, 
            -3.198268, 
            -1.841478, 
            -0.733839, 
            0.6660112851452045, 
            0.604649, 
            1.506891, 
            4.219612, 
            -1.930771, 
            -0.491697, 
            -0.2141486373334074
        ], 
        [
            -2.888173, 
            -2.199527, 
            0.48264, 
            1.729665, 
            -0.23757589519944622, 
            -4.268134, 
            2.30443, 
            -0.92978, 
            0.59789, 
            0.8317295707486838, 
            2.015135, 
            4.330065, 
            -1.563283, 
            -2.218881, 
            0.5654127086702585, 
            0.928113, 
            -3.385534, 
            -4.104211, 
            3.383111, 
            -0.21063662862002985, 
            -3.56766, 
            -2.104486, 
            -0.124662, 
            -3.752645, 
            0.3598874688417848, 
            -0.004792, 
            -1.491028, 
            3.922735, 
            -1.740678, 
            -0.162558829931444
        ], 
        [
            -1.595719, 
            2.275089, 
            2.147108, 
            -2.485966, 
            3.231922, 
            -3.244057, 
            -4.893897, 
            4.662718, 
            -0.104688, 
            0.372672
        ]
    ], 
    "nodes" : [
        [
            -0.03678832327340647, 
            0.25853611078889566, 
            -0.8445301225579942, 
            0.04832828682360852, 
            1.0
        ], 
        [
            0.9297561485737597, 
            0.9977319520297344, 
            -0.6306130059233309, 
            0.9769451193894161, 
            -0.9982707290435188, 
            0.7615941559557649
        ], 
        [
            -0.998894363512721, 
            -0.9998694995670746, 
            -0.37197865117319034, 
            0.9999999842420842, 
            0.7615941559557649
        ], 
        [
            -0.9999971387895248, 
            0.9999940938546127
        ]
    ], 
    "pre activation nodes" : [
        [
            0.0, 
            0.0, 
            0.0, 
            0.0, 
            0.0
        ], 
        [
            1.656588072912681, 
            3.3904241277563107, 
            -0.7424332207241617, 
            2.225715288030477, 
            -3.5261687713995475, 
            1.0
        ], 
        [
            -3.7499641563545825, 
            -4.818607970992984, 
            -0.3907175434789196, 
            9.32953509031145, 
            1.0
        ], 
        [
            -6.728705764764347, 
            6.366330692773545
        ]
    ], 
    "average nodes" : [
        [
            0.0, 
            0.0, 
            0.0, 
            0.0, 
            0.0
        ], 
        [
            0.0, 
            0.0, 
            0.0, 
            0.0, 
            0.0, 
            0.0
        ], 
        [
            0.0, 
            0.0, 
            0.0, 
            0.0, 
            0.0
        ], 
        [
            0.0, 
            0.0
        ]
    ], 
    "input width" : 4, 
    "output width" : 2, 
    "hidden width" : 5, 
    "hidden length" : 2, 
    "hidden layer details" : {
        "items" : 3, 
        "0" : "is shallow", 
        "1" : "probabilities", 
        "2" : "width", 
        "is shallow" : true, 
        "probabilities" : {
            "2" : 0.85, 
            "3" : 0.12, 
            "1" : 0.03
        }, 
        "width" : {
            "no change" : 0.6, 
            "decrease" : 0.35, 
            "increase" : 0.05
        }
    }, 
    "weight range" : 1.0, 
    "activation function" : 2, 
    "learning rate" : 0.05, 
    "momentum active" : true, 
    "momentum" : 0.001, 
    "accuracy requirement" : 0.985, 
    "epochs" : 10, 
    "batch size" : 40, 
    "accuracy sample size" : 150, 
    "fitness sample size" : 15, 
    "allow testing" : false, 
    "show output" : true, 
    "use bias" : true, 
    "clear bias" : false, 
    "bias value" : 1.0, 
    "child" : null
}