{
    "child iterations" : 15, 
    "is fertile" : false, 
    "is classifier" : false, 
    "is child" : false, 
    "weights" : [
        [
            -4.485123, 
            -14.921348, 
            -10.82067, 
            -11.56774, 
            8.091145, 
            5.795004, 
            9.955641, 
            -7.099553, 
            -18.628867, 
            -2.836341, 
            5.726999, 
            6.696048, 
            -10.76343, 
            -2.254262, 
            -14.885333, 
            2.467417, 
            8.584287, 
            10.733552, 
            -8.188744, 
            10.781607, 
            -1.474395, 
            0.846471, 
            3.895277, 
            -6.062126, 
            1.317431, 
            -9.548302, 
            -2.350858, 
            -6.108629, 
            -0.510319, 
            -1.893228
        ], 
        [
            11.5892, 
            6.645944, 
            -9.597668, 
            1.100467, 
            8.139434, 
            -5.701449, 
            3.588028, 
            10.086781, 
            -9.861962, 
            -3.838686, 
            7.190025, 
            7.089258, 
            1.838992, 
            4.91182, 
            -14.257171, 
            -7.038048, 
            -1.795308, 
            -4.647338, 
            2.542547, 
            -1.920531, 
            -8.517421, 
            -6.908178, 
            0.539624, 
            6.922955, 
            -11.415708, 
            2.86999, 
            9.801603, 
            9.916458, 
            -0.176817, 
            10.903358, 
            13.052831, 
            8.926152, 
            0.571185, 
            0.78471, 
            1.65467, 
            7.189601
        ], 
        [
            8.544269, 
            -2.646463, 
            -9.217202, 
            -5.039757, 
            13.571284, 
            -12.885218, 
            2.166289, 
            -7.830476, 
            2.908882, 
            7.493786, 
            2.646913, 
            2.324377
        ]
    ], 
    "momentum weights" : [
        [
            -4.485123, 
            -14.921348, 
            -10.82067, 
            -11.56774, 
            8.091145, 
            5.795004, 
            9.955641, 
            -7.099553, 
            -18.628867, 
            -2.836341, 
            5.726999, 
            6.696048, 
            -10.76343, 
            -2.254262, 
            -14.885333, 
            2.467417, 
            8.584287, 
            10.733552, 
            -8.188744, 
            10.781607, 
            -1.474395, 
            0.846471, 
            3.895277, 
            -6.062126, 
            1.317431, 
            -9.548302, 
            -2.350858, 
            -6.108629, 
            -0.510319, 
            -1.893228
        ], 
        [
            11.5892, 
            6.645944, 
            -9.597668, 
            1.100467, 
            8.139434, 
            -5.701449, 
            3.588028, 
            10.086781, 
            -9.861962, 
            -3.838686, 
            7.190025, 
            7.089258, 
            1.838992, 
            4.91182, 
            -14.257171, 
            -7.038048, 
            -1.795308, 
            -4.647338, 
            2.542547, 
            -1.920531, 
            -8.517421, 
            -6.908178, 
            0.539624, 
            6.922955, 
            -11.415708, 
            2.86999, 
            9.801603, 
            9.916458, 
            -0.176817, 
            10.903358, 
            13.052831, 
            8.926152, 
            0.571185, 
            0.78471, 
            1.65467, 
            7.189601
        ], 
        [
            8.544269, 
            -2.646463, 
            -9.217202, 
            -5.039757, 
            13.571284, 
            -12.885218, 
            2.166289, 
            -7.830476, 
            2.908882, 
            7.493786, 
            2.646913, 
            2.324377
        ]
    ], 
    "nodes" : [
        [
            -0.03678832327340647, 
            0.25853611078889566, 
            -0.8445301225579942, 
            0.04832828682360852, 
            1.0
        ], 
        [
            0.9999999999831738, 
            -0.999999900874414, 
            0.9999789485380461, 
            -0.9999999101736492, 
            -0.9999943531610029, 
            0.7615941559557649
        ], 
        [
            1.0, 
            0.9999991222806315, 
            -0.9999999999997431, 
            -0.9997577781518636, 
            0.05147302729428937, 
            0.7615941559557649
        ], 
        [
            -0.9999999999991518, 
            0.9999999999998703
        ]
    ], 
    "pre activation nodes" : [
        [
            0.0, 
            0.0, 
            0.0, 
            0.0, 
            0.0
        ], 
        [
            12.750616747682752, 
            -8.410012688407384, 
            5.730838601766511, 
            -8.459267300484184, 
            -6.388779498029702, 
            1.0
        ], 
        [
            28.654182216001104, 
            7.319542830984421, 
            -14.841694102163592, 
            -4.5093412931054395, 
            0.05151855848719178, 
            1.0
        ], 
        [
            -14.244370752649406, 
            15.18354150187407
        ]
    ], 
    "average nodes" : [
        [
            0.0, 
            0.0, 
            0.0, 
            0.0, 
            0.0
        ], 
        [
            0.0, 
            0.0, 
            0.0, 
            0.0, 
            0.0, 
            0.0
        ], 
        [
            0.0, 
            0.0, 
            0.0, 
            0.0, 
            0.0, 
            0.0
        ], 
        [
            0.0, 
            0.0
        ]
    ], 
    "input width" : 4, 
    "output width" : 2, 
    "hidden width" : 6, 
    "hidden length" : 2, 
    "hidden layer details" : {
        "items" : 3, 
        "0" : "is shallow", 
        "1" : "probabilities", 
        "2" : "width", 
        "is shallow" : true, 
        "probabilities" : {
            "2" : 0.85, 
            "3" : 0.12, 
            "1" : 0.03
        }, 
        "width" : {
            "no change" : 0.6, 
            "decrease" : 0.35, 
            "increase" : 0.05
        }
    }, 
    "weight range" : 1.0, 
    "activation function" : 2, 
    "learning rate" : 0.05, 
    "momentum active" : true, 
    "momentum" : 0.001, 
    "accuracy requirement" : 0.985, 
    "epochs" : 10, 
    "batch size" : 40, 
    "accuracy sample size" : 150, 
    "fitness sample size" : 15, 
    "allow testing" : false, 
    "show output" : true, 
    "use bias" : true, 
    "clear bias" : false, 
    "bias value" : 1.0, 
    "child" : null
}