{
    "child iterations" : 15, 
    "is fertile" : false, 
    "is classifier" : false, 
    "is child" : false, 
    "weights" : [
        [
            -1.475046, 
            -4.141331, 
            -3.733163, 
            -0.340265, 
            0.443435611867232, 
            -0.732303, 
            -1.793897, 
            -2.564912, 
            3.407409, 
            -0.060628799412903334, 
            1.040477, 
            -5.509464, 
            -0.752009, 
            1.690184, 
            -0.15975647240654656, 
            -1.845367, 
            1.506067, 
            1.059985, 
            1.58385, 
            -0.2739302240549333, 
            -2.412132, 
            -2.730311, 
            -1.837837, 
            -0.739749, 
            -0.5333382137866469
        ], 
        [
            -0.917477, 
            -0.344824, 
            -1.873554, 
            2.186657, 
            -0.5103953062473634, 
            3.395232, 
            -0.223755, 
            -1.76403, 
            1.856784, 
            0.4404084669365478, 
            1.934277, 
            2.452315, 
            -1.787492, 
            -1.844783, 
            -0.4099383425143188, 
            -1.779879, 
            0.454093, 
            2.303336, 
            0.265403, 
            -0.26010042300465974, 
            -1.243494, 
            -1.279706, 
            -2.103142, 
            2.604515, 
            -0.6157863772355958
        ], 
        [
            -3.67205, 
            2.133406, 
            0.587298, 
            2.987621, 
            2.692314, 
            -1.914743, 
            2.165102, 
            1.435692, 
            -1.42177, 
            2.220309
        ]
    ], 
    "momentum weights" : [
        [
            -1.475046, 
            -4.141331, 
            -3.733163, 
            -0.340265, 
            0.443435611867232, 
            -0.732303, 
            -1.793897, 
            -2.564912, 
            3.407409, 
            -0.060628799412903334, 
            1.040477, 
            -5.509464, 
            -0.752009, 
            1.690184, 
            -0.15975647240654656, 
            -1.845367, 
            1.506067, 
            1.059985, 
            1.58385, 
            -0.2739302240549333, 
            -2.412132, 
            -2.730311, 
            -1.837837, 
            -0.739749, 
            -0.5333382137866469
        ], 
        [
            -0.917477, 
            -0.344824, 
            -1.873554, 
            2.186657, 
            -0.5103953062473634, 
            3.395232, 
            -0.223755, 
            -1.76403, 
            1.856784, 
            0.4404084669365478, 
            1.934277, 
            2.452315, 
            -1.787492, 
            -1.844783, 
            -0.4099383425143188, 
            -1.779879, 
            0.454093, 
            2.303336, 
            0.265403, 
            -0.26010042300465974, 
            -1.243494, 
            -1.279706, 
            -2.103142, 
            2.604515, 
            -0.6157863772355958
        ], 
        [
            -3.67205, 
            2.133406, 
            0.587298, 
            2.987621, 
            2.692314, 
            -1.914743, 
            2.165102, 
            1.435692, 
            -1.42177, 
            2.220309
        ]
    ], 
    "nodes" : [
        [
            0.5073736740006779, 
            0.43522658813756565, 
            -0.7619230189329486, 
            0.3909490166125643, 
            1.0
        ], 
        [
            -0.9999080083629945, 
            -0.678150702677575, 
            -0.9991142508035988, 
            -0.09766865671476233, 
            0.7615941559557649
        ], 
        [
            -0.9994407038368232, 
            -0.9947766920301855, 
            0.9953315032018076, 
            0.3409575268746729, 
            0.7615941559557649
        ], 
        [
            0.9999608725470145, 
            -0.9998723237852055
        ]
    ], 
    "pre activation nodes" : [
        [
            0.0, 
            0.0, 
            0.0, 
            0.0, 
            0.0
        ], 
        [
            -4.993457035422484, 
            -0.8256821393180815, 
            -3.860890464667676, 
            -0.09798100559496292, 
            1.0
        ], 
        [
            -4.090849454787411, 
            -2.9725782386811503, 
            3.028864173714398, 
            0.3551756133777979, 
            1.0
        ], 
        [
            5.420906915797516, 
            -4.829548205575013
        ]
    ], 
    "average nodes" : [
        [
            0.0, 
            0.0, 
            0.0, 
            0.0, 
            0.0
        ], 
        [
            0.0, 
            0.0, 
            0.0, 
            0.0, 
            0.0
        ], 
        [
            0.0, 
            0.0, 
            0.0, 
            0.0, 
            0.0
        ], 
        [
            0.0, 
            0.0
        ]
    ], 
    "input width" : 4, 
    "output width" : 2, 
    "hidden width" : 4, 
    "hidden length" : 2, 
    "hidden layer details" : {
        "items" : 3, 
        "0" : "is shallow", 
        "1" : "probabilities", 
        "2" : "width", 
        "is shallow" : true, 
        "probabilities" : {
            "2" : 0.85, 
            "3" : 0.12, 
            "1" : 0.03
        }, 
        "width" : {
            "no change" : 0.6, 
            "decrease" : 0.35, 
            "increase" : 0.05
        }
    }, 
    "weight range" : 1.0, 
    "activation function" : 2, 
    "learning rate" : 0.05, 
    "momentum active" : true, 
    "momentum" : 0.001, 
    "accuracy requirement" : 0.985, 
    "epochs" : 10, 
    "batch size" : 40, 
    "accuracy sample size" : 150, 
    "fitness sample size" : 15, 
    "allow testing" : false, 
    "show output" : true, 
    "use bias" : true, 
    "clear bias" : false, 
    "bias value" : 1.0, 
    "child" : null
}