{
    "child iterations" : 15, 
    "is fertile" : false, 
    "is classifier" : false, 
    "is child" : false, 
    "weights" : [
        [
            -3.346804, 
            -2.678009, 
            1.831856, 
            -8.069972, 
            -0.6948606543658513, 
            1.248426, 
            0.143375, 
            -2.022116, 
            -7.540654, 
            -0.40865029823109555, 
            -6.50968, 
            2.835896, 
            2.402168, 
            -7.693313, 
            0.26885940970400224, 
            -2.027013, 
            -1.975232, 
            0.446403, 
            1.873602, 
            -0.40906891804594947, 
            -1.950455, 
            -2.261203, 
            4.36741, 
            -2.321638, 
            -0.13549446680597055
        ], 
        [
            3.291946, 
            1.553837, 
            5.667416, 
            0.520584, 
            -0.911644, 
            0.5061593951532564, 
            2.644888, 
            3.435439, 
            -2.68246, 
            -2.430419, 
            -2.107397, 
            0.7695893622050807, 
            1.591828, 
            0.547786, 
            -1.007293, 
            0.486675, 
            0.651793, 
            -0.050495633360657655, 
            1.89142, 
            5.856206, 
            1.547135, 
            4.773532, 
            -0.316908, 
            -0.2847187095633821, 
            3.964902, 
            -1.767699, 
            2.05004, 
            -0.894485, 
            1.798602, 
            -0.18619755213950273
        ], 
        [
            -0.102704, 
            3.159977, 
            -4.22891, 
            4.364002, 
            -2.58329, 
            0.760019, 
            -3.97566, 
            3.424402, 
            2.398129, 
            -4.142875, 
            -2.157465, 
            4.786283
        ]
    ], 
    "momentum weights" : [
        [
            -3.346804, 
            -2.678009, 
            1.831856, 
            -8.069972, 
            -0.6948606543658513, 
            1.248426, 
            0.143375, 
            -2.022116, 
            -7.540654, 
            -0.40865029823109555, 
            -6.50968, 
            2.835896, 
            2.402168, 
            -7.693313, 
            0.26885940970400224, 
            -2.027013, 
            -1.975232, 
            0.446403, 
            1.873602, 
            -0.40906891804594947, 
            -1.950455, 
            -2.261203, 
            4.36741, 
            -2.321638, 
            -0.13549446680597055
        ], 
        [
            3.291946, 
            1.553837, 
            5.667416, 
            0.520584, 
            -0.911644, 
            0.5061593951532564, 
            2.644888, 
            3.435439, 
            -2.68246, 
            -2.430419, 
            -2.107397, 
            0.7695893622050807, 
            1.591828, 
            0.547786, 
            -1.007293, 
            0.486675, 
            0.651793, 
            -0.050495633360657655, 
            1.89142, 
            5.856206, 
            1.547135, 
            4.773532, 
            -0.316908, 
            -0.2847187095633821, 
            3.964902, 
            -1.767699, 
            2.05004, 
            -0.894485, 
            1.798602, 
            -0.18619755213950273
        ], 
        [
            -0.102704, 
            3.159977, 
            -4.22891, 
            4.364002, 
            -2.58329, 
            0.760019, 
            -3.97566, 
            3.424402, 
            2.398129, 
            -4.142875, 
            -2.157465, 
            4.786283
        ]
    ], 
    "nodes" : [
        [
            0.01045987206946036, 
            0.14486598539927484, 
            -0.6659530014862042, 
            0.41611245987797435, 
            1.0
        ], 
        [
            0.9337727258792745, 
            -0.9999052977986316, 
            0.9906358053133335, 
            0.9838225371865248, 
            0.7615941559557649
        ], 
        [
            0.9999979139053988, 
            0.9947880717157346, 
            0.9999999963425887, 
            0.9999992726282365, 
            0.9946401571750565, 
            0.7615941559557649
        ], 
        [
            -0.999999996798248, 
            0.9999999996335707
        ]
    ], 
    "pre activation nodes" : [
        [
            0.0, 
            0.0, 
            0.0, 
            0.0, 
            0.0
        ], 
        [
            1.6870678900865983, 
            -4.978936570336654, 
            2.679658013230828, 
            2.4045808737860153, 
            1.0
        ], 
        [
            6.8866814947063215, 
            2.9736715972655112, 
            10.05982870444888, 
            7.41348747024143, 
            2.9596421448816943, 
            1.0
        ], 
        [
            -10.12635743907119, 
            11.21018136933344
        ]
    ], 
    "average nodes" : [
        [
            0.0, 
            0.0, 
            0.0, 
            0.0, 
            0.0
        ], 
        [
            0.0, 
            0.0, 
            0.0, 
            0.0, 
            0.0
        ], 
        [
            0.0, 
            0.0, 
            0.0, 
            0.0, 
            0.0, 
            0.0
        ], 
        [
            0.0, 
            0.0
        ]
    ], 
    "input width" : 4, 
    "output width" : 2, 
    "hidden width" : 5, 
    "hidden length" : 2, 
    "hidden layer details" : {
        "items" : 3, 
        "0" : "is shallow", 
        "1" : "probabilities", 
        "2" : "width", 
        "is shallow" : true, 
        "probabilities" : {
            "2" : 0.85, 
            "3" : 0.12, 
            "1" : 0.03
        }, 
        "width" : {
            "no change" : 0.6, 
            "decrease" : 0.35, 
            "increase" : 0.05
        }
    }, 
    "weight range" : 1.0, 
    "activation function" : 2, 
    "learning rate" : 0.05, 
    "momentum active" : true, 
    "momentum" : 0.001, 
    "accuracy requirement" : 0.985, 
    "epochs" : 10, 
    "batch size" : 40, 
    "accuracy sample size" : 150, 
    "fitness sample size" : 15, 
    "allow testing" : false, 
    "show output" : true, 
    "use bias" : true, 
    "clear bias" : false, 
    "bias value" : 1.0, 
    "child" : null
}