{
    "child iterations" : 15, 
    "is fertile" : false, 
    "is classifier" : false, 
    "is child" : false, 
    "weights" : [
        [
            -0.780767, 
            2.69705, 
            0.088988, 
            -4.298989, 
            -3.55165, 
            0.6161147868282923, 
            2.062669, 
            4.644849, 
            0.515753, 
            -4.745421, 
            2.982323, 
            0.10764331178958342, 
            0.58929, 
            3.923315, 
            1.566728, 
            -3.79975, 
            -2.013426, 
            -0.2991933854461384, 
            2.687451, 
            -1.222336, 
            1.532824, 
            -0.287332, 
            -0.601587, 
            0.346476609277355, 
            -1.990252, 
            0.959368, 
            -0.553095, 
            -1.44755, 
            -0.564562, 
            -0.9850703847636155
        ], 
        [
            0.784293, 
            1.652862, 
            -1.504392, 
            2.019895, 
            0.0027172998928113312, 
            -1.341289, 
            -3.110399, 
            -1.385011, 
            3.001781, 
            0.028524322970483018, 
            -1.171103, 
            2.248756, 
            -1.864379, 
            2.011872, 
            -0.022601205037791505, 
            1.194389, 
            2.461338, 
            1.6248, 
            -1.56881, 
            0.6252191506932614, 
            2.62172, 
            1.488744, 
            -0.197351, 
            -0.411924, 
            0.13499024145528504, 
            0.198634, 
            -1.86264, 
            -1.214317, 
            2.218922, 
            0.15520898040417652
        ], 
        [
            -2.407965, 
            2.567741, 
            -3.424945, 
            3.455998, 
            -0.145364, 
            2.700959, 
            3.422684, 
            -0.656324, 
            1.595119, 
            -1.174794
        ]
    ], 
    "momentum weights" : [
        [
            -0.780767, 
            2.69705, 
            0.088988, 
            -4.298989, 
            -3.55165, 
            0.6161147868282923, 
            2.062669, 
            4.644849, 
            0.515753, 
            -4.745421, 
            2.982323, 
            0.10764331178958342, 
            0.58929, 
            3.923315, 
            1.566728, 
            -3.79975, 
            -2.013426, 
            -0.2991933854461384, 
            2.687451, 
            -1.222336, 
            1.532824, 
            -0.287332, 
            -0.601587, 
            0.346476609277355, 
            -1.990252, 
            0.959368, 
            -0.553095, 
            -1.44755, 
            -0.564562, 
            -0.9850703847636155
        ], 
        [
            0.784293, 
            1.652862, 
            -1.504392, 
            2.019895, 
            0.0027172998928113312, 
            -1.341289, 
            -3.110399, 
            -1.385011, 
            3.001781, 
            0.028524322970483018, 
            -1.171103, 
            2.248756, 
            -1.864379, 
            2.011872, 
            -0.022601205037791505, 
            1.194389, 
            2.461338, 
            1.6248, 
            -1.56881, 
            0.6252191506932614, 
            2.62172, 
            1.488744, 
            -0.197351, 
            -0.411924, 
            0.13499024145528504, 
            0.198634, 
            -1.86264, 
            -1.214317, 
            2.218922, 
            0.15520898040417652
        ], 
        [
            -2.407965, 
            2.567741, 
            -3.424945, 
            3.455998, 
            -0.145364, 
            2.700959, 
            3.422684, 
            -0.656324, 
            1.595119, 
            -1.174794
        ]
    ], 
    "nodes" : [
        [
            -0.2112296187323771, 
            0.11033613099492233, 
            -0.6059379240528141, 
            0.4020022368313374, 
            1.0
        ], 
        [
            -0.703630947306201, 
            -0.9615828359809278, 
            -0.6900896762300952, 
            0.8088993977535276, 
            0.9038535746829073, 
            0.7615941559557649
        ], 
        [
            0.9999150274976024, 
            0.9754569820215191, 
            0.9991610354837209, 
            -0.999975130632176, 
            0.7615941559557649
        ], 
        [
            -0.9999998163367555, 
            0.9999998986637966
        ]
    ], 
    "pre activation nodes" : [
        [
            0.0, 
            0.0, 
            0.0, 
            0.0, 
            0.0
        ], 
        [
            -0.874455813178481, 
            -1.9665013281512596, 
            -0.8481269459493919, 
            1.1238369345290862, 
            1.492881507593324, 
            1.0
        ], 
        [
            5.03314377421172, 
            2.1940638100714915, 
            3.8880348777797877, 
            -5.647504232744834, 
            1.0
        ], 
        [
            -8.101654518798666, 
            8.398984615598339
        ]
    ], 
    "average nodes" : [
        [
            0.0, 
            0.0, 
            0.0, 
            0.0, 
            0.0
        ], 
        [
            0.0, 
            0.0, 
            0.0, 
            0.0, 
            0.0, 
            0.0
        ], 
        [
            0.0, 
            0.0, 
            0.0, 
            0.0, 
            0.0
        ], 
        [
            0.0, 
            0.0
        ]
    ], 
    "input width" : 4, 
    "output width" : 2, 
    "hidden width" : 5, 
    "hidden length" : 2, 
    "hidden layer details" : {
        "items" : 3, 
        "0" : "is shallow", 
        "1" : "probabilities", 
        "2" : "width", 
        "is shallow" : true, 
        "probabilities" : {
            "2" : 0.85, 
            "3" : 0.12, 
            "1" : 0.03
        }, 
        "width" : {
            "no change" : 0.6, 
            "decrease" : 0.35, 
            "increase" : 0.05
        }
    }, 
    "weight range" : 1.0, 
    "activation function" : 2, 
    "learning rate" : 0.05, 
    "momentum active" : true, 
    "momentum" : 0.001, 
    "accuracy requirement" : 0.985, 
    "epochs" : 10, 
    "batch size" : 40, 
    "accuracy sample size" : 150, 
    "fitness sample size" : 15, 
    "allow testing" : false, 
    "show output" : true, 
    "use bias" : true, 
    "clear bias" : false, 
    "bias value" : 1.0, 
    "child" : null
}