{
    "child iterations" : 15, 
    "is fertile" : false, 
    "is classifier" : false, 
    "is child" : false, 
    "weights" : [
        [
            -1.024037, 
            2.4599, 
            -0.465986, 
            -3.959617, 
            5.68404, 
            3.454641, 
            1.630869, 
            -0.8720480208445904, 
            -0.419746, 
            -2.51579, 
            0.430169, 
            -3.203405, 
            3.372304, 
            3.209649, 
            1.169254, 
            0.04946534761586707, 
            1.007022, 
            -4.080218, 
            -1.351859, 
            -1.038303, 
            4.441784, 
            4.367924, 
            -0.683374, 
            -0.012781939412371823, 
            -2.239365, 
            0.671096, 
            1.286367, 
            -1.117602, 
            0.949626, 
            -0.71048, 
            -2.462597, 
            0.10833277506987282, 
            -1.740196, 
            -2.273958, 
            -0.281031, 
            -1.429685, 
            0.143065, 
            1.856306, 
            0.49829, 
            -0.25054147443960506
        ], 
        [
            2.90889, 
            -1.363176, 
            0.37306, 
            0.388278, 
            -1.545911, 
            0.784281, 
            -0.056884, 
            -0.031208469082663948, 
            2.223297, 
            -2.997498, 
            -0.269501, 
            1.844983, 
            -1.504686, 
            -1.889765, 
            0.819525, 
            -0.5499584289311985, 
            -1.577194, 
            0.666672, 
            0.535713, 
            -1.176734, 
            -2.489169, 
            -1.189669, 
            -2.331743, 
            -0.7607335796613872, 
            0.218067, 
            0.233161, 
            1.66908, 
            2.040755, 
            -2.193971, 
            2.385429, 
            0.863148, 
            0.9420974007416787, 
            2.311666, 
            1.122956, 
            -1.559987, 
            -1.750109, 
            2.740501, 
            2.822552, 
            -0.741571, 
            0.18134854626499375, 
            0.083205, 
            0.563217, 
            -1.900419, 
            -3.173589, 
            -0.969518, 
            -1.111689, 
            -1.162834, 
            -0.6606020685757572, 
            -1.764576, 
            2.251993, 
            -2.285838, 
            0.895888, 
            1.38995, 
            1.964292, 
            0.541512, 
            -0.7495558100558888, 
            1.216229, 
            -3.265365, 
            -1.829198, 
            0.744868, 
            0.799243, 
            -0.172837, 
            -1.819534, 
            0.8383393294694965
        ], 
        [
            -0.196888, 
            -0.293221, 
            1.775865, 
            -0.564158, 
            -0.321325, 
            2.192131, 
            -0.502341315201952, 
            1.04279, 
            1.524016, 
            2.412928, 
            -0.171305, 
            1.403183, 
            1.148893, 
            -0.10560768345123717, 
            1.56432, 
            -1.223072, 
            -0.311506, 
            -0.615222, 
            -2.175634, 
            -1.876887, 
            0.9293111921460582, 
            2.125908, 
            -0.826646, 
            -1.801869, 
            -0.07812, 
            -1.8419, 
            -2.097723, 
            -0.6432981065170575, 
            -0.921421, 
            -0.778512, 
            -0.936393, 
            0.245797, 
            0.252662, 
            1.413508, 
            -0.32360036121944247, 
            -1.476371, 
            1.711746, 
            -2.15344, 
            -1.145747, 
            1.871951, 
            0.664195, 
            0.95960007847679, 
            2.551989, 
            1.986019, 
            2.50046, 
            2.201169, 
            -1.543523, 
            -0.981627, 
            0.8566465170991533, 
            1.485032, 
            0.266686, 
            1.176692, 
            2.961043, 
            -2.459629, 
            -0.10031, 
            0.6251426907190609
        ], 
        [
            -2.415674, 
            4.157854, 
            2.019347, 
            -0.846889, 
            0.874573, 
            -1.869328, 
            1.430634, 
            0.19249, 
            -1.657433, 
            -1.141262, 
            3.654313, 
            0.107696, 
            -0.348261, 
            0.450778
        ]
    ], 
    "momentum weights" : [
        [
            -1.024037, 
            2.4599, 
            -0.465986, 
            -3.959617, 
            5.68404, 
            3.454641, 
            1.630869, 
            -0.8720480208445904, 
            -0.419746, 
            -2.51579, 
            0.430169, 
            -3.203405, 
            3.372304, 
            3.209649, 
            1.169254, 
            0.04946534761586707, 
            1.007022, 
            -4.080218, 
            -1.351859, 
            -1.038303, 
            4.441784, 
            4.367924, 
            -0.683374, 
            -0.012781939412371823, 
            -2.239365, 
            0.671096, 
            1.286367, 
            -1.117602, 
            0.949626, 
            -0.71048, 
            -2.462597, 
            0.10833277506987282, 
            -1.740196, 
            -2.273958, 
            -0.281031, 
            -1.429685, 
            0.143065, 
            1.856306, 
            0.49829, 
            -0.25054147443960506
        ], 
        [
            2.90889, 
            -1.363176, 
            0.37306, 
            0.388278, 
            -1.545911, 
            0.784281, 
            -0.056884, 
            -0.031208469082663948, 
            2.223297, 
            -2.997498, 
            -0.269501, 
            1.844983, 
            -1.504686, 
            -1.889765, 
            0.819525, 
            -0.5499584289311985, 
            -1.577194, 
            0.666672, 
            0.535713, 
            -1.176734, 
            -2.489169, 
            -1.189669, 
            -2.331743, 
            -0.7607335796613872, 
            0.218067, 
            0.233161, 
            1.66908, 
            2.040755, 
            -2.193971, 
            2.385429, 
            0.863148, 
            0.9420974007416787, 
            2.311666, 
            1.122956, 
            -1.559987, 
            -1.750109, 
            2.740501, 
            2.822552, 
            -0.741571, 
            0.18134854626499375, 
            0.083205, 
            0.563217, 
            -1.900419, 
            -3.173589, 
            -0.969518, 
            -1.111689, 
            -1.162834, 
            -0.6606020685757572, 
            -1.764576, 
            2.251993, 
            -2.285838, 
            0.895888, 
            1.38995, 
            1.964292, 
            0.541512, 
            -0.7495558100558888, 
            1.216229, 
            -3.265365, 
            -1.829198, 
            0.744868, 
            0.799243, 
            -0.172837, 
            -1.819534, 
            0.8383393294694965
        ], 
        [
            -0.196888, 
            -0.293221, 
            1.775865, 
            -0.564158, 
            -0.321325, 
            2.192131, 
            -0.502341315201952, 
            1.04279, 
            1.524016, 
            2.412928, 
            -0.171305, 
            1.403183, 
            1.148893, 
            -0.10560768345123717, 
            1.56432, 
            -1.223072, 
            -0.311506, 
            -0.615222, 
            -2.175634, 
            -1.876887, 
            0.9293111921460582, 
            2.125908, 
            -0.826646, 
            -1.801869, 
            -0.07812, 
            -1.8419, 
            -2.097723, 
            -0.6432981065170575, 
            -0.921421, 
            -0.778512, 
            -0.936393, 
            0.245797, 
            0.252662, 
            1.413508, 
            -0.32360036121944247, 
            -1.476371, 
            1.711746, 
            -2.15344, 
            -1.145747, 
            1.871951, 
            0.664195, 
            0.95960007847679, 
            2.551989, 
            1.986019, 
            2.50046, 
            2.201169, 
            -1.543523, 
            -0.981627, 
            0.8566465170991533, 
            1.485032, 
            0.266686, 
            1.176692, 
            2.961043, 
            -2.459629, 
            -0.10031, 
            0.6251426907190609
        ], 
        [
            -2.415674, 
            4.157854, 
            2.019347, 
            -0.846889, 
            0.874573, 
            -1.869328, 
            1.430634, 
            0.19249, 
            -1.657433, 
            -1.141262, 
            3.654313, 
            0.107696, 
            -0.348261, 
            0.450778
        ]
    ], 
    "nodes" : [
        [
            0.5776128767064015, 
            -0.32776046129610437, 
            -0.2520300687100179, 
            0.4567936932267655, 
            1.0
        ], 
        [
            -0.9980685956211877, 
            0.8633561859693389, 
            0.23278360477128188, 
            -0.9941491305802719, 
            0.9268058664281718, 
            0.8796829708375788, 
            0.10402009512506281, 
            0.7615941559557649
        ], 
        [
            0.8833183407802869, 
            -0.9654400206913335, 
            -0.9999979197111887, 
            -0.999877606050267, 
            0.9996213040321752, 
            -0.9975509871184192, 
            -0.9987187409904154, 
            0.7615941559557649
        ], 
        [
            -0.999979192827578, 
            -0.9992541471925157, 
            0.7457469911384355, 
            0.9474027532373573, 
            0.40723229222740454, 
            0.99999506241722, 
            0.7615941559557649
        ], 
        [
            0.9999285026526952, 
            -0.9997707860772231
        ]
    ], 
    "pre activation nodes" : [
        [
            0.0, 
            0.0, 
            0.0, 
            0.0, 
            0.0
        ], 
        [
            -3.470844447521854, 
            1.306378449575765, 
            0.23713054559109753, 
            -2.915691234213126, 
            1.6352518220526586, 
            1.3743641201554109, 
            0.10439772182446372, 
            1.0
        ], 
        [
            1.3906706048182795, 
            -2.0203875415559382, 
            -6.888074981357768, 
            -4.850675800552948, 
            4.285867342586686, 
            -3.3519960824447566, 
            -3.67620921449787, 
            1.0
        ], 
        [
            -5.736674789815693, 
            -3.946878235416355, 
            0.9633039745335232, 
            1.8057940334435656, 
            0.4322887712944583, 
            6.455889687039531, 
            1.0
        ], 
        [
            5.119480820416094, 
            -4.5369436984498845
        ]
    ], 
    "average nodes" : [
        [
            0.0, 
            0.0, 
            0.0, 
            0.0, 
            0.0
        ], 
        [
            0.0, 
            0.0, 
            0.0, 
            0.0, 
            0.0, 
            0.0, 
            0.0, 
            0.0
        ], 
        [
            0.0, 
            0.0, 
            0.0, 
            0.0, 
            0.0, 
            0.0, 
            0.0, 
            0.0
        ], 
        [
            0.0, 
            0.0, 
            0.0, 
            0.0, 
            0.0, 
            0.0, 
            0.0
        ], 
        [
            0.0, 
            0.0
        ]
    ], 
    "input width" : 4, 
    "output width" : 2, 
    "hidden width" : 7, 
    "hidden length" : 3, 
    "hidden layer details" : {
        "items" : 3, 
        "0" : "is shallow", 
        "1" : "probabilities", 
        "2" : "width", 
        "is shallow" : true, 
        "probabilities" : {
            "2" : 0.85, 
            "3" : 0.12, 
            "1" : 0.03
        }, 
        "width" : {
            "no change" : 0.6, 
            "decrease" : 0.35, 
            "increase" : 0.05
        }
    }, 
    "weight range" : 1.0, 
    "activation function" : 2, 
    "learning rate" : 0.05, 
    "momentum active" : true, 
    "momentum" : 0.001, 
    "accuracy requirement" : 0.985, 
    "epochs" : 10, 
    "batch size" : 40, 
    "accuracy sample size" : 150, 
    "fitness sample size" : 15, 
    "allow testing" : false, 
    "show output" : true, 
    "use bias" : true, 
    "clear bias" : false, 
    "bias value" : 1.0, 
    "child" : null
}