{
    "child iterations" : 15, 
    "is fertile" : false, 
    "is classifier" : false, 
    "is child" : false, 
    "weights" : [
        [
            -3.862767, 
            -2.031067, 
            -1.737184, 
            -5.135582, 
            0.49930295040543804, 
            -2.1772, 
            1.659457, 
            -2.004972, 
            -5.676111, 
            -0.5201961092764968, 
            -0.906386, 
            2.798574, 
            -3.772746, 
            -6.302037, 
            -0.06590652895811533, 
            1.637882, 
            3.020073, 
            0.14465, 
            0.875751, 
            0.8200926917218034, 
            -2.831186, 
            -2.207037, 
            -1.775626, 
            -1.537083, 
            0.501373412646841
        ], 
        [
            5.749422, 
            1.144817, 
            -0.413167, 
            -0.7557241399974202, 
            -2.562354, 
            -1.493901, 
            1.432142, 
            -0.3996731634978452, 
            2.818878, 
            -1.427008, 
            0.180031, 
            -0.012280718898379561, 
            0.825926, 
            -3.764696, 
            4.961093, 
            -0.6750558860642293, 
            2.263599, 
            -0.552414, 
            -0.322865, 
            0.4114966678061607
        ], 
        [
            -3.64109, 
            3.285111, 
            4.55077, 
            0.876676, 
            -0.481125, 
            5.179401, 
            2.610426, 
            -1.659282
        ]
    ], 
    "momentum weights" : [
        [
            -3.862767, 
            -2.031067, 
            -1.737184, 
            -5.135582, 
            0.49930295040543804, 
            -2.1772, 
            1.659457, 
            -2.004972, 
            -5.676111, 
            -0.5201961092764968, 
            -0.906386, 
            2.798574, 
            -3.772746, 
            -6.302037, 
            -0.06590652895811533, 
            1.637882, 
            3.020073, 
            0.14465, 
            0.875751, 
            0.8200926917218034, 
            -2.831186, 
            -2.207037, 
            -1.775626, 
            -1.537083, 
            0.501373412646841
        ], 
        [
            5.749422, 
            1.144817, 
            -0.413167, 
            -0.7557241399974202, 
            -2.562354, 
            -1.493901, 
            1.432142, 
            -0.3996731634978452, 
            2.818878, 
            -1.427008, 
            0.180031, 
            -0.012280718898379561, 
            0.825926, 
            -3.764696, 
            4.961093, 
            -0.6750558860642293, 
            2.263599, 
            -0.552414, 
            -0.322865, 
            0.4114966678061607
        ], 
        [
            -3.64109, 
            3.285111, 
            4.55077, 
            0.876676, 
            -0.481125, 
            5.179401, 
            2.610426, 
            -1.659282
        ]
    ], 
    "nodes" : [
        [
            -0.03678832327340647, 
            0.25853611078889566, 
            -0.8445301225579942, 
            0.04832828682360852, 
            1.0
        ], 
        [
            -0.9839108397296836, 
            -0.9992142498830047, 
            0.7456621026860665, 
            0.9878550838156565, 
            0.7615941559557649
        ], 
        [
            0.9129886056129546, 
            -0.9998743194671265, 
            0.9989264427478808, 
            0.7615941559557649
        ], 
        [
            -0.9999941016968107, 
            0.9999884929082873
        ]
    ], 
    "pre activation nodes" : [
        [
            0.0, 
            0.0, 
            0.0, 
            0.0, 
            0.0
        ], 
        [
            -2.4073397885396615, 
            -3.920812980848024, 
            0.9631127519059732, 
            2.548950413956095, 
            1.0
        ], 
        [
            1.5451914665427369, 
            -4.837425831210799, 
            3.764693933840932, 
            1.0
        ], 
        [
            -6.366995037424779, 
            6.03284423449284
        ]
    ], 
    "average nodes" : [
        [
            0.0, 
            0.0, 
            0.0, 
            0.0, 
            0.0
        ], 
        [
            0.0, 
            0.0, 
            0.0, 
            0.0, 
            0.0
        ], 
        [
            0.0, 
            0.0, 
            0.0, 
            0.0
        ], 
        [
            0.0, 
            0.0
        ]
    ], 
    "input width" : 4, 
    "output width" : 2, 
    "hidden width" : 4, 
    "hidden length" : 2, 
    "hidden layer details" : {
        "items" : 3, 
        "0" : "is shallow", 
        "1" : "probabilities", 
        "2" : "width", 
        "is shallow" : true, 
        "probabilities" : {
            "2" : 0.85, 
            "3" : 0.12, 
            "1" : 0.03
        }, 
        "width" : {
            "no change" : 0.6, 
            "decrease" : 0.35, 
            "increase" : 0.05
        }
    }, 
    "weight range" : 1.0, 
    "activation function" : 2, 
    "learning rate" : 0.05, 
    "momentum active" : true, 
    "momentum" : 0.001, 
    "accuracy requirement" : 0.985, 
    "epochs" : 10, 
    "batch size" : 40, 
    "accuracy sample size" : 150, 
    "fitness sample size" : 15, 
    "allow testing" : false, 
    "show output" : true, 
    "use bias" : true, 
    "clear bias" : false, 
    "bias value" : 1.0, 
    "child" : null
}