{
    "child iterations" : 15, 
    "is fertile" : false, 
    "is classifier" : false, 
    "is child" : false, 
    "weights" : [
        [
            -6.626813, 
            1.497403, 
            6.601442, 
            -0.467613, 
            1.971078, 
            0.6343127729521953, 
            -5.692259, 
            -1.625042, 
            4.433391, 
            0.264015, 
            -3.3939, 
            0.6574251777362297, 
            -6.040729, 
            2.167775, 
            3.162762, 
            -3.582113, 
            -0.891049, 
            -0.5057645743793149, 
            0.349502, 
            -0.652018, 
            1.322393, 
            0.429544, 
            1.036929, 
            0.3862801249413237, 
            -1.424004, 
            0.398292, 
            0.833984, 
            -1.913203, 
            1.32125, 
            -0.6454254127837233
        ], 
        [
            -1.465952, 
            -2.811311, 
            -0.523891, 
            3.531039, 
            -1.473576, 
            0.7169236162287986, 
            -1.85921, 
            1.354664, 
            1.405019, 
            -0.953843, 
            0.588223, 
            -0.8787860838043471, 
            -1.281358, 
            1.910796, 
            -2.851853, 
            -3.469529, 
            -0.100042, 
            -0.9486800181749309, 
            0.522601, 
            -0.556833, 
            1.107863, 
            1.302999, 
            1.842369, 
            -0.34101765141685614, 
            -2.060542, 
            -0.04121, 
            2.001979, 
            1.700613, 
            1.278403, 
            -0.6881992249137427, 
            0.133158, 
            0.078935, 
            -2.201225, 
            0.56115, 
            -3.145535, 
            0.7181307294471695
        ], 
        [
            -0.044677, 
            -1.365872, 
            1.742414, 
            -1.315988, 
            -1.186558, 
            1.720754, 
            -3.975157, 
            5.665186, 
            1.516359, 
            -1.977498, 
            1.04013, 
            -2.610113
        ]
    ], 
    "momentum weights" : [
        [
            -6.626813, 
            1.497403, 
            6.601442, 
            -0.467613, 
            1.971078, 
            0.6343127729521953, 
            -5.692259, 
            -1.625042, 
            4.433391, 
            0.264015, 
            -3.3939, 
            0.6574251777362297, 
            -6.040729, 
            2.167775, 
            3.162762, 
            -3.582113, 
            -0.891049, 
            -0.5057645743793149, 
            0.349502, 
            -0.652018, 
            1.322393, 
            0.429544, 
            1.036929, 
            0.3862801249413237, 
            -1.424004, 
            0.398292, 
            0.833984, 
            -1.913203, 
            1.32125, 
            -0.6454254127837233
        ], 
        [
            -1.465952, 
            -2.811311, 
            -0.523891, 
            3.531039, 
            -1.473576, 
            0.7169236162287986, 
            -1.85921, 
            1.354664, 
            1.405019, 
            -0.953843, 
            0.588223, 
            -0.8787860838043471, 
            -1.281358, 
            1.910796, 
            -2.851853, 
            -3.469529, 
            -0.100042, 
            -0.9486800181749309, 
            0.522601, 
            -0.556833, 
            1.107863, 
            1.302999, 
            1.842369, 
            -0.34101765141685614, 
            -2.060542, 
            -0.04121, 
            2.001979, 
            1.700613, 
            1.278403, 
            -0.6881992249137427, 
            0.133158, 
            0.078935, 
            -2.201225, 
            0.56115, 
            -3.145535, 
            0.7181307294471695
        ], 
        [
            -0.044677, 
            -1.365872, 
            1.742414, 
            -1.315988, 
            -1.186558, 
            1.720754, 
            -3.975157, 
            5.665186, 
            1.516359, 
            -1.977498, 
            1.04013, 
            -2.610113
        ]
    ], 
    "nodes" : [
        [
            0.6581932515558633, 
            0.21765258356501666, 
            -0.4557132702953023, 
            0.7307509752039062, 
            1.0
        ], 
        [
            -0.999350964891916, 
            -0.4087992256963202, 
            0.9999761759411531, 
            -0.21386016446659428, 
            0.9954677611895857, 
            0.7615941559557649
        ], 
        [
            -0.8068154601084273, 
            0.9996352480079066, 
            -0.9929625674779298, 
            -0.9998552095470224, 
            -0.36696093678558744, 
            0.7615941559557649
        ], 
        [
            0.9999988075559739, 
            -0.9999999587757926
        ]
    ], 
    "pre activation nodes" : [
        [
            0.0, 
            0.0, 
            0.0, 
            0.0, 
            0.0
        ], 
        [
            -4.016423178700497, 
            -0.4341686641070567, 
            5.668974940208442, 
            -0.21721304739957104, 
            3.043708866279488, 
            1.0
        ], 
        [
            -1.1178376315282748, 
            4.304628848488401, 
            -2.8230670664783504, 
            -4.76664889768739, 
            -0.38490656448312377, 
            1.0
        ], 
        [
            7.1663260689835155, 
            -8.84869367822953
        ]
    ], 
    "average nodes" : [
        [
            0.0, 
            0.0, 
            0.0, 
            0.0, 
            0.0
        ], 
        [
            0.0, 
            0.0, 
            0.0, 
            0.0, 
            0.0, 
            0.0
        ], 
        [
            0.0, 
            0.0, 
            0.0, 
            0.0, 
            0.0, 
            0.0
        ], 
        [
            0.0, 
            0.0
        ]
    ], 
    "input width" : 4, 
    "output width" : 2, 
    "hidden width" : 6, 
    "hidden length" : 2, 
    "hidden layer details" : {
        "items" : 3, 
        "0" : "is shallow", 
        "1" : "probabilities", 
        "2" : "width", 
        "is shallow" : true, 
        "probabilities" : {
            "2" : 0.85, 
            "3" : 0.12, 
            "1" : 0.03
        }, 
        "width" : {
            "no change" : 0.6, 
            "decrease" : 0.35, 
            "increase" : 0.05
        }
    }, 
    "weight range" : 1.0, 
    "activation function" : 2, 
    "learning rate" : 0.05, 
    "momentum active" : true, 
    "momentum" : 0.001, 
    "accuracy requirement" : 0.985, 
    "epochs" : 10, 
    "batch size" : 40, 
    "accuracy sample size" : 150, 
    "fitness sample size" : 15, 
    "allow testing" : false, 
    "show output" : true, 
    "use bias" : true, 
    "clear bias" : false, 
    "bias value" : 1.0, 
    "child" : null
}