{
    "child iterations" : 15, 
    "is fertile" : false, 
    "is classifier" : false, 
    "is child" : false, 
    "weights" : [
        [
            -3.690878, 
            -2.25818, 
            -2.467362, 
            -3.970589, 
            0.7513998922182483, 
            -1.270154, 
            -1.981289, 
            -0.335666, 
            -4.182942, 
            0.2469284784429766, 
            -4.905022, 
            1.685237, 
            -0.538249, 
            -3.777386, 
            0.4544221926284959, 
            -0.826751, 
            2.555384, 
            -0.099263, 
            0.65502, 
            -0.28892249771437895, 
            -2.057664, 
            -1.86516, 
            1.531169, 
            -1.316196, 
            -0.007720795241189959
        ], 
        [
            1.542426, 
            -3.146197, 
            0.017947, 
            2.994232, 
            0.5008990656512435, 
            -2.346344, 
            -1.143262, 
            -0.713324, 
            2.779783, 
            0.7448273523739577, 
            -0.486095, 
            -0.779583, 
            -0.909526, 
            0.100943, 
            -0.09694218990366865, 
            -2.021729, 
            -2.809594, 
            -2.865872, 
            2.17766, 
            -0.10832237226378094, 
            1.606269, 
            0.178113, 
            0.076656, 
            2.972211, 
            0.1660337682314459
        ], 
        [
            1.110542, 
            -0.800556, 
            3.035529, 
            -1.595226, 
            2.08478, 
            -1.753408, 
            -1.777586, 
            3.418965, 
            1.995202, 
            -2.245301
        ]
    ], 
    "momentum weights" : [
        [
            -3.690878, 
            -2.25818, 
            -2.467362, 
            -3.970589, 
            0.7513998922182483, 
            -1.270154, 
            -1.981289, 
            -0.335666, 
            -4.182942, 
            0.2469284784429766, 
            -4.905022, 
            1.685237, 
            -0.538249, 
            -3.777386, 
            0.4544221926284959, 
            -0.826751, 
            2.555384, 
            -0.099263, 
            0.65502, 
            -0.28892249771437895, 
            -2.057664, 
            -1.86516, 
            1.531169, 
            -1.316196, 
            -0.007720795241189959
        ], 
        [
            1.542426, 
            -3.146197, 
            0.017947, 
            2.994232, 
            0.5008990656512435, 
            -2.346344, 
            -1.143262, 
            -0.713324, 
            2.779783, 
            0.7448273523739577, 
            -0.486095, 
            -0.779583, 
            -0.909526, 
            0.100943, 
            -0.09694218990366865, 
            -2.021729, 
            -2.809594, 
            -2.865872, 
            2.17766, 
            -0.10832237226378094, 
            1.606269, 
            0.178113, 
            0.076656, 
            2.972211, 
            0.1660337682314459
        ], 
        [
            1.110542, 
            -0.800556, 
            3.035529, 
            -1.595226, 
            2.08478, 
            -1.753408, 
            -1.777586, 
            3.418965, 
            1.995202, 
            -2.245301
        ]
    ], 
    "nodes" : [
        [
            0.0651984221419351, 
            0.0400303838770875, 
            -0.5693221616731643, 
            0.5811924311446938, 
            1.0
        ], 
        [
            -0.03709484110310727, 
            -0.9163830755897875, 
            0.9225086932142671, 
            0.6576863252849288, 
            0.7615941559557649
        ], 
        [
            0.9118121105198826, 
            -0.8529770855802037, 
            -0.9648999761114132, 
            0.8112039507622585, 
            0.7615941559557649
        ], 
        [
            -0.998216391360437, 
            0.9977121272267456
        ]
    ], 
    "pre activation nodes" : [
        [
            0.0, 
            0.0, 
            0.0, 
            0.0, 
            0.0
        ], 
        [
            -0.037111869668278175, 
            -1.565974464457272, 
            1.6056102318182475, 
            0.7887253174726283, 
            1.0
        ], 
        [
            1.5381685870612907, 
            -1.2669802025258885, 
            -2.0124974046036916, 
            1.1305398707285004, 
            1.0
        ], 
        [
            -3.5106858098391966, 
            3.3860677012422222
        ]
    ], 
    "average nodes" : [
        [
            0.0, 
            0.0, 
            0.0, 
            0.0, 
            0.0
        ], 
        [
            0.0, 
            0.0, 
            0.0, 
            0.0, 
            0.0
        ], 
        [
            0.0, 
            0.0, 
            0.0, 
            0.0, 
            0.0
        ], 
        [
            0.0, 
            0.0
        ]
    ], 
    "input width" : 4, 
    "output width" : 2, 
    "hidden width" : 4, 
    "hidden length" : 2, 
    "hidden layer details" : {
        "items" : 3, 
        "0" : "is shallow", 
        "1" : "probabilities", 
        "2" : "width", 
        "is shallow" : true, 
        "probabilities" : {
            "2" : 0.85, 
            "3" : 0.12, 
            "1" : 0.03
        }, 
        "width" : {
            "no change" : 0.6, 
            "decrease" : 0.35, 
            "increase" : 0.05
        }
    }, 
    "weight range" : 1.0, 
    "activation function" : 2, 
    "learning rate" : 0.05, 
    "momentum active" : true, 
    "momentum" : 0.001, 
    "accuracy requirement" : 0.985, 
    "epochs" : 10, 
    "batch size" : 40, 
    "accuracy sample size" : 150, 
    "fitness sample size" : 15, 
    "allow testing" : false, 
    "show output" : true, 
    "use bias" : true, 
    "clear bias" : false, 
    "bias value" : 1.0, 
    "child" : null
}