{
    "child iterations" : 15, 
    "is fertile" : false, 
    "is classifier" : false, 
    "is child" : false, 
    "weights" : [
        [
            0.344709, 
            3.713301, 
            -3.671611, 
            -3.787948, 
            0.057864772052229174, 
            2.581566, 
            4.26168, 
            -2.050485, 
            0.074245, 
            0.010109218859787994, 
            4.23914, 
            4.405624, 
            0.177083, 
            -2.314404, 
            -0.7496442586300269, 
            0.543852, 
            -0.302106, 
            0.178101, 
            1.623552, 
            0.9877624100080666, 
            1.790759, 
            1.548765, 
            -1.118992, 
            -0.534262, 
            0.5167455535545804
        ], 
        [
            -2.495018, 
            -2.100991, 
            0.830597, 
            -2.041136, 
            -0.9279574778366664, 
            -2.085553, 
            -2.928754, 
            -2.213576, 
            2.143208, 
            -0.07296408348952355, 
            0.005138, 
            1.550972, 
            2.698468, 
            3.740819, 
            0.3138992080523211, 
            0.594184, 
            2.307236, 
            2.016449, 
            0.474515, 
            -0.6134424283279782, 
            -2.248882, 
            1.387907, 
            -1.511302, 
            0.894223, 
            0.08403245140054372
        ], 
        [
            -2.862088, 
            2.636338, 
            -1.63975, 
            3.540412, 
            -3.450625, 
            0.953417, 
            0.922242, 
            2.263669, 
            -2.627127, 
            1.324409
        ]
    ], 
    "momentum weights" : [
        [
            0.344709, 
            3.713301, 
            -3.671611, 
            -3.787948, 
            0.057864772052229174, 
            2.581566, 
            4.26168, 
            -2.050485, 
            0.074245, 
            0.010109218859787994, 
            4.23914, 
            4.405624, 
            0.177083, 
            -2.314404, 
            -0.7496442586300269, 
            0.543852, 
            -0.302106, 
            0.178101, 
            1.623552, 
            0.9877624100080666, 
            1.790759, 
            1.548765, 
            -1.118992, 
            -0.534262, 
            0.5167455535545804
        ], 
        [
            -2.495018, 
            -2.100991, 
            0.830597, 
            -2.041136, 
            -0.9279574778366664, 
            -2.085553, 
            -2.928754, 
            -2.213576, 
            2.143208, 
            -0.07296408348952355, 
            0.005138, 
            1.550972, 
            2.698468, 
            3.740819, 
            0.3138992080523211, 
            0.594184, 
            2.307236, 
            2.016449, 
            0.474515, 
            -0.6134424283279782, 
            -2.248882, 
            1.387907, 
            -1.511302, 
            0.894223, 
            0.08403245140054372
        ], 
        [
            -2.862088, 
            2.636338, 
            -1.63975, 
            3.540412, 
            -3.450625, 
            0.953417, 
            0.922242, 
            2.263669, 
            -2.627127, 
            1.324409
        ]
    ], 
    "nodes" : [
        [
            0.2965695288781198, 
            -0.32651816484375873, 
            0.19009197234367928, 
            0.2150540567573219, 
            1.0
        ], 
        [
            0.9620579846487182, 
            0.9661539153161848, 
            -0.8988877095594568, 
            -0.9439037738347383, 
            0.7615941559557649
        ], 
        [
            -0.9999969302103364, 
            -0.9999991999015018, 
            -0.9999976140278884, 
            -0.99527146608909, 
            0.7615941559557649
        ], 
        [
            0.9999151319751629, 
            -0.9999998935687384
        ]
    ], 
    "pre activation nodes" : [
        [
            0.0, 
            0.0, 
            0.0, 
            0.0, 
            0.0
        ], 
        [
            1.9728450555035726, 
            2.0310056300952235, 
            -1.4663959459529963, 
            -1.7726924721272783, 
            1.0
        ], 
        [
            -6.6935235789297405, 
            -7.365838887311151, 
            -6.8195249551437, 
            -3.022460097123433, 
            1.0
        ], 
        [
            5.033758951352775, 
            -8.374456809367366
        ]
    ], 
    "average nodes" : [
        [
            0.0, 
            0.0, 
            0.0, 
            0.0, 
            0.0
        ], 
        [
            0.0, 
            0.0, 
            0.0, 
            0.0, 
            0.0
        ], 
        [
            0.0, 
            0.0, 
            0.0, 
            0.0, 
            0.0
        ], 
        [
            0.0, 
            0.0
        ]
    ], 
    "input width" : 4, 
    "output width" : 2, 
    "hidden width" : 4, 
    "hidden length" : 2, 
    "hidden layer details" : {
        "items" : 3, 
        "0" : "is shallow", 
        "1" : "probabilities", 
        "2" : "width", 
        "is shallow" : true, 
        "probabilities" : {
            "2" : 0.85, 
            "3" : 0.12, 
            "1" : 0.03
        }, 
        "width" : {
            "no change" : 0.6, 
            "decrease" : 0.35, 
            "increase" : 0.05
        }
    }, 
    "weight range" : 1.0, 
    "activation function" : 2, 
    "learning rate" : 0.05, 
    "momentum active" : true, 
    "momentum" : 0.001, 
    "accuracy requirement" : 0.985, 
    "epochs" : 10, 
    "batch size" : 40, 
    "accuracy sample size" : 150, 
    "fitness sample size" : 15, 
    "allow testing" : false, 
    "show output" : true, 
    "use bias" : true, 
    "clear bias" : false, 
    "bias value" : 1.0, 
    "child" : null
}