{
    "child iterations" : 15, 
    "is fertile" : false, 
    "is classifier" : false, 
    "is child" : false, 
    "weights" : [
        [
            -3.079843, 
            2.56094, 
            6.170501, 
            0.733351, 
            7.654361, 
            0.07152246271794338, 
            1.036362, 
            6.699287, 
            1.415084, 
            -4.02064, 
            9.259902, 
            0.051203254473899174, 
            -5.605812, 
            5.512768, 
            4.651664, 
            -1.323101, 
            8.154065, 
            0.15320945774151973, 
            -1.702801, 
            -1.112047, 
            -2.831001, 
            -4.063773, 
            1.878221, 
            -0.8636489191335315, 
            -2.560361, 
            1.470655, 
            2.303956, 
            -0.65532, 
            3.245038, 
            -0.29506599904327
        ], 
        [
            1.816413, 
            -2.115945, 
            1.286359, 
            0.800036, 
            -0.5446789436649047, 
            -3.154605, 
            4.187069, 
            -0.16903, 
            -3.115102, 
            0.6951587359922291, 
            -2.450694, 
            0.505983, 
            3.589422, 
            4.029564, 
            0.731039307180338, 
            -0.659206, 
            0.197949, 
            -0.308184, 
            -4.964894, 
            -0.6408299461545663, 
            -2.892978, 
            2.213726, 
            -2.776631, 
            3.089528, 
            0.06540222303232834, 
            -1.495878, 
            -0.014902, 
            2.648218, 
            -0.349219, 
            -0.34258955853353745
        ], 
        [
            -2.948568, 
            4.003719, 
            3.973958, 
            -3.078303, 
            1.700643, 
            2.761272, 
            5.568421, 
            -0.080119, 
            -3.208803, 
            -1.930071
        ]
    ], 
    "momentum weights" : [
        [
            -3.079843, 
            2.56094, 
            6.170501, 
            0.733351, 
            7.654361, 
            0.07152246271794338, 
            1.036362, 
            6.699287, 
            1.415084, 
            -4.02064, 
            9.259902, 
            0.051203254473899174, 
            -5.605812, 
            5.512768, 
            4.651664, 
            -1.323101, 
            8.154065, 
            0.15320945774151973, 
            -1.702801, 
            -1.112047, 
            -2.831001, 
            -4.063773, 
            1.878221, 
            -0.8636489191335315, 
            -2.560361, 
            1.470655, 
            2.303956, 
            -0.65532, 
            3.245038, 
            -0.29506599904327
        ], 
        [
            1.816413, 
            -2.115945, 
            1.286359, 
            0.800036, 
            -0.5446789436649047, 
            -3.154605, 
            4.187069, 
            -0.16903, 
            -3.115102, 
            0.6951587359922291, 
            -2.450694, 
            0.505983, 
            3.589422, 
            4.029564, 
            0.731039307180338, 
            -0.659206, 
            0.197949, 
            -0.308184, 
            -4.964894, 
            -0.6408299461545663, 
            -2.892978, 
            2.213726, 
            -2.776631, 
            3.089528, 
            0.06540222303232834, 
            -1.495878, 
            -0.014902, 
            2.648218, 
            -0.349219, 
            -0.34258955853353745
        ], 
        [
            -2.948568, 
            4.003719, 
            3.973958, 
            -3.078303, 
            1.700643, 
            2.761272, 
            5.568421, 
            -0.080119, 
            -3.208803, 
            -1.930071
        ]
    ], 
    "nodes" : [
        [
            -0.2112296187323771, 
            0.11033613099492233, 
            -0.6059379240528141, 
            0.4020022368313374, 
            1.0
        ], 
        [
            0.7243731757159625, 
            -0.9715132358117653, 
            -0.9926313739904069, 
            -0.9696122423650783, 
            -0.911428189356898, 
            0.7615941559557649
        ], 
        [
            0.999999966323144, 
            -0.9999998822010222, 
            0.982995133089738, 
            0.8712372395764738, 
            0.7615941559557649
        ], 
        [
            -0.9932392533455531, 
            0.9999998652794043
        ]
    ], 
    "pre activation nodes" : [
        [
            0.0, 
            0.0, 
            0.0, 
            0.0, 
            0.0
        ], 
        [
            0.9167855110674563, 
            -2.1185585509582765, 
            -2.7999900420478956, 
            -2.085776076573024, 
            -1.5358961710259518, 
            1.0
        ], 
        [
            8.949801082336835, 
            -8.323716682341498, 
            2.3794320411388137, 
            1.3381917358972863, 
            1.0
        ], 
        [
            -2.843191512023837, 
            8.256604989106027
        ]
    ], 
    "average nodes" : [
        [
            0.0, 
            0.0, 
            0.0, 
            0.0, 
            0.0
        ], 
        [
            0.0, 
            0.0, 
            0.0, 
            0.0, 
            0.0, 
            0.0
        ], 
        [
            0.0, 
            0.0, 
            0.0, 
            0.0, 
            0.0
        ], 
        [
            0.0, 
            0.0
        ]
    ], 
    "input width" : 4, 
    "output width" : 2, 
    "hidden width" : 6, 
    "hidden length" : 2, 
    "hidden layer details" : {
        "items" : 3, 
        "0" : "is shallow", 
        "1" : "probabilities", 
        "2" : "width", 
        "is shallow" : true, 
        "probabilities" : {
            "2" : 0.85, 
            "3" : 0.12, 
            "1" : 0.03
        }, 
        "width" : {
            "no change" : 0.6, 
            "decrease" : 0.35, 
            "increase" : 0.05
        }
    }, 
    "weight range" : 1.0, 
    "activation function" : 2, 
    "learning rate" : 0.05, 
    "momentum active" : true, 
    "momentum" : 0.001, 
    "accuracy requirement" : 0.985, 
    "epochs" : 10, 
    "batch size" : 40, 
    "accuracy sample size" : 150, 
    "fitness sample size" : 15, 
    "allow testing" : false, 
    "show output" : true, 
    "use bias" : true, 
    "clear bias" : false, 
    "bias value" : 1.0, 
    "child" : null
}