{
    "child iterations" : 15, 
    "is fertile" : false, 
    "is classifier" : false, 
    "is child" : false, 
    "weights" : [
        [
            3.428671, 
            5.079211, 
            -4.64501, 
            -6.607541, 
            1.542174, 
            0.9367055667405415, 
            -2.270426, 
            1.264577, 
            -0.025543, 
            -7.378421, 
            -1.902653, 
            -0.8146304735585546, 
            -3.940728, 
            0.525614, 
            -1.461937, 
            -6.715886, 
            -1.659608, 
            0.6518301404812574, 
            0.335346, 
            -1.261974, 
            -0.074505, 
            0.767529, 
            0.673528, 
            -0.22266299469086204, 
            -3.340709, 
            -3.135937, 
            0.671286, 
            -2.021723, 
            2.320205, 
            -0.2547389893696914
        ], 
        [
            -0.744509, 
            -1.195284, 
            2.164367, 
            -2.735896, 
            0.23674104407114616, 
            1.447984, 
            3.728463, 
            1.94564, 
            -2.57105, 
            -0.4394315153513897, 
            -0.9595, 
            0.036074, 
            -1.013515, 
            -2.534701, 
            -0.23163521384866503, 
            -0.5416, 
            -3.627359, 
            -1.276324, 
            -5.034594, 
            0.6003510982647742, 
            3.017474, 
            -2.767758, 
            0.494348, 
            0.059683, 
            0.8940547658118021, 
            1.691529, 
            3.170612, 
            0.772798, 
            1.345772, 
            0.4469725231323194
        ], 
        [
            1.304939, 
            -2.307327, 
            3.442029, 
            -3.445872, 
            1.228581, 
            -0.428694, 
            3.850989, 
            -4.813326, 
            0.59053, 
            3.012124
        ]
    ], 
    "momentum weights" : [
        [
            3.428671, 
            5.079211, 
            -4.64501, 
            -6.607541, 
            1.542174, 
            0.9367055667405415, 
            -2.270426, 
            1.264577, 
            -0.025543, 
            -7.378421, 
            -1.902653, 
            -0.8146304735585546, 
            -3.940728, 
            0.525614, 
            -1.461937, 
            -6.715886, 
            -1.659608, 
            0.6518301404812574, 
            0.335346, 
            -1.261974, 
            -0.074505, 
            0.767529, 
            0.673528, 
            -0.22266299469086204, 
            -3.340709, 
            -3.135937, 
            0.671286, 
            -2.021723, 
            2.320205, 
            -0.2547389893696914
        ], 
        [
            -0.744509, 
            -1.195284, 
            2.164367, 
            -2.735896, 
            0.23674104407114616, 
            1.447984, 
            3.728463, 
            1.94564, 
            -2.57105, 
            -0.4394315153513897, 
            -0.9595, 
            0.036074, 
            -1.013515, 
            -2.534701, 
            -0.23163521384866503, 
            -0.5416, 
            -3.627359, 
            -1.276324, 
            -5.034594, 
            0.6003510982647742, 
            3.017474, 
            -2.767758, 
            0.494348, 
            0.059683, 
            0.8940547658118021, 
            1.691529, 
            3.170612, 
            0.772798, 
            1.345772, 
            0.4469725231323194
        ], 
        [
            1.304939, 
            -2.307327, 
            3.442029, 
            -3.445872, 
            1.228581, 
            -0.428694, 
            3.850989, 
            -4.813326, 
            0.59053, 
            3.012124
        ]
    ], 
    "nodes" : [
        [
            0.6493664770063965, 
            0.05752955131395302, 
            -0.36866909341546944, 
            0.7728434127135674, 
            1.0
        ], 
        [
            0.43587991278871535, 
            -0.7324547864245506, 
            -0.9531484539650829, 
            -0.9986970151335695, 
            0.9996632405130272, 
            0.7615941559557649
        ], 
        [
            0.9996831639014728, 
            -0.015787176709442182, 
            0.9932196913041706, 
            0.9999999803524862, 
            0.7615941559557649
        ], 
        [
            0.9999973717525836, 
            -0.9999388064356758
        ]
    ], 
    "pre activation nodes" : [
        [
            0.0, 
            0.0, 
            0.0, 
            0.0, 
            0.0
        ], 
        [
            0.46713298524926516, 
            -0.9340030293281893, 
            -1.8651069667323872, 
            -3.6677965355624957, 
            4.34456017877792, 
            1.0
        ], 
        [
            4.375057353552763, 
            -0.015788488477668672, 
            2.841741957162907, 
            9.219231100013415, 
            1.0
        ], 
        [
            6.771169590972767, 
            -5.1972925576931335
        ]
    ], 
    "average nodes" : [
        [
            0.0, 
            0.0, 
            0.0, 
            0.0, 
            0.0
        ], 
        [
            0.0, 
            0.0, 
            0.0, 
            0.0, 
            0.0, 
            0.0
        ], 
        [
            0.0, 
            0.0, 
            0.0, 
            0.0, 
            0.0
        ], 
        [
            0.0, 
            0.0
        ]
    ], 
    "input width" : 4, 
    "output width" : 2, 
    "hidden width" : 5, 
    "hidden length" : 2, 
    "hidden layer details" : {
        "items" : 3, 
        "0" : "is shallow", 
        "1" : "probabilities", 
        "2" : "width", 
        "is shallow" : true, 
        "probabilities" : {
            "2" : 0.85, 
            "3" : 0.12, 
            "1" : 0.03
        }, 
        "width" : {
            "no change" : 0.6, 
            "decrease" : 0.35, 
            "increase" : 0.05
        }
    }, 
    "weight range" : 1.0, 
    "activation function" : 2, 
    "learning rate" : 0.05, 
    "momentum active" : true, 
    "momentum" : 0.001, 
    "accuracy requirement" : 0.985, 
    "epochs" : 10, 
    "batch size" : 40, 
    "accuracy sample size" : 150, 
    "fitness sample size" : 15, 
    "allow testing" : false, 
    "show output" : true, 
    "use bias" : true, 
    "clear bias" : false, 
    "bias value" : 1.0, 
    "child" : null
}