{
    "child iterations" : 15, 
    "is fertile" : false, 
    "is classifier" : false, 
    "is child" : false, 
    "weights" : [
        [
            -2.082738, 
            1.313752, 
            -5.118746, 
            -1.594395, 
            -2.221037, 
            5.209774, 
            -0.20954936233913002, 
            -0.881515, 
            -5.955317, 
            -3.418373, 
            1.418009, 
            -2.482825, 
            2.855567, 
            0.14816708965612113, 
            2.615965, 
            -1.083917, 
            -1.636437, 
            0.447024, 
            -5.676632, 
            6.82489, 
            -0.9910115405027236, 
            3.435645, 
            0.164261, 
            -1.815423, 
            1.431697, 
            1.51523, 
            -0.371988, 
            0.6080865828545747, 
            -1.929526, 
            0.665271, 
            -0.264968, 
            3.131321, 
            -3.381966, 
            2.383885, 
            0.2963367982886016
        ], 
        [
            -1.672363, 
            -0.452538, 
            1.739047, 
            -3.009805, 
            1.990947, 
            0.10689011631508905, 
            -0.962103, 
            -3.789071, 
            2.014328, 
            -0.946601, 
            -3.20971, 
            0.5097467722066016, 
            2.818646, 
            -3.038478, 
            -1.278116, 
            -2.805531, 
            -1.112949, 
            0.9889856003589583, 
            1.34988, 
            1.393968, 
            -1.403336, 
            0.201856, 
            1.026655, 
            0.9270113623527705, 
            -0.41422, 
            -1.443914, 
            -2.85594, 
            -2.621831, 
            3.409302, 
            0.4210035601876172, 
            2.475116, 
            4.075401, 
            2.684205, 
            -0.422906, 
            -1.812402, 
            0.4572654220904835, 
            2.144405, 
            -0.943493, 
            4.437506, 
            -1.209678, 
            -0.716842, 
            0.5555453455246178
        ], 
        [
            -0.557392, 
            -1.591851, 
            4.47457, 
            -3.524062, 
            1.065877, 
            -3.180606, 
            2.119773, 
            -3.584006, 
            -2.095458, 
            -1.034497, 
            -0.235855, 
            1.357746
        ]
    ], 
    "momentum weights" : [
        [
            -2.082738, 
            1.313752, 
            -5.118746, 
            -1.594395, 
            -2.221037, 
            5.209774, 
            -0.20954936233913002, 
            -0.881515, 
            -5.955317, 
            -3.418373, 
            1.418009, 
            -2.482825, 
            2.855567, 
            0.14816708965612113, 
            2.615965, 
            -1.083917, 
            -1.636437, 
            0.447024, 
            -5.676632, 
            6.82489, 
            -0.9910115405027236, 
            3.435645, 
            0.164261, 
            -1.815423, 
            1.431697, 
            1.51523, 
            -0.371988, 
            0.6080865828545747, 
            -1.929526, 
            0.665271, 
            -0.264968, 
            3.131321, 
            -3.381966, 
            2.383885, 
            0.2963367982886016
        ], 
        [
            -1.672363, 
            -0.452538, 
            1.739047, 
            -3.009805, 
            1.990947, 
            0.10689011631508905, 
            -0.962103, 
            -3.789071, 
            2.014328, 
            -0.946601, 
            -3.20971, 
            0.5097467722066016, 
            2.818646, 
            -3.038478, 
            -1.278116, 
            -2.805531, 
            -1.112949, 
            0.9889856003589583, 
            1.34988, 
            1.393968, 
            -1.403336, 
            0.201856, 
            1.026655, 
            0.9270113623527705, 
            -0.41422, 
            -1.443914, 
            -2.85594, 
            -2.621831, 
            3.409302, 
            0.4210035601876172, 
            2.475116, 
            4.075401, 
            2.684205, 
            -0.422906, 
            -1.812402, 
            0.4572654220904835, 
            2.144405, 
            -0.943493, 
            4.437506, 
            -1.209678, 
            -0.716842, 
            0.5555453455246178
        ], 
        [
            -0.557392, 
            -1.591851, 
            4.47457, 
            -3.524062, 
            1.065877, 
            -3.180606, 
            2.119773, 
            -3.584006, 
            -2.095458, 
            -1.034497, 
            -0.235855, 
            1.357746
        ]
    ], 
    "nodes" : [
        [
            -0.4998161088635528, 
            0.325897016617586, 
            -0.5513834622094901, 
            0.16895350846085994, 
            1.0
        ], 
        [
            -0.9666003873141412, 
            -0.8634576476226489, 
            0.9441557599913142, 
            0.9996898720151395, 
            0.2958845615797536, 
            -0.9960720022647851, 
            0.7615941559557649
        ], 
        [
            0.9999668072877478, 
            -0.9947635501956786, 
            -0.999991236047139, 
            0.003765493791849167, 
            0.995872958005361, 
            0.7615941559557649
        ], 
        [
            -0.9999998843295894, 
            0.9999233548691959
        ]
    ], 
    "pre activation nodes" : [
        [
            0.0, 
            0.0, 
            0.0, 
            0.0, 
            0.0
        ], 
        [
            -2.0377586678042308, 
            -1.3067770755026895, 
            1.7750083591519394, 
            4.385758797920543, 
            0.3050032411727517, 
            -3.1154033577911426, 
            1.0
        ], 
        [
            5.503155400339958, 
            -2.9713185253200725, 
            -6.169003156767811, 
            0.0037655115889084767, 
            3.090637940124131, 
            1.0
        ], 
        [
            -8.332834050568342, 
            5.084716668492517
        ]
    ], 
    "average nodes" : [
        [
            0.0, 
            0.0, 
            0.0, 
            0.0, 
            0.0
        ], 
        [
            0.0, 
            0.0, 
            0.0, 
            0.0, 
            0.0, 
            0.0, 
            0.0
        ], 
        [
            0.0, 
            0.0, 
            0.0, 
            0.0, 
            0.0, 
            0.0
        ], 
        [
            0.0, 
            0.0
        ]
    ], 
    "input width" : 4, 
    "output width" : 2, 
    "hidden width" : 7, 
    "hidden length" : 2, 
    "hidden layer details" : {
        "items" : 3, 
        "0" : "is shallow", 
        "1" : "probabilities", 
        "2" : "width", 
        "is shallow" : true, 
        "probabilities" : {
            "2" : 0.85, 
            "3" : 0.12, 
            "1" : 0.03
        }, 
        "width" : {
            "no change" : 0.6, 
            "decrease" : 0.35, 
            "increase" : 0.05
        }
    }, 
    "weight range" : 1.0, 
    "activation function" : 2, 
    "learning rate" : 0.05, 
    "momentum active" : true, 
    "momentum" : 0.001, 
    "accuracy requirement" : 0.985, 
    "epochs" : 10, 
    "batch size" : 40, 
    "accuracy sample size" : 150, 
    "fitness sample size" : 15, 
    "allow testing" : false, 
    "show output" : true, 
    "use bias" : true, 
    "clear bias" : false, 
    "bias value" : 1.0, 
    "child" : null
}