{
    "child iterations" : 15, 
    "is fertile" : false, 
    "is classifier" : false, 
    "is child" : false, 
    "weights" : [
        [
            4.660755, 
            -2.011891, 
            -6.999419, 
            0.329307, 
            4.99885, 
            -1.799965, 
            -0.41124019111317156, 
            8.109176, 
            -1.211619, 
            -2.935604, 
            -4.561783, 
            3.338437, 
            0.054658, 
            0.8433750305806016, 
            6.645594, 
            -5.726159, 
            -4.379473, 
            -1.436239, 
            4.96674, 
            2.592486, 
            -0.3704520775494877, 
            0.223184, 
            2.289549, 
            -1.800083, 
            -0.414949, 
            -0.596128, 
            -3.59519, 
            0.03698714935458769, 
            1.070788, 
            -4.200481, 
            0.214322, 
            1.934718, 
            2.833047, 
            -0.748074, 
            -0.9902744475604568
        ], 
        [
            -1.008056, 
            -2.437323, 
            4.205545, 
            -0.139898, 
            -5.184278, 
            -0.1361949257274453, 
            1.044212, 
            -1.593449, 
            -2.642859, 
            -0.771048, 
            -1.774505, 
            -0.34822638697916486, 
            4.329839, 
            2.566488, 
            -2.543729, 
            1.06532, 
            3.701244, 
            -0.9258345824563894, 
            3.443834, 
            1.315076, 
            -1.559619, 
            -1.188936, 
            -2.978604, 
            -0.8503834916671669, 
            -1.877678, 
            -0.663624, 
            2.873765, 
            3.436658, 
            -0.540066, 
            0.659234556338687, 
            3.442092, 
            0.612883, 
            -1.074125, 
            -1.364731, 
            0.717831, 
            0.8904429272818968, 
            -4.120805, 
            2.379109, 
            0.662859, 
            3.790266, 
            -3.330163, 
            -0.9730230587273128
        ], 
        [
            -3.185754, 
            0.345572, 
            -3.12016, 
            -1.714689, 
            5.960625, 
            -4.837485, 
            2.462931, 
            3.423233, 
            1.924779, 
            3.187142, 
            4.067995, 
            -2.757381
        ]
    ], 
    "momentum weights" : [
        [
            4.660755, 
            -2.011891, 
            -6.999419, 
            0.329307, 
            4.99885, 
            -1.799965, 
            -0.41124019111317156, 
            8.109176, 
            -1.211619, 
            -2.935604, 
            -4.561783, 
            3.338437, 
            0.054658, 
            0.8433750305806016, 
            6.645594, 
            -5.726159, 
            -4.379473, 
            -1.436239, 
            4.96674, 
            2.592486, 
            -0.3704520775494877, 
            0.223184, 
            2.289549, 
            -1.800083, 
            -0.414949, 
            -0.596128, 
            -3.59519, 
            0.03698714935458769, 
            1.070788, 
            -4.200481, 
            0.214322, 
            1.934718, 
            2.833047, 
            -0.748074, 
            -0.9902744475604568
        ], 
        [
            -1.008056, 
            -2.437323, 
            4.205545, 
            -0.139898, 
            -5.184278, 
            -0.1361949257274453, 
            1.044212, 
            -1.593449, 
            -2.642859, 
            -0.771048, 
            -1.774505, 
            -0.34822638697916486, 
            4.329839, 
            2.566488, 
            -2.543729, 
            1.06532, 
            3.701244, 
            -0.9258345824563894, 
            3.443834, 
            1.315076, 
            -1.559619, 
            -1.188936, 
            -2.978604, 
            -0.8503834916671669, 
            -1.877678, 
            -0.663624, 
            2.873765, 
            3.436658, 
            -0.540066, 
            0.659234556338687, 
            3.442092, 
            0.612883, 
            -1.074125, 
            -1.364731, 
            0.717831, 
            0.8904429272818968, 
            -4.120805, 
            2.379109, 
            0.662859, 
            3.790266, 
            -3.330163, 
            -0.9730230587273128
        ], 
        [
            -3.185754, 
            0.345572, 
            -3.12016, 
            -1.714689, 
            5.960625, 
            -4.837485, 
            2.462931, 
            3.423233, 
            1.924779, 
            3.187142, 
            4.067995, 
            -2.757381
        ]
    ], 
    "nodes" : [
        [
            -0.3541310602946585, 
            -0.0968654465718979, 
            -0.41510758825683325, 
            0.614113860170763, 
            1.0
        ], 
        [
            -0.9993113707583174, 
            0.39048480664245805, 
            0.9987532984850517, 
            0.9890567629381857, 
            -0.933943392587506, 
            -0.9977747571328848, 
            0.7615941559557649
        ], 
        [
            0.9996508777320819, 
            0.9999993852317912, 
            -0.9999999982385018, 
            0.6442936657466314, 
            0.9863548635173409, 
            0.7615941559557649
        ], 
        [
            -0.9999767837886305, 
            0.9999970737279144
        ]
    ], 
    "pre activation nodes" : [
        [
            0.0, 
            0.0, 
            0.0, 
            0.0, 
            0.0
        ], 
        [
            -3.9868051745994775, 
            0.4123719354425468, 
            3.689888819442978, 
            2.601347085673047, 
            -1.6884021717457212, 
            -3.399961577632382, 
            1.0
        ], 
        [
            4.326530481715144, 
            7.49758370481954, 
            -10.425124155064232, 
            0.7654803509072723, 
            2.490336677337979, 
            1.0
        ], 
        [
            -5.681897664889355, 
            6.717463494086456
        ]
    ], 
    "average nodes" : [
        [
            0.0, 
            0.0, 
            0.0, 
            0.0, 
            0.0
        ], 
        [
            0.0, 
            0.0, 
            0.0, 
            0.0, 
            0.0, 
            0.0, 
            0.0
        ], 
        [
            0.0, 
            0.0, 
            0.0, 
            0.0, 
            0.0, 
            0.0
        ], 
        [
            0.0, 
            0.0
        ]
    ], 
    "input width" : 4, 
    "output width" : 2, 
    "hidden width" : 6, 
    "hidden length" : 2, 
    "hidden layer details" : {
        "items" : 3, 
        "0" : "is shallow", 
        "1" : "probabilities", 
        "2" : "width", 
        "is shallow" : true, 
        "probabilities" : {
            "2" : 0.85, 
            "3" : 0.12, 
            "1" : 0.03
        }, 
        "width" : {
            "no change" : 0.6, 
            "decrease" : 0.35, 
            "increase" : 0.05
        }
    }, 
    "weight range" : 1.0, 
    "activation function" : 2, 
    "learning rate" : 0.05, 
    "momentum active" : true, 
    "momentum" : 0.001, 
    "accuracy requirement" : 0.985, 
    "epochs" : 10, 
    "batch size" : 40, 
    "accuracy sample size" : 150, 
    "fitness sample size" : 15, 
    "allow testing" : false, 
    "show output" : true, 
    "use bias" : true, 
    "clear bias" : false, 
    "bias value" : 1.0, 
    "child" : null
}