{
    "child iterations" : 15, 
    "is fertile" : false, 
    "is classifier" : false, 
    "is child" : false, 
    "weights" : [
        [
            -3.346701, 
            -1.656127, 
            8.935458, 
            -0.395595, 
            -5.098727, 
            -2.152166, 
            -2.448904, 
            -9.6283, 
            -0.154626, 
            2.970681, 
            -7.44743, 
            -2.583471, 
            -3.283482, 
            -5.819193, 
            -4.786907, 
            -0.109971, 
            -0.226182, 
            -0.283137, 
            -10.209574, 
            -0.384396, 
            -5.913474, 
            -1.203465, 
            2.5532, 
            0.266041, 
            2.962569, 
            3.004158, 
            0.871419, 
            1.114626, 
            0.000688, 
            1.174124, 
            1.018266, 
            4.400122, 
            -6.271884, 
            0.750253, 
            5.859577
        ], 
        [
            5.861396, 
            2.941973, 
            -2.822492, 
            4.850598, 
            -2.176392, 
            4.455593, 
            -0.893866, 
            2.747872, 
            -0.492771, 
            4.101719, 
            0.757187, 
            2.983166, 
            -5.782138, 
            5.280514, 
            -6.322624, 
            3.608258, 
            -2.154256, 
            4.742678, 
            3.305677, 
            -3.566333, 
            2.85311, 
            1.240351, 
            2.89272, 
            1.078502, 
            7.906514, 
            2.952394, 
            -0.05321, 
            -0.25659, 
            1.071622, 
            -1.869908, 
            0.291685, 
            5.209878, 
            1.78982, 
            1.536296, 
            -3.489184, 
            -5.238374, 
            2.77888, 
            -2.280894, 
            -1.803957, 
            2.309861, 
            -2.134489, 
            -2.865498
        ], 
        [
            -5.972, 
            8.945407, 
            -4.430526, 
            -3.011867, 
            -5.756577, 
            -0.101147, 
            -1.538531, 
            3.477191, 
            2.032477, 
            0.930528, 
            2.397236, 
            -4.07184
        ]
    ], 
    "momentum weights" : [
        [
            -3.346701, 
            -1.656127, 
            8.935458, 
            -0.395595, 
            -5.098727, 
            -2.152166, 
            -2.448904, 
            -9.6283, 
            -0.154626, 
            2.970681, 
            -7.44743, 
            -2.583471, 
            -3.283482, 
            -5.819193, 
            -4.786907, 
            -0.109971, 
            -0.226182, 
            -0.283137, 
            -10.209574, 
            -0.384396, 
            -5.913474, 
            -1.203465, 
            2.5532, 
            0.266041, 
            2.962569, 
            3.004158, 
            0.871419, 
            1.114626, 
            0.000688, 
            1.174124, 
            1.018266, 
            4.400122, 
            -6.271884, 
            0.750253, 
            5.859577
        ], 
        [
            5.861396, 
            2.941973, 
            -2.822492, 
            4.850598, 
            -2.176392, 
            4.455593, 
            -0.893866, 
            2.747872, 
            -0.492771, 
            4.101719, 
            0.757187, 
            2.983166, 
            -5.782138, 
            5.280514, 
            -6.322624, 
            3.608258, 
            -2.154256, 
            4.742678, 
            3.305677, 
            -3.566333, 
            2.85311, 
            1.240351, 
            2.89272, 
            1.078502, 
            7.906514, 
            2.952394, 
            -0.05321, 
            -0.25659, 
            1.071622, 
            -1.869908, 
            0.291685, 
            5.209878, 
            1.78982, 
            1.536296, 
            -3.489184, 
            -5.238374, 
            2.77888, 
            -2.280894, 
            -1.803957, 
            2.309861, 
            -2.134489, 
            -2.865498
        ], 
        [
            -5.972, 
            8.945407, 
            -4.430526, 
            -3.011867, 
            -5.756577, 
            -0.101147, 
            -1.538531, 
            3.477191, 
            2.032477, 
            0.930528, 
            2.397236, 
            -4.07184
        ]
    ], 
    "nodes" : [
        [
            -0.22934469852670752, 
            -0.5018241551822845, 
            -0.04570185452430699, 
            0.5849550360529928, 
            1.0
        ], 
        [
            0.9999278225890705, 
            0.9961853796068955, 
            -0.982180667288794, 
            0.9999999956581777, 
            -0.9189410453442484, 
            0.9978572917644944, 
            0.7615941559557649
        ], 
        [
            0.9999999749172527, 
            -0.9810608395575741, 
            0.999991940291888, 
            0.999999997010671, 
            -0.9867578493574346, 
            0.7615941559557649
        ], 
        [
            -0.9999999750758352, 
            0.999999999666312
        ]
    ], 
    "pre activation nodes" : [
        [
            0.0, 
            0.0, 
            0.0, 
            0.0, 
            0.0
        ], 
        [
            5.114747260117492, 
            3.1300760860505505, 
            -2.3558344447425297, 
            9.9740594262318, 
            -1.5821760244000505, 
            3.418879985789656, 
            1.0
        ], 
        [
            9.097116375989572, 
            -2.325077999105675, 
            6.210888183592307, 
            10.160682027278849, 
            -2.505427197554418, 
            1.0
        ], 
        [
            -9.10028759737633, 
            11.256980992067401
        ]
    ], 
    "average nodes" : [
        [
            0.0, 
            0.0, 
            0.0, 
            0.0, 
            0.0
        ], 
        [
            0.0, 
            0.0, 
            0.0, 
            0.0, 
            0.0, 
            0.0, 
            0.0
        ], 
        [
            0.0, 
            0.0, 
            0.0, 
            0.0, 
            0.0, 
            0.0
        ], 
        [
            0.0, 
            0.0
        ]
    ], 
    "input width" : 4, 
    "output width" : 2, 
    "hidden width" : 7, 
    "hidden length" : 2, 
    "hidden layer details" : {
        "items" : 3, 
        "0" : "is shallow", 
        "1" : "probabilities", 
        "2" : "width", 
        "is shallow" : true, 
        "probabilities" : {
            "2" : 0.85, 
            "3" : 0.12, 
            "1" : 0.03
        }, 
        "width" : {
            "no change" : 0.6, 
            "decrease" : 0.35, 
            "increase" : 0.05
        }
    }, 
    "weight range" : 1.0, 
    "activation function" : 2, 
    "learning rate" : 0.05, 
    "momentum active" : true, 
    "momentum" : 0.001, 
    "accuracy requirement" : 0.985, 
    "epochs" : 10, 
    "batch size" : 40, 
    "accuracy sample size" : 150, 
    "fitness sample size" : 15, 
    "allow testing" : false, 
    "show output" : true, 
    "use bias" : true, 
    "clear bias" : false, 
    "bias value" : 1.0, 
    "child" : null
}