{
    "child iterations" : 15, 
    "is fertile" : false, 
    "is classifier" : false, 
    "is child" : false, 
    "weights" : [
        [
            -10.005695, 
            -9.718312, 
            32.099058, 
            1.851958, 
            5.630605, 
            2.801365, 
            4.6130644184649885, 
            -2.718898, 
            -0.114621, 
            18.8346, 
            0.35021, 
            21.343635, 
            -17.598894, 
            -0.7984503764977244, 
            -1.785288, 
            -11.418875, 
            3.484657, 
            -9.336173, 
            18.185535, 
            21.888767, 
            4.263800768721788, 
            0.742633, 
            -8.320743, 
            -2.548026, 
            15.030947, 
            3.437404, 
            -1.90573, 
            3.0579695052569447, 
            14.886518, 
            6.267007, 
            5.88891, 
            -2.456435, 
            3.789256, 
            -3.543356, 
            0.4232901959016876
        ], 
        [
            16.578924, 
            -13.594084, 
            -10.206599, 
            -22.653944, 
            0.406936, 
            -5.125357466779716, 
            -2.062092, 
            0.98229, 
            -0.265207, 
            29.284298, 
            22.548006, 
            3.6874034203267607, 
            -3.578571, 
            1.10774, 
            9.667559, 
            -17.853089, 
            -18.376575, 
            -1.1906162665071702, 
            -1.240293, 
            6.177038, 
            12.830841, 
            -15.587716, 
            0.701462, 
            -2.17957902508255, 
            11.589092, 
            6.011132, 
            -1.171749, 
            -14.576043, 
            -14.790984, 
            -6.466649728548185, 
            13.373106, 
            9.833436, 
            20.442942, 
            -5.237868, 
            6.56494, 
            -1.6056663115406753, 
            -3.13869, 
            1.948913, 
            5.054452, 
            23.223, 
            -16.27641, 
            5.716666538687334
        ], 
        [
            -2.387822, 
            1.64647, 
            -6.308671, 
            0.685506, 
            6.27303, 
            0.537577, 
            -7.656058, 
            17.877308, 
            -21.135422, 
            27.196628, 
            -4.027964, 
            1.590549
        ]
    ], 
    "momentum weights" : [
        [
            -10.005695, 
            -9.718312, 
            32.099058, 
            1.851958, 
            5.630605, 
            2.801365, 
            4.6130644184649885, 
            -2.718898, 
            -0.114621, 
            18.8346, 
            0.35021, 
            21.343635, 
            -17.598894, 
            -0.7984503764977244, 
            -1.785288, 
            -11.418875, 
            3.484657, 
            -9.336173, 
            18.185535, 
            21.888767, 
            4.263800768721788, 
            0.742633, 
            -8.320743, 
            -2.548026, 
            15.030947, 
            3.437404, 
            -1.90573, 
            3.0579695052569447, 
            14.886518, 
            6.267007, 
            5.88891, 
            -2.456435, 
            3.789256, 
            -3.543356, 
            0.4232901959016876
        ], 
        [
            16.578924, 
            -13.594084, 
            -10.206599, 
            -22.653944, 
            0.406936, 
            -5.125357466779716, 
            -2.062092, 
            0.98229, 
            -0.265207, 
            29.284298, 
            22.548006, 
            3.6874034203267607, 
            -3.578571, 
            1.10774, 
            9.667559, 
            -17.853089, 
            -18.376575, 
            -1.1906162665071702, 
            -1.240293, 
            6.177038, 
            12.830841, 
            -15.587716, 
            0.701462, 
            -2.17957902508255, 
            11.589092, 
            6.011132, 
            -1.171749, 
            -14.576043, 
            -14.790984, 
            -6.466649728548185, 
            13.373106, 
            9.833436, 
            20.442942, 
            -5.237868, 
            6.56494, 
            -1.6056663115406753, 
            -3.13869, 
            1.948913, 
            5.054452, 
            23.223, 
            -16.27641, 
            5.716666538687334
        ], 
        [
            -2.387822, 
            1.64647, 
            -6.308671, 
            0.685506, 
            6.27303, 
            0.537577, 
            -7.656058, 
            17.877308, 
            -21.135422, 
            27.196628, 
            -4.027964, 
            1.590549
        ]
    ], 
    "nodes" : [
        [
            0.0742473083385616, 
            0.13170961694612102, 
            -0.6695026600900338, 
            0.45279649381234244, 
            1.0
        ], 
        [
            0.9998387896218769, 
            0.9938988109845608, 
            0.9773975436844081, 
            0.9973793052626085, 
            -0.8032827308678621, 
            -0.9999956049887898, 
            0.29833624997754543
        ], 
        [
            -0.9995966946121648, 
            -0.9999873482697442, 
            -0.9573034762021488, 
            -0.6752879196333375, 
            0.9518559211300703, 
            0.29833624997754543
        ], 
        [
            -0.9994943822865484, 
            0.9982530785999587
        ]
    ], 
    "pre activation nodes" : [
        [
            0.0, 
            0.0, 
            0.0, 
            0.0, 
            0.0
        ], 
        [
            15.31703374771398, 
            9.407715735823668, 
            7.266152238092739, 
            10.783746680446665, 
            -3.6003443229884233, 
            -21.170801371235473, 
            1.0
        ], 
        [
            -13.826738257040152, 
            -19.45264332002765, 
            -6.215958970799106, 
            -2.6663023378668615, 
            6.0162989172928585, 
            1.0
        ], 
        [
            -13.459264034077055, 
            11.443532064905563
        ]
    ], 
    "average nodes" : [
        [
            0.0, 
            0.0, 
            0.0, 
            0.0, 
            0.0
        ], 
        [
            0.0, 
            0.0, 
            0.0, 
            0.0, 
            0.0, 
            0.0, 
            0.0
        ], 
        [
            0.0, 
            0.0, 
            0.0, 
            0.0, 
            0.0, 
            0.0
        ], 
        [
            0.0, 
            0.0
        ]
    ], 
    "input width" : 4, 
    "output width" : 2, 
    "hidden width" : 6, 
    "hidden length" : 2, 
    "hidden layer details" : {
        "items" : 3, 
        "0" : "is shallow", 
        "1" : "probabilities", 
        "2" : "width", 
        "is shallow" : true, 
        "probabilities" : {
            "1" : 0.03, 
            "2" : 0.8, 
            "3" : 0.17
        }, 
        "width" : {
            "no change" : 0.6, 
            "decrease" : 0.35, 
            "increase" : 0.05
        }
    }, 
    "weight range" : 1.0, 
    "activation function" : 2, 
    "learning rate" : 0.1625, 
    "momentum active" : true, 
    "momentum" : 0.001, 
    "accuracy requirement" : 0.985, 
    "epochs" : 15, 
    "batch size" : 20, 
    "accuracy sample size" : 150, 
    "fitness sample size" : 15, 
    "allow testing" : false, 
    "show output" : true, 
    "use bias" : true, 
    "clear bias" : false, 
    "bias value" : 1.0, 
    "child" : null
}