{
    "child iterations" : 15, 
    "is fertile" : false, 
    "is classifier" : false, 
    "is child" : false, 
    "weights" : [
        [
            -4.998831, 
            -6.333095, 
            -0.117305, 
            2.65679, 
            -2.204199, 
            0.1689162236013102, 
            -0.033243, 
            -3.829426, 
            -2.030721, 
            -3.390996, 
            -4.994101, 
            -0.03980861685270232, 
            -1.862125, 
            -2.652558, 
            2.388597, 
            -1.234269, 
            -6.564702, 
            0.00570132092574771, 
            -0.974685, 
            1.598505, 
            -2.696815, 
            0.372792, 
            -1.243744, 
            0.8586669162205689, 
            1.882018, 
            -2.17319, 
            2.304164, 
            0.922619, 
            -1.760119, 
            -0.9200681912589086
        ], 
        [
            -0.103043, 
            -1.449588, 
            -4.182229, 
            -2.229827, 
            -0.05538970250484909, 
            -4.542094, 
            -0.154556, 
            -0.10823, 
            -3.439424, 
            -0.7848017024681133, 
            0.394301, 
            -2.842246, 
            2.513976, 
            1.380535, 
            -0.2729789906262319, 
            1.187528, 
            -2.594806, 
            0.518578, 
            -2.361988, 
            0.2761603681778684, 
            -0.439127, 
            -3.277958, 
            -0.294993, 
            -3.448491, 
            -0.14553584534231456, 
            -1.110778, 
            -2.587061, 
            0.699524, 
            0.463661, 
            -0.3722437643701004
        ], 
        [
            3.230971, 
            -1.339023, 
            1.663173, 
            -1.164221, 
            0.110015, 
            -2.720832, 
            3.317192, 
            -3.870022, 
            -0.515278, 
            -2.137091
        ]
    ], 
    "momentum weights" : [
        [
            -4.998831, 
            -6.333095, 
            -0.117305, 
            2.65679, 
            -2.204199, 
            0.1689162236013102, 
            -0.033243, 
            -3.829426, 
            -2.030721, 
            -3.390996, 
            -4.994101, 
            -0.03980861685270232, 
            -1.862125, 
            -2.652558, 
            2.388597, 
            -1.234269, 
            -6.564702, 
            0.00570132092574771, 
            -0.974685, 
            1.598505, 
            -2.696815, 
            0.372792, 
            -1.243744, 
            0.8586669162205689, 
            1.882018, 
            -2.17319, 
            2.304164, 
            0.922619, 
            -1.760119, 
            -0.9200681912589086
        ], 
        [
            -0.103043, 
            -1.449588, 
            -4.182229, 
            -2.229827, 
            -0.05538970250484909, 
            -4.542094, 
            -0.154556, 
            -0.10823, 
            -3.439424, 
            -0.7848017024681133, 
            0.394301, 
            -2.842246, 
            2.513976, 
            1.380535, 
            -0.2729789906262319, 
            1.187528, 
            -2.594806, 
            0.518578, 
            -2.361988, 
            0.2761603681778684, 
            -0.439127, 
            -3.277958, 
            -0.294993, 
            -3.448491, 
            -0.14553584534231456, 
            -1.110778, 
            -2.587061, 
            0.699524, 
            0.463661, 
            -0.3722437643701004
        ], 
        [
            3.230971, 
            -1.339023, 
            1.663173, 
            -1.164221, 
            0.110015, 
            -2.720832, 
            3.317192, 
            -3.870022, 
            -0.515278, 
            -2.137091
        ]
    ], 
    "nodes" : [
        [
            0.18280221246277106, 
            0.6992669702559804, 
            -0.7238331143515627, 
            0.34955490693508634, 
            1.0
        ], 
        [
            0.9604852558939547, 
            -0.9982836099515442, 
            -0.9477226303714255, 
            0.06071586462247239, 
            -0.8712559641615547, 
            0.7615941559557649
        ], 
        [
            0.9987037012495028, 
            0.974951753171511, 
            -0.9999645475121292, 
            0.9966669282530725, 
            0.7615941559557649
        ], 
        [
            0.9999995485624534, 
            -0.9999434022322365
        ]
    ], 
    "pre activation nodes" : [
        [
            0.0, 
            0.0, 
            0.0, 
            0.0, 
            0.0
        ], 
        [
            1.9521367151761733, 
            -3.5299103099279687, 
            -1.8089262564250843, 
            0.060790638062550695, 
            -1.338269454051729, 
            1.0
        ], 
        [
            3.6703705056516185, 
            2.1837477050339524, 
            -5.470223290946797, 
            3.19767010406406, 
            1.0
        ], 
        [
            7.651987876385872, 
            -5.2363299468082545
        ]
    ], 
    "average nodes" : [
        [
            0.0, 
            0.0, 
            0.0, 
            0.0, 
            0.0
        ], 
        [
            0.0, 
            0.0, 
            0.0, 
            0.0, 
            0.0, 
            0.0
        ], 
        [
            0.0, 
            0.0, 
            0.0, 
            0.0, 
            0.0
        ], 
        [
            0.0, 
            0.0
        ]
    ], 
    "input width" : 4, 
    "output width" : 2, 
    "hidden width" : 5, 
    "hidden length" : 2, 
    "hidden layer details" : {
        "items" : 3, 
        "0" : "is shallow", 
        "1" : "probabilities", 
        "2" : "width", 
        "is shallow" : true, 
        "probabilities" : {
            "2" : 0.85, 
            "3" : 0.12, 
            "1" : 0.03
        }, 
        "width" : {
            "no change" : 0.6, 
            "decrease" : 0.35, 
            "increase" : 0.05
        }
    }, 
    "weight range" : 1.0, 
    "activation function" : 2, 
    "learning rate" : 0.05, 
    "momentum active" : true, 
    "momentum" : 0.001, 
    "accuracy requirement" : 0.985, 
    "epochs" : 10, 
    "batch size" : 40, 
    "accuracy sample size" : 150, 
    "fitness sample size" : 15, 
    "allow testing" : false, 
    "show output" : true, 
    "use bias" : true, 
    "clear bias" : false, 
    "bias value" : 1.0, 
    "child" : null
}