{
    "child iterations" : 15, 
    "is fertile" : false, 
    "is classifier" : false, 
    "is child" : false, 
    "weights" : [
        [
            0.097697, 
            4.816296, 
            -6.5348, 
            4.825491, 
            -0.8327135398375858, 
            -7.662949, 
            4.971657, 
            -1.326341, 
            2.636654, 
            0.8668870722088671, 
            -1.871369, 
            9.3479, 
            -3.203911, 
            2.425973, 
            -0.8767195222204909, 
            -3.724504, 
            -1.60928, 
            0.045307, 
            -0.357267, 
            0.4574395490374177, 
            2.201953, 
            4.647385, 
            1.434803, 
            2.202021, 
            -0.602354833068929
        ], 
        [
            -0.377791, 
            -1.237538, 
            2.680097, 
            -2.240134, 
            0.8322185249504932, 
            6.172026, 
            2.211871, 
            -3.096775, 
            3.564826, 
            -0.41726789583349744, 
            2.872412, 
            -1.995245, 
            -2.839787, 
            -3.865812, 
            0.17729347149636676, 
            3.203415, 
            4.273192, 
            2.770204, 
            -0.172444, 
            -0.8965896500993484, 
            -3.314823, 
            0.230822, 
            -5.126845, 
            2.011758, 
            -0.8859285605935778
        ], 
        [
            -3.138104, 
            -1.668012, 
            2.419467, 
            -0.21746836694381133, 
            -3.274142, 
            1.754676, 
            3.938054, 
            -0.4390901837038754, 
            -1.225273, 
            -8.155546, 
            -1.853869, 
            0.6513216640988744, 
            -3.546143, 
            2.083337, 
            2.441089, 
            0.02189140285985225, 
            0.012396, 
            -2.10314, 
            1.900197, 
            0.04241807191420843
        ], 
        [
            -6.723679, 
            5.128358, 
            4.89681, 
            5.771147, 
            1.553428, 
            -3.593003, 
            -0.81078, 
            -1.823171
        ]
    ], 
    "momentum weights" : [
        [
            0.097697, 
            4.816296, 
            -6.5348, 
            4.825491, 
            -0.8327135398375858, 
            -7.662949, 
            4.971657, 
            -1.326341, 
            2.636654, 
            0.8668870722088671, 
            -1.871369, 
            9.3479, 
            -3.203911, 
            2.425973, 
            -0.8767195222204909, 
            -3.724504, 
            -1.60928, 
            0.045307, 
            -0.357267, 
            0.4574395490374177, 
            2.201953, 
            4.647385, 
            1.434803, 
            2.202021, 
            -0.602354833068929
        ], 
        [
            -0.377791, 
            -1.237538, 
            2.680097, 
            -2.240134, 
            0.8322185249504932, 
            6.172026, 
            2.211871, 
            -3.096775, 
            3.564826, 
            -0.41726789583349744, 
            2.872412, 
            -1.995245, 
            -2.839787, 
            -3.865812, 
            0.17729347149636676, 
            3.203415, 
            4.273192, 
            2.770204, 
            -0.172444, 
            -0.8965896500993484, 
            -3.314823, 
            0.230822, 
            -5.126845, 
            2.011758, 
            -0.8859285605935778
        ], 
        [
            -3.138104, 
            -1.668012, 
            2.419467, 
            -0.21746836694381133, 
            -3.274142, 
            1.754676, 
            3.938054, 
            -0.4390901837038754, 
            -1.225273, 
            -8.155546, 
            -1.853869, 
            0.6513216640988744, 
            -3.546143, 
            2.083337, 
            2.441089, 
            0.02189140285985225, 
            0.012396, 
            -2.10314, 
            1.900197, 
            0.04241807191420843
        ], 
        [
            -6.723679, 
            5.128358, 
            4.89681, 
            5.771147, 
            1.553428, 
            -3.593003, 
            -0.81078, 
            -1.823171
        ]
    ], 
    "nodes" : [
        [
            0.6863322011408463, 
            -0.3307015607284647, 
            -0.24686927865250824, 
            0.5087627413004536, 
            1.0
        ], 
        [
            0.9976386766158967, 
            0.9965635937324969, 
            -0.9465589792375887, 
            0.999114980849942, 
            0.7615941559557649
        ], 
        [
            0.9988517400298079, 
            0.9999990936150693, 
            0.8140225146608916, 
            0.9999937345525948, 
            0.7615941559557649
        ], 
        [
            -0.9999999993743888, 
            -0.9999892878209268, 
            0.9999999481366993, 
            0.7615941559557649
        ], 
        [
            0.9920656670904608, 
            -0.9999999999999679
        ]
    ], 
    "pre activation nodes" : [
        [
            0.0, 
            0.0, 
            0.0, 
            0.0, 
            0.0
        ], 
        [
            3.3702494412356465, 
            3.1823782714834814, 
            -1.7976199183001125, 
            3.8613029238777434, 
            1.0
        ], 
        [
            3.731040218774871, 
            7.303474240093857, 
            1.1388382111928554, 
            6.3368023032727585, 
            1.0
        ], 
        [
            -10.94271954243794, 
            -6.068635528550267, 
            8.73390078411996, 
            1.0
        ], 
        [
            2.762864060967479, 
            -15.880962367794554
        ]
    ], 
    "average nodes" : [
        [
            0.0, 
            0.0, 
            0.0, 
            0.0, 
            0.0
        ], 
        [
            0.0, 
            0.0, 
            0.0, 
            0.0, 
            0.0
        ], 
        [
            0.0, 
            0.0, 
            0.0, 
            0.0, 
            0.0
        ], 
        [
            0.0, 
            0.0, 
            0.0, 
            0.0
        ], 
        [
            0.0, 
            0.0
        ]
    ], 
    "input width" : 4, 
    "output width" : 2, 
    "hidden width" : 4, 
    "hidden length" : 3, 
    "hidden layer details" : {
        "items" : 3, 
        "0" : "is shallow", 
        "1" : "probabilities", 
        "2" : "width", 
        "is shallow" : true, 
        "probabilities" : {
            "2" : 0.85, 
            "3" : 0.12, 
            "1" : 0.03
        }, 
        "width" : {
            "no change" : 0.6, 
            "decrease" : 0.35, 
            "increase" : 0.05
        }
    }, 
    "weight range" : 1.0, 
    "activation function" : 2, 
    "learning rate" : 0.05, 
    "momentum active" : true, 
    "momentum" : 0.001, 
    "accuracy requirement" : 0.985, 
    "epochs" : 10, 
    "batch size" : 40, 
    "accuracy sample size" : 150, 
    "fitness sample size" : 15, 
    "allow testing" : false, 
    "show output" : true, 
    "use bias" : true, 
    "clear bias" : false, 
    "bias value" : 1.0, 
    "child" : null
}