{
    "child iterations" : 15, 
    "is fertile" : false, 
    "is classifier" : false, 
    "is child" : false, 
    "weights" : [
        [
            -5.760679, 
            -2.143336, 
            0.392818, 
            -7.069692, 
            3.129072, 
            0.11122191298658612, 
            -6.885191, 
            1.960421, 
            -1.788786, 
            -3.097149, 
            -2.145568, 
            0.4475474467754521, 
            -9.453181, 
            1.427806, 
            -2.897188, 
            -1.4515, 
            0.42659, 
            -0.17593183865504214, 
            2.03275, 
            1.826964, 
            -3.25549, 
            1.49491, 
            3.136044, 
            0.14919361955757493, 
            -3.694019, 
            2.946889, 
            2.552875, 
            -1.583407, 
            -2.664526, 
            0.10665161760140629
        ], 
        [
            -2.517219, 
            -3.899987, 
            0.001501, 
            4.986636, 
            -0.50406, 
            0.5617954151135367, 
            -2.464023, 
            -0.4162, 
            -2.977123, 
            1.07112, 
            -2.333747, 
            0.10026748206645997, 
            -2.257536, 
            -2.761544, 
            2.509731, 
            0.428297, 
            -2.049369, 
            0.2577886108058869, 
            0.785972, 
            -1.504777, 
            -2.855717, 
            4.378671, 
            3.275898, 
            -0.20595665848940614, 
            2.30094, 
            0.87698, 
            0.244144, 
            -1.374516, 
            1.471961, 
            -0.07926564142874448, 
            0.640255, 
            2.724678, 
            3.814241, 
            0.31886, 
            3.592886, 
            -0.781964451871513
        ], 
        [
            -1.770249, 
            -0.887338, 
            4.721403, 
            0.405432, 
            -2.051546, 
            -0.41571, 
            -3.545442, 
            6.438685, 
            -3.7315, 
            -1.226532, 
            -2.297095, 
            -1.548104
        ]
    ], 
    "momentum weights" : [
        [
            -5.760679, 
            -2.143336, 
            0.392818, 
            -7.069692, 
            3.129072, 
            0.11122191298658612, 
            -6.885191, 
            1.960421, 
            -1.788786, 
            -3.097149, 
            -2.145568, 
            0.4475474467754521, 
            -9.453181, 
            1.427806, 
            -2.897188, 
            -1.4515, 
            0.42659, 
            -0.17593183865504214, 
            2.03275, 
            1.826964, 
            -3.25549, 
            1.49491, 
            3.136044, 
            0.14919361955757493, 
            -3.694019, 
            2.946889, 
            2.552875, 
            -1.583407, 
            -2.664526, 
            0.10665161760140629
        ], 
        [
            -2.517219, 
            -3.899987, 
            0.001501, 
            4.986636, 
            -0.50406, 
            0.5617954151135367, 
            -2.464023, 
            -0.4162, 
            -2.977123, 
            1.07112, 
            -2.333747, 
            0.10026748206645997, 
            -2.257536, 
            -2.761544, 
            2.509731, 
            0.428297, 
            -2.049369, 
            0.2577886108058869, 
            0.785972, 
            -1.504777, 
            -2.855717, 
            4.378671, 
            3.275898, 
            -0.20595665848940614, 
            2.30094, 
            0.87698, 
            0.244144, 
            -1.374516, 
            1.471961, 
            -0.07926564142874448, 
            0.640255, 
            2.724678, 
            3.814241, 
            0.31886, 
            3.592886, 
            -0.781964451871513
        ], 
        [
            -1.770249, 
            -0.887338, 
            4.721403, 
            0.405432, 
            -2.051546, 
            -0.41571, 
            -3.545442, 
            6.438685, 
            -3.7315, 
            -1.226532, 
            -2.297095, 
            -1.548104
        ]
    ], 
    "nodes" : [
        [
            0.726196914955758, 
            0.4420442511983297, 
            -0.7580115019277576, 
            0.46243669130818255, 
            1.0
        ], 
        [
            -0.9928531761854771, 
            0.9653837413194576, 
            0.9916638061264385, 
            -0.9999931870900843, 
            -0.21057971362831568, 
            0.7615941559557649
        ], 
        [
            -0.9939763826646307, 
            0.9994796936876297, 
            0.9999523563623357, 
            -0.9999991550760657, 
            -0.9998113400951794, 
            0.7615941559557649
        ], 
        [
            0.9999999954792247, 
            -0.9999678993075902
        ]
    ], 
    "pre activation nodes" : [
        [
            0.0, 
            0.0, 
            0.0, 
            0.0, 
            0.0
        ], 
        [
            -2.81532730574125, 
            2.019559658842565, 
            2.738059454875236, 
            -6.294917501390403, 
            -0.21377788233113826, 
            1.0
        ], 
        [
            -2.9010990705582653, 
            4.126989925562619, 
            5.322442408747985, 
            -7.338582995189544, 
            -4.634308727701339, 
            1.0
        ], 
        [
            9.953864757026961, 
            -5.519882043874416
        ]
    ], 
    "average nodes" : [
        [
            0.0, 
            0.0, 
            0.0, 
            0.0, 
            0.0
        ], 
        [
            0.0, 
            0.0, 
            0.0, 
            0.0, 
            0.0, 
            0.0
        ], 
        [
            0.0, 
            0.0, 
            0.0, 
            0.0, 
            0.0, 
            0.0
        ], 
        [
            0.0, 
            0.0
        ]
    ], 
    "input width" : 4, 
    "output width" : 2, 
    "hidden width" : 5, 
    "hidden length" : 2, 
    "hidden layer details" : {
        "items" : 3, 
        "0" : "is shallow", 
        "1" : "probabilities", 
        "2" : "width", 
        "is shallow" : true, 
        "probabilities" : {
            "2" : 0.85, 
            "3" : 0.12, 
            "1" : 0.03
        }, 
        "width" : {
            "no change" : 0.6, 
            "decrease" : 0.35, 
            "increase" : 0.05
        }
    }, 
    "weight range" : 1.0, 
    "activation function" : 2, 
    "learning rate" : 0.05, 
    "momentum active" : true, 
    "momentum" : 0.001, 
    "accuracy requirement" : 0.985, 
    "epochs" : 10, 
    "batch size" : 40, 
    "accuracy sample size" : 150, 
    "fitness sample size" : 15, 
    "allow testing" : false, 
    "show output" : true, 
    "use bias" : true, 
    "clear bias" : false, 
    "bias value" : 1.0, 
    "child" : null
}