{
    "child iterations" : 15, 
    "is fertile" : false, 
    "is classifier" : false, 
    "is child" : false, 
    "weights" : [
        [
            -3.190004, 
            4.005714, 
            -4.139708, 
            -0.34346, 
            -2.419548, 
            -0.8622863248579447, 
            -2.35375, 
            5.331498, 
            -3.681276, 
            0.398135, 
            0.698533, 
            -0.5321389106618741, 
            1.537983, 
            5.071869, 
            -6.178231, 
            -2.215328, 
            -1.019104, 
            -0.05051458568428524, 
            -0.587574, 
            0.401153, 
            0.375857, 
            2.601718, 
            -1.714154, 
            -0.7453374551704937, 
            -0.89782, 
            1.201022, 
            -2.630882, 
            -1.421833, 
            2.828999, 
            -0.2832498996504591
        ], 
        [
            0.668418, 
            -0.977722, 
            -2.223669, 
            -1.133459, 
            0.3905902587776908, 
            -1.117687, 
            -0.157095, 
            2.788984, 
            2.761907, 
            0.2878176967015167, 
            0.537155, 
            1.855007, 
            -2.370393, 
            -2.833601, 
            0.028910307879428165, 
            -1.89597, 
            -0.324435, 
            0.564552, 
            -1.416667, 
            0.4395225663006552, 
            2.670821, 
            2.535661, 
            1.426177, 
            -0.117403, 
            -0.8607810093564741, 
            2.531346, 
            1.608712, 
            -1.849425, 
            1.283725, 
            -0.6548454641064574
        ], 
        [
            -1.679518, 
            3.545155, 
            -0.321992, 
            0.958383, 
            4.203241, 
            -2.963092, 
            2.760738, 
            -4.501983, 
            -0.8522, 
            -2.323148
        ]
    ], 
    "momentum weights" : [
        [
            -3.190004, 
            4.005714, 
            -4.139708, 
            -0.34346, 
            -2.419548, 
            -0.8622863248579447, 
            -2.35375, 
            5.331498, 
            -3.681276, 
            0.398135, 
            0.698533, 
            -0.5321389106618741, 
            1.537983, 
            5.071869, 
            -6.178231, 
            -2.215328, 
            -1.019104, 
            -0.05051458568428524, 
            -0.587574, 
            0.401153, 
            0.375857, 
            2.601718, 
            -1.714154, 
            -0.7453374551704937, 
            -0.89782, 
            1.201022, 
            -2.630882, 
            -1.421833, 
            2.828999, 
            -0.2832498996504591
        ], 
        [
            0.668418, 
            -0.977722, 
            -2.223669, 
            -1.133459, 
            0.3905902587776908, 
            -1.117687, 
            -0.157095, 
            2.788984, 
            2.761907, 
            0.2878176967015167, 
            0.537155, 
            1.855007, 
            -2.370393, 
            -2.833601, 
            0.028910307879428165, 
            -1.89597, 
            -0.324435, 
            0.564552, 
            -1.416667, 
            0.4395225663006552, 
            2.670821, 
            2.535661, 
            1.426177, 
            -0.117403, 
            -0.8607810093564741, 
            2.531346, 
            1.608712, 
            -1.849425, 
            1.283725, 
            -0.6548454641064574
        ], 
        [
            -1.679518, 
            3.545155, 
            -0.321992, 
            0.958383, 
            4.203241, 
            -2.963092, 
            2.760738, 
            -4.501983, 
            -0.8522, 
            -2.323148
        ]
    ], 
    "nodes" : [
        [
            0.1273680490953277, 
            0.708404584522932, 
            -0.7521097637150795, 
            0.3020540658501322, 
            1.0
        ], 
        [
            -0.9996360597502242, 
            0.9462488779748601, 
            -0.7639960944962062, 
            0.8533881824161766, 
            0.9970826338602664, 
            0.7615941559557649
        ], 
        [
            0.6840678675163828, 
            0.9938179370612832, 
            0.9999988119947335, 
            0.9999705519744296, 
            0.7615941559557649
        ], 
        [
            0.999876445412056, 
            -0.9999836316509044
        ]
    ], 
    "pre activation nodes" : [
        [
            0.0, 
            0.0, 
            0.0, 
            0.0, 
            0.0
        ], 
        [
            -4.305743023322778, 
            1.794647302482825, 
            -1.0057443344631487, 
            1.2684911478436307, 
            3.26438075463588, 
            1.0
        ], 
        [
            0.8367200377333914, 
            2.888077308172999, 
            7.1681907452515645, 
            5.563008075002126, 
            1.0
        ], 
        [
            4.845956446633219, 
            -5.856650008701275
        ]
    ], 
    "average nodes" : [
        [
            0.0, 
            0.0, 
            0.0, 
            0.0, 
            0.0
        ], 
        [
            0.0, 
            0.0, 
            0.0, 
            0.0, 
            0.0, 
            0.0
        ], 
        [
            0.0, 
            0.0, 
            0.0, 
            0.0, 
            0.0
        ], 
        [
            0.0, 
            0.0
        ]
    ], 
    "input width" : 4, 
    "output width" : 2, 
    "hidden width" : 5, 
    "hidden length" : 2, 
    "hidden layer details" : {
        "items" : 3, 
        "0" : "is shallow", 
        "1" : "probabilities", 
        "2" : "width", 
        "is shallow" : true, 
        "probabilities" : {
            "2" : 0.85, 
            "3" : 0.12, 
            "1" : 0.03
        }, 
        "width" : {
            "no change" : 0.6, 
            "decrease" : 0.35, 
            "increase" : 0.05
        }
    }, 
    "weight range" : 1.0, 
    "activation function" : 2, 
    "learning rate" : 0.05, 
    "momentum active" : true, 
    "momentum" : 0.001, 
    "accuracy requirement" : 0.985, 
    "epochs" : 10, 
    "batch size" : 40, 
    "accuracy sample size" : 150, 
    "fitness sample size" : 15, 
    "allow testing" : false, 
    "show output" : true, 
    "use bias" : true, 
    "clear bias" : false, 
    "bias value" : 1.0, 
    "child" : null
}