{
    "child iterations" : 15, 
    "is fertile" : false, 
    "is classifier" : false, 
    "is child" : false, 
    "weights" : [
        [
            2.483266, 
            23.045257, 
            1.904186, 
            16.489794, 
            -2.495487, 
            8.797968, 
            19.948598, 
            -5.035649, 
            10.281376, 
            -12.417386, 
            12.700736, 
            21.429716, 
            10.998795, 
            6.645452, 
            -6.388807, 
            11.588123, 
            -1.624892, 
            0.408197, 
            1.327232, 
            11.7545, 
            -0.967899, 
            8.403629, 
            7.207762, 
            5.83877, 
            11.644968
        ], 
        [
            -8.545146, 
            2.613856, 
            11.094659, 
            -5.774136, 
            11.584016, 
            11.740354, 
            8.325171, 
            16.691133, 
            -4.300929, 
            4.978044, 
            1.208581, 
            7.682452, 
            -6.761795, 
            -10.214251, 
            4.30284, 
            7.28726, 
            16.437025, 
            3.610304, 
            10.007951, 
            -7.979158, 
            0.827495, 
            -3.978038, 
            -2.179166, 
            -8.75216, 
            -7.300945
        ], 
        [
            6.544562, 
            -10.245235, 
            12.641669, 
            -12.771311, 
            12.458886, 
            -10.768978, 
            -6.29948, 
            8.163723, 
            -2.267276, 
            7.031596
        ]
    ], 
    "momentum weights" : [
        [
            2.483266, 
            23.045257, 
            1.904186, 
            16.489794, 
            -2.495487, 
            8.797968, 
            19.948598, 
            -5.035649, 
            10.281376, 
            -12.417386, 
            12.700736, 
            21.429716, 
            10.998795, 
            6.645452, 
            -6.388807, 
            11.588123, 
            -1.624892, 
            0.408197, 
            1.327232, 
            11.7545, 
            -0.967899, 
            8.403629, 
            7.207762, 
            5.83877, 
            11.644968
        ], 
        [
            -8.545146, 
            2.613856, 
            11.094659, 
            -5.774136, 
            11.584016, 
            11.740354, 
            8.325171, 
            16.691133, 
            -4.300929, 
            4.978044, 
            1.208581, 
            7.682452, 
            -6.761795, 
            -10.214251, 
            4.30284, 
            7.28726, 
            16.437025, 
            3.610304, 
            10.007951, 
            -7.979158, 
            0.827495, 
            -3.978038, 
            -2.179166, 
            -8.75216, 
            -7.300945
        ], 
        [
            6.544562, 
            -10.245235, 
            12.641669, 
            -12.771311, 
            12.458886, 
            -10.768978, 
            -6.29948, 
            8.163723, 
            -2.267276, 
            7.031596
        ]
    ], 
    "nodes" : [
        [
            0.5189263642198328, 
            0.5313997912043915, 
            -0.6483167122579533, 
            0.4840721241714176, 
            1.0
        ], 
        [
            0.9827207498460667, 
            0.9999999999999857, 
            -0.8881620966078697, 
            0.9999999999999828, 
            0.7615941559557649
        ], 
        [
            0.999999997163501, 
            0.9999999999999987, 
            1.0, 
            0.9848898325247121, 
            0.7615941559557649
        ], 
        [
            1.0, 
            -1.0
        ]
    ], 
    "pre activation nodes" : [
        [
            0.0, 
            0.0, 
            0.0, 
            0.0, 
            0.0
        ], 
        [
            2.371359463987077, 
            16.283293295811198, 
            -1.4131543337291115, 
            16.193398328248094, 
            1.0
        ], 
        [
            10.186921236537767, 
            17.477973359929955, 
            35.55031854534122, 
            2.4389754158159445, 
            1.0
        ], 
        [
            23.714079027704802, 
            -20.389933772049307
        ]
    ], 
    "average nodes" : [
        [
            0.0, 
            0.0, 
            0.0, 
            0.0, 
            0.0
        ], 
        [
            0.0, 
            0.0, 
            0.0, 
            0.0, 
            0.0
        ], 
        [
            0.0, 
            0.0, 
            0.0, 
            0.0, 
            0.0
        ], 
        [
            0.0, 
            0.0
        ]
    ], 
    "input width" : 4, 
    "output width" : 2, 
    "hidden width" : 5, 
    "hidden length" : 2, 
    "hidden layer details" : {
        "items" : 3, 
        "0" : "is shallow", 
        "1" : "probabilities", 
        "2" : "width", 
        "is shallow" : true, 
        "probabilities" : {
            "2" : 0.85, 
            "3" : 0.12, 
            "1" : 0.03
        }, 
        "width" : {
            "no change" : 0.6, 
            "decrease" : 0.35, 
            "increase" : 0.05
        }
    }, 
    "weight range" : 1.0, 
    "activation function" : 2, 
    "learning rate" : 0.05, 
    "momentum active" : true, 
    "momentum" : 0.001, 
    "accuracy requirement" : 0.985, 
    "epochs" : 10, 
    "batch size" : 40, 
    "accuracy sample size" : 150, 
    "fitness sample size" : 15, 
    "allow testing" : false, 
    "show output" : true, 
    "use bias" : true, 
    "clear bias" : false, 
    "bias value" : 1.0, 
    "child" : null
}