{
    "child iterations" : 15, 
    "is fertile" : false, 
    "is classifier" : false, 
    "is child" : false, 
    "weights" : [
        [
            6.08735, 
            -2.007283, 
            6.165332, 
            2.1739, 
            2.329868, 
            4.900883, 
            3.201015, 
            1.114666, 
            -2.572845, 
            3.717337, 
            -3.184299, 
            -2.230407, 
            4.187236, 
            2.978971, 
            5.856559, 
            -0.470491, 
            -0.176344, 
            -6.001768, 
            -4.652717, 
            0.612775, 
            -1.903035, 
            -0.787772, 
            1.765499, 
            0.299543, 
            -0.956878, 
            2.076193, 
            0.593531, 
            -4.432996, 
            1.722433, 
            0.53463, 
            1.516429, 
            -3.561595, 
            -2.089251, 
            -1.812571, 
            4.076168
        ], 
        [
            4.517572, 
            2.083958, 
            3.108703, 
            -0.67618, 
            2.504541, 
            -1.603896, 
            -3.174042, 
            -4.061589, 
            2.715183, 
            -3.331544, 
            -1.087832, 
            2.49483, 
            4.484693, 
            -1.202568, 
            3.968881, 
            -4.800592, 
            2.196312, 
            4.183641, 
            -3.656415, 
            -3.187891, 
            3.22393, 
            -1.583425, 
            -2.210638, 
            -4.018243, 
            -1.168805, 
            -2.186604, 
            1.437554, 
            2.837967, 
            -2.687455, 
            2.119411, 
            4.004795, 
            -1.523942, 
            -2.712706, 
            -2.165343, 
            1.937789, 
            -1.729254, 
            0.442947, 
            3.37713, 
            -1.073039, 
            3.259214, 
            1.340567, 
            -0.36053
        ], 
        [
            6.632145, 
            -3.49192, 
            2.421728, 
            -1.341966, 
            0.484582, 
            -0.539968, 
            -0.301761, 
            2.624927, 
            -0.762144, 
            -3.050207, 
            0.216711, 
            1.607087
        ]
    ], 
    "momentum weights" : [
        [
            6.08735, 
            -2.007283, 
            6.165332, 
            2.1739, 
            2.329868, 
            4.900883, 
            3.201015, 
            1.114666, 
            -2.572845, 
            3.717337, 
            -3.184299, 
            -2.230407, 
            4.187236, 
            2.978971, 
            5.856559, 
            -0.470491, 
            -0.176344, 
            -6.001768, 
            -4.652717, 
            0.612775, 
            -1.903035, 
            -0.787772, 
            1.765499, 
            0.299543, 
            -0.956878, 
            2.076193, 
            0.593531, 
            -4.432996, 
            1.722433, 
            0.53463, 
            1.516429, 
            -3.561595, 
            -2.089251, 
            -1.812571, 
            4.076168
        ], 
        [
            4.517572, 
            2.083958, 
            3.108703, 
            -0.67618, 
            2.504541, 
            -1.603896, 
            -3.174042, 
            -4.061589, 
            2.715183, 
            -3.331544, 
            -1.087832, 
            2.49483, 
            4.484693, 
            -1.202568, 
            3.968881, 
            -4.800592, 
            2.196312, 
            4.183641, 
            -3.656415, 
            -3.187891, 
            3.22393, 
            -1.583425, 
            -2.210638, 
            -4.018243, 
            -1.168805, 
            -2.186604, 
            1.437554, 
            2.837967, 
            -2.687455, 
            2.119411, 
            4.004795, 
            -1.523942, 
            -2.712706, 
            -2.165343, 
            1.937789, 
            -1.729254, 
            0.442947, 
            3.37713, 
            -1.073039, 
            3.259214, 
            1.340567, 
            -0.36053
        ], 
        [
            6.632145, 
            -3.49192, 
            2.421728, 
            -1.341966, 
            0.484582, 
            -0.539968, 
            -0.301761, 
            2.624927, 
            -0.762144, 
            -3.050207, 
            0.216711, 
            1.607087
        ]
    ], 
    "nodes" : [
        [
            -0.3544916311504374, 
            -0.4843197491459212, 
            0.10519309884334549, 
            0.6832501341189521, 
            1.0
        ], 
        [
            -0.7150843197104703, 
            0.998647294726163, 
            -0.9794312804084611, 
            -0.9994228541524863, 
            -0.7191170945604062, 
            -0.9999268221612241, 
            0.7615941559557649
        ], 
        [
            -0.9999999955786651, 
            0.9997461230525678, 
            -0.9999801122745088, 
            0.999988823104706, 
            -0.9471340700142905, 
            0.7615941559557649
        ], 
        [
            -0.9994622133041732, 
            0.9999999870602013
        ]
    ], 
    "pre activation nodes" : [
        [
            0.0, 
            0.0, 
            0.0, 
            0.0, 
            0.0
        ], 
        [
            -0.897512123271373, 
            3.6490596921108525, 
            -2.2833966974928774, 
            -4.075137060366631, 
            -0.9058141225161851, 
            -5.107864261384733, 
            1.0
        ], 
        [
            -9.964985684424535, 
            4.485840550645608, 
            -5.759272531335692, 
            6.047401711345614, 
            -1.8031773885270441, 
            1.0
        ], 
        [
            -4.1104634018160215, 
            9.428052639131662
        ]
    ], 
    "average nodes" : [
        [
            0.0, 
            0.0, 
            0.0, 
            0.0, 
            0.0
        ], 
        [
            0.0, 
            0.0, 
            0.0, 
            0.0, 
            0.0, 
            0.0, 
            0.0
        ], 
        [
            0.0, 
            0.0, 
            0.0, 
            0.0, 
            0.0, 
            0.0
        ], 
        [
            0.0, 
            0.0
        ]
    ], 
    "input width" : 4, 
    "output width" : 2, 
    "hidden width" : 7, 
    "hidden length" : 2, 
    "hidden layer details" : {
        "items" : 3, 
        "0" : "is shallow", 
        "1" : "probabilities", 
        "2" : "width", 
        "is shallow" : true, 
        "probabilities" : {
            "2" : 0.85, 
            "3" : 0.12, 
            "1" : 0.03
        }, 
        "width" : {
            "no change" : 0.6, 
            "decrease" : 0.35, 
            "increase" : 0.05
        }
    }, 
    "weight range" : 1.0, 
    "activation function" : 2, 
    "learning rate" : 0.05, 
    "momentum active" : true, 
    "momentum" : 0.001, 
    "accuracy requirement" : 0.985, 
    "epochs" : 10, 
    "batch size" : 40, 
    "accuracy sample size" : 150, 
    "fitness sample size" : 15, 
    "allow testing" : false, 
    "show output" : true, 
    "use bias" : true, 
    "clear bias" : false, 
    "bias value" : 1.0, 
    "child" : null
}