{
    "child iterations" : 15, 
    "is fertile" : false, 
    "is classifier" : false, 
    "is child" : false, 
    "weights" : [
        [
            -3.83823, 
            -4.736083, 
            -0.265418, 
            -2.337694, 
            0.49097769404853464, 
            0.383166, 
            -5.006848, 
            0.34418, 
            2.693445, 
            0.25796379679163794, 
            -3.667774, 
            -4.246492, 
            3.71172, 
            1.340139, 
            0.3961370987058186, 
            0.360924, 
            0.449943, 
            1.441655, 
            -0.716267, 
            -0.016770187191049057, 
            -1.377128, 
            -1.887015, 
            1.692864, 
            -0.476661, 
            0.1527103079270422
        ], 
        [
            -1.564164, 
            1.340778, 
            0.352314, 
            2.315027, 
            0.24103907535165292, 
            -3.386375, 
            3.014321, 
            -1.24265, 
            1.044587, 
            0.46788574011768636, 
            0.945249, 
            -0.869976, 
            -1.734068, 
            -2.612443, 
            -0.5195889507443512, 
            -0.358011, 
            -2.411054, 
            -1.850666, 
            -1.792688, 
            -0.9783260118382953, 
            -0.895917, 
            0.008835, 
            1.996767, 
            -1.345539, 
            0.24145768503525789
        ], 
        [
            2.213481, 
            -2.526166, 
            -2.81894, 
            2.896875, 
            1.600339, 
            -1.646675, 
            -1.663906, 
            1.889435, 
            0.555218, 
            -0.636188
        ]
    ], 
    "momentum weights" : [
        [
            -3.83823, 
            -4.736083, 
            -0.265418, 
            -2.337694, 
            0.49097769404853464, 
            0.383166, 
            -5.006848, 
            0.34418, 
            2.693445, 
            0.25796379679163794, 
            -3.667774, 
            -4.246492, 
            3.71172, 
            1.340139, 
            0.3961370987058186, 
            0.360924, 
            0.449943, 
            1.441655, 
            -0.716267, 
            -0.016770187191049057, 
            -1.377128, 
            -1.887015, 
            1.692864, 
            -0.476661, 
            0.1527103079270422
        ], 
        [
            -1.564164, 
            1.340778, 
            0.352314, 
            2.315027, 
            0.24103907535165292, 
            -3.386375, 
            3.014321, 
            -1.24265, 
            1.044587, 
            0.46788574011768636, 
            0.945249, 
            -0.869976, 
            -1.734068, 
            -2.612443, 
            -0.5195889507443512, 
            -0.358011, 
            -2.411054, 
            -1.850666, 
            -1.792688, 
            -0.9783260118382953, 
            -0.895917, 
            0.008835, 
            1.996767, 
            -1.345539, 
            0.24145768503525789
        ], 
        [
            2.213481, 
            -2.526166, 
            -2.81894, 
            2.896875, 
            1.600339, 
            -1.646675, 
            -1.663906, 
            1.889435, 
            0.555218, 
            -0.636188
        ]
    ], 
    "nodes" : [
        [
            0.4202309095760408, 
            0.07394432865476509, 
            -0.4289099015658991, 
            0.7751893577748075, 
            1.0
        ], 
        [
            -0.8036409544199431, 
            -0.9691030512200198, 
            0.8118184210797227, 
            -0.9833447993473607, 
            0.7615941559557649
        ], 
        [
            0.9999047145049205, 
            -0.9811450815145241, 
            0.9933825947360778, 
            -0.9995976093142087, 
            0.7615941559557649
        ], 
        [
            0.9999999392587964, 
            -0.9999999856734709
        ]
    ], 
    "pre activation nodes" : [
        [
            0.0, 
            0.0, 
            0.0, 
            0.0, 
            0.0
        ], 
        [
            -1.1088089023572365, 
            -2.077337990028429, 
            1.1323394652212042, 
            -2.38990873593683, 
            1.0
        ], 
        [
            4.9758662491494245, 
            -2.3273282365255756, 
            2.8539424660124846, 
            -4.255516525531621, 
            1.0
        ], 
        [
            8.654895355533972, 
            -9.377150007065232
        ]
    ], 
    "average nodes" : [
        [
            0.0, 
            0.0, 
            0.0, 
            0.0, 
            0.0
        ], 
        [
            0.0, 
            0.0, 
            0.0, 
            0.0, 
            0.0
        ], 
        [
            0.0, 
            0.0, 
            0.0, 
            0.0, 
            0.0
        ], 
        [
            0.0, 
            0.0
        ]
    ], 
    "input width" : 4, 
    "output width" : 2, 
    "hidden width" : 4, 
    "hidden length" : 2, 
    "hidden layer details" : {
        "items" : 3, 
        "0" : "is shallow", 
        "1" : "probabilities", 
        "2" : "width", 
        "is shallow" : true, 
        "probabilities" : {
            "2" : 0.85, 
            "3" : 0.12, 
            "1" : 0.03
        }, 
        "width" : {
            "no change" : 0.6, 
            "decrease" : 0.35, 
            "increase" : 0.05
        }
    }, 
    "weight range" : 1.0, 
    "activation function" : 2, 
    "learning rate" : 0.05, 
    "momentum active" : true, 
    "momentum" : 0.001, 
    "accuracy requirement" : 0.985, 
    "epochs" : 10, 
    "batch size" : 40, 
    "accuracy sample size" : 150, 
    "fitness sample size" : 15, 
    "allow testing" : false, 
    "show output" : true, 
    "use bias" : true, 
    "clear bias" : false, 
    "bias value" : 1.0, 
    "child" : null
}