{
    "child iterations" : 15, 
    "is fertile" : false, 
    "is classifier" : false, 
    "is child" : false, 
    "weights" : [
        [
            0.439093, 
            -4.022087, 
            0.239862, 
            -2.930893, 
            2.733614, 
            0.16766550150414772, 
            -1.798797, 
            -1.364859, 
            1.438546, 
            1.704563, 
            4.801835, 
            0.5281290451114287, 
            -1.458205, 
            0.081336, 
            0.998634, 
            -3.944972, 
            2.900794, 
            0.7405693621755767, 
            0.977557, 
            -0.105764, 
            -1.242499, 
            1.261465, 
            0.675636, 
            0.6250142927516824, 
            -0.569714, 
            -0.80642, 
            -1.453441, 
            -1.070422, 
            0.388067, 
            -0.5564856957975577
        ], 
        [
            -1.391449, 
            -0.871166, 
            0.808077, 
            -0.868875, 
            0.967358, 
            0.11342223303787091, 
            -2.244647, 
            -0.956941, 
            3.432607, 
            2.154834, 
            0.756052, 
            -0.5577254040877457, 
            0.188226, 
            -0.529468, 
            0.207963, 
            0.157301, 
            -1.155575, 
            -0.039956325298282414, 
            -2.710488, 
            -3.477648, 
            -0.247596, 
            1.671202, 
            1.931237, 
            -0.4704306327734058, 
            2.719208, 
            3.348225, 
            -0.225847, 
            0.876615, 
            -0.365043, 
            -0.6409285848334656, 
            1.235399, 
            2.531179, 
            -2.398268, 
            -1.516263, 
            1.847275, 
            0.7843431264895566
        ], 
        [
            2.709006, 
            -2.930397, 
            3.222527, 
            -2.594663, 
            -2.617311, 
            2.742098, 
            1.846038, 
            0.008138, 
            1.694174, 
            -0.824288, 
            -2.11166, 
            2.919324
        ]
    ], 
    "momentum weights" : [
        [
            0.439093, 
            -4.022087, 
            0.239862, 
            -2.930893, 
            2.733614, 
            0.16766550150414772, 
            -1.798797, 
            -1.364859, 
            1.438546, 
            1.704563, 
            4.801835, 
            0.5281290451114287, 
            -1.458205, 
            0.081336, 
            0.998634, 
            -3.944972, 
            2.900794, 
            0.7405693621755767, 
            0.977557, 
            -0.105764, 
            -1.242499, 
            1.261465, 
            0.675636, 
            0.6250142927516824, 
            -0.569714, 
            -0.80642, 
            -1.453441, 
            -1.070422, 
            0.388067, 
            -0.5564856957975577
        ], 
        [
            -1.391449, 
            -0.871166, 
            0.808077, 
            -0.868875, 
            0.967358, 
            0.11342223303787091, 
            -2.244647, 
            -0.956941, 
            3.432607, 
            2.154834, 
            0.756052, 
            -0.5577254040877457, 
            0.188226, 
            -0.529468, 
            0.207963, 
            0.157301, 
            -1.155575, 
            -0.039956325298282414, 
            -2.710488, 
            -3.477648, 
            -0.247596, 
            1.671202, 
            1.931237, 
            -0.4704306327734058, 
            2.719208, 
            3.348225, 
            -0.225847, 
            0.876615, 
            -0.365043, 
            -0.6409285848334656, 
            1.235399, 
            2.531179, 
            -2.398268, 
            -1.516263, 
            1.847275, 
            0.7843431264895566
        ], 
        [
            2.709006, 
            -2.930397, 
            3.222527, 
            -2.594663, 
            -2.617311, 
            2.742098, 
            1.846038, 
            0.008138, 
            1.694174, 
            -0.824288, 
            -2.11166, 
            2.919324
        ]
    ], 
    "nodes" : [
        [
            0.0742473083385616, 
            0.13170961694612102, 
            -0.6695026600900338, 
            0.45279649381234244, 
            1.0
        ], 
        [
            0.5682098221153301, 
            -0.8825441454629948, 
            -0.9859982927931841, 
            0.9731643136346093, 
            -0.3907504060581543, 
            0.7615941559557649
        ], 
        [
            -0.9419007170384532, 
            -0.9556619099516134, 
            -0.9998516574632524, 
            -0.9843565399028058, 
            0.999727659109974, 
            0.7615941559557649
        ], 
        [
            -0.9998491092602279, 
            0.9991632187634664
        ]
    ], 
    "pre activation nodes" : [
        [
            0.0, 
            0.0, 
            0.0, 
            0.0, 
            0.0
        ], 
        [
            0.644875118084772, 
            -1.3871584264616375, 
            -2.477348859729614, 
            2.1488306005598856, 
            -0.41268535745472773, 
            1.0
        ], 
        [
            -1.754634600568599, 
            -1.8933199299296768, 
            -4.754529763721332, 
            -2.4214985174135633, 
            4.450733502523372, 
            1.0
        ], 
        [
            -4.746013146534978, 
            3.889338295088682
        ]
    ], 
    "average nodes" : [
        [
            0.0, 
            0.0, 
            0.0, 
            0.0, 
            0.0
        ], 
        [
            0.0, 
            0.0, 
            0.0, 
            0.0, 
            0.0, 
            0.0
        ], 
        [
            0.0, 
            0.0, 
            0.0, 
            0.0, 
            0.0, 
            0.0
        ], 
        [
            0.0, 
            0.0
        ]
    ], 
    "input width" : 4, 
    "output width" : 2, 
    "hidden width" : 5, 
    "hidden length" : 2, 
    "hidden layer details" : {
        "items" : 3, 
        "0" : "is shallow", 
        "1" : "probabilities", 
        "2" : "width", 
        "is shallow" : true, 
        "probabilities" : {
            "2" : 0.85, 
            "3" : 0.12, 
            "1" : 0.03
        }, 
        "width" : {
            "no change" : 0.6, 
            "decrease" : 0.35, 
            "increase" : 0.05
        }
    }, 
    "weight range" : 1.0, 
    "activation function" : 2, 
    "learning rate" : 0.05, 
    "momentum active" : true, 
    "momentum" : 0.001, 
    "accuracy requirement" : 0.985, 
    "epochs" : 10, 
    "batch size" : 40, 
    "accuracy sample size" : 150, 
    "fitness sample size" : 15, 
    "allow testing" : false, 
    "show output" : true, 
    "use bias" : true, 
    "clear bias" : false, 
    "bias value" : 1.0, 
    "child" : null
}