{
    "child iterations" : 15, 
    "is fertile" : false, 
    "is classifier" : false, 
    "is child" : false, 
    "weights" : [
        [
            0.417528, 
            -0.042891, 
            0.677469, 
            -0.952378, 
            -0.439027, 
            0.37969, 
            0.731034, 
            -0.541711, 
            0.987122, 
            -0.4321020073585571, 
            0.320239, 
            -0.978578, 
            0.201773, 
            1.043564, 
            0.525342, 
            -0.54767, 
            0.400117, 
            -0.807794, 
            -1.002985, 
            0.552050633662698, 
            0.735867, 
            -0.24956, 
            -0.960862, 
            0.45673, 
            0.515017, 
            0.065385, 
            -0.977018, 
            0.747248, 
            1.03124, 
            0.38928762941761597, 
            0.278941, 
            -0.191893, 
            -0.268785, 
            -0.680055, 
            -0.745289, 
            -0.028958, 
            0.501675, 
            0.059709, 
            -0.499676, 
            0.5293275610181842, 
            -0.632417, 
            0.861971, 
            -0.630811, 
            0.462532, 
            0.690537, 
            0.023427, 
            0.912581, 
            1.103365, 
            0.832439, 
            0.404112591453893, 
            -0.895067, 
            0.363872, 
            0.235967, 
            0.903976, 
            -0.998812, 
            0.120494, 
            0.14331, 
            -0.349992, 
            0.510431, 
            0.9895610075640231, 
            -0.657633, 
            -0.470011, 
            0.579192, 
            0.259887, 
            -0.762787, 
            -1.107817, 
            -0.933678, 
            -0.552442, 
            -0.190536, 
            0.29935448621880156, 
            0.763661, 
            -0.439448, 
            0.462691, 
            -0.226114, 
            -0.333384, 
            -0.963314, 
            0.145701, 
            -0.663898, 
            -0.076331, 
            0.38432242318700727, 
            1.018642, 
            0.956735, 
            -0.220692, 
            -0.143113, 
            -0.974293, 
            -0.76961, 
            0.661304, 
            -0.053408, 
            0.920501, 
            -0.4818149813323025, 
            0.550388, 
            -0.765681, 
            -0.318648, 
            0.02693, 
            -0.052511, 
            -0.683068, 
            0.265237, 
            0.557937, 
            0.122407, 
            -0.15223032031563277, 
            0.279329, 
            0.625906, 
            0.990118, 
            -0.461508, 
            0.824548, 
            -0.663186, 
            -0.039244, 
            0.047943, 
            -0.501054, 
            0.8653726561012982
        ], 
        [
            -0.960753, 
            1.038394, 
            -0.616057, 
            0.552737, 
            -0.699592, 
            -0.321565, 
            0.044768, 
            0.02871, 
            1.040888, 
            0.310205, 
            -0.6910331984811264, 
            0.506451, 
            0.927839, 
            0.451488, 
            -0.196404, 
            -0.149859, 
            1.093131, 
            -0.971333, 
            -0.950268, 
            -1.051439, 
            0.792427, 
            0.600116282076357, 
            0.398791, 
            -0.587308, 
            0.901194, 
            0.972843, 
            0.456844, 
            -0.944312, 
            0.132978, 
            -0.368222, 
            -0.214754, 
            0.517363, 
            0.3008115946416485, 
            -0.432798, 
            1.045536, 
            0.166781, 
            -0.751675, 
            -0.331015, 
            0.518523, 
            -0.575269, 
            -0.009291, 
            0.355653, 
            0.3597, 
            0.2957499944250559, 
            -0.50382, 
            0.248458, 
            0.977598, 
            -0.145726, 
            -0.725493, 
            -0.356839, 
            0.05811, 
            -1.036533, 
            0.798016, 
            -0.492684, 
            -0.03787893484067406, 
            -0.801046, 
            -0.924291, 
            -0.989468, 
            0.76651, 
            -1.074349, 
            -0.097195, 
            0.328647, 
            0.573198, 
            0.951723, 
            -1.074967, 
            0.4583392649450937, 
            -0.677233, 
            0.584584, 
            0.080077, 
            0.387497, 
            -0.258756, 
            -0.016057, 
            0.592202, 
            -0.224715, 
            0.315828, 
            0.530693, 
            0.011950730044756996, 
            -0.829924, 
            -1.07178, 
            -0.545652, 
            -0.153157, 
            -0.534817, 
            -0.819321, 
            -0.163163, 
            0.00627, 
            0.260099, 
            -0.131105, 
            -0.13441973476895197, 
            -0.759399, 
            0.261885, 
            -0.458171, 
            1.114621, 
            0.870139, 
            -0.651998, 
            -0.600913, 
            0.668462, 
            -0.761382, 
            -0.539448, 
            0.08374959336273724, 
            -0.875162, 
            -0.720218, 
            0.597104, 
            -0.823032, 
            -0.918572, 
            0.548419, 
            -0.460477, 
            -1.067742, 
            -0.968627, 
            -0.373771, 
            0.3787658694725511
        ], 
        [
            1.031647, 
            -0.464724, 
            -0.542154, 
            -0.190734, 
            0.941378, 
            0.82582, 
            -0.150042, 
            -0.455281, 
            -0.272757, 
            0.385806, 
            0.117204
        ]
    ], 
    "momentum weights" : [
        [
            0.417528, 
            -0.042891, 
            0.677469, 
            -0.952378, 
            -0.439027, 
            0.37969, 
            0.731034, 
            -0.541711, 
            0.987122, 
            -0.4321020073585571, 
            0.320239, 
            -0.978578, 
            0.201773, 
            1.043564, 
            0.525342, 
            -0.54767, 
            0.400117, 
            -0.807794, 
            -1.002985, 
            0.552050633662698, 
            0.735867, 
            -0.24956, 
            -0.960862, 
            0.45673, 
            0.515017, 
            0.065385, 
            -0.977018, 
            0.747248, 
            1.03124, 
            0.38928762941761597, 
            0.278941, 
            -0.191893, 
            -0.268785, 
            -0.680055, 
            -0.745289, 
            -0.028958, 
            0.501675, 
            0.059709, 
            -0.499676, 
            0.5293275610181842, 
            -0.632417, 
            0.861971, 
            -0.630811, 
            0.462532, 
            0.690537, 
            0.023427, 
            0.912581, 
            1.103365, 
            0.832439, 
            0.404112591453893, 
            -0.895067, 
            0.363872, 
            0.235967, 
            0.903976, 
            -0.998812, 
            0.120494, 
            0.14331, 
            -0.349992, 
            0.510431, 
            0.9895610075640231, 
            -0.657633, 
            -0.470011, 
            0.579192, 
            0.259887, 
            -0.762787, 
            -1.107817, 
            -0.933678, 
            -0.552442, 
            -0.190536, 
            0.29935448621880156, 
            0.763661, 
            -0.439448, 
            0.462691, 
            -0.226114, 
            -0.333384, 
            -0.963314, 
            0.145701, 
            -0.663898, 
            -0.076331, 
            0.38432242318700727, 
            1.018642, 
            0.956735, 
            -0.220692, 
            -0.143113, 
            -0.974293, 
            -0.76961, 
            0.661304, 
            -0.053408, 
            0.920501, 
            -0.4818149813323025, 
            0.550388, 
            -0.765681, 
            -0.318648, 
            0.02693, 
            -0.052511, 
            -0.683068, 
            0.265237, 
            0.557937, 
            0.122407, 
            -0.15223032031563277, 
            0.279329, 
            0.625906, 
            0.990118, 
            -0.461508, 
            0.824548, 
            -0.663186, 
            -0.039244, 
            0.047943, 
            -0.501054, 
            0.8653726561012982
        ], 
        [
            -0.960753, 
            1.038394, 
            -0.616057, 
            0.552737, 
            -0.699592, 
            -0.321565, 
            0.044768, 
            0.02871, 
            1.040888, 
            0.310205, 
            -0.6910331984811264, 
            0.506451, 
            0.927839, 
            0.451488, 
            -0.196404, 
            -0.149859, 
            1.093131, 
            -0.971333, 
            -0.950268, 
            -1.051439, 
            0.792427, 
            0.600116282076357, 
            0.398791, 
            -0.587308, 
            0.901194, 
            0.972843, 
            0.456844, 
            -0.944312, 
            0.132978, 
            -0.368222, 
            -0.214754, 
            0.517363, 
            0.3008115946416485, 
            -0.432798, 
            1.045536, 
            0.166781, 
            -0.751675, 
            -0.331015, 
            0.518523, 
            -0.575269, 
            -0.009291, 
            0.355653, 
            0.3597, 
            0.2957499944250559, 
            -0.50382, 
            0.248458, 
            0.977598, 
            -0.145726, 
            -0.725493, 
            -0.356839, 
            0.05811, 
            -1.036533, 
            0.798016, 
            -0.492684, 
            -0.03787893484067406, 
            -0.801046, 
            -0.924291, 
            -0.989468, 
            0.76651, 
            -1.074349, 
            -0.097195, 
            0.328647, 
            0.573198, 
            0.951723, 
            -1.074967, 
            0.4583392649450937, 
            -0.677233, 
            0.584584, 
            0.080077, 
            0.387497, 
            -0.258756, 
            -0.016057, 
            0.592202, 
            -0.224715, 
            0.315828, 
            0.530693, 
            0.011950730044756996, 
            -0.829924, 
            -1.07178, 
            -0.545652, 
            -0.153157, 
            -0.534817, 
            -0.819321, 
            -0.163163, 
            0.00627, 
            0.260099, 
            -0.131105, 
            -0.13441973476895197, 
            -0.759399, 
            0.261885, 
            -0.458171, 
            1.114621, 
            0.870139, 
            -0.651998, 
            -0.600913, 
            0.668462, 
            -0.761382, 
            -0.539448, 
            0.08374959336273724, 
            -0.875162, 
            -0.720218, 
            0.597104, 
            -0.823032, 
            -0.918572, 
            0.548419, 
            -0.460477, 
            -1.067742, 
            -0.968627, 
            -0.373771, 
            0.3787658694725511
        ], 
        [
            1.031647, 
            -0.464724, 
            -0.542154, 
            -0.190734, 
            0.941378, 
            0.82582, 
            -0.150042, 
            -0.455281, 
            -0.272757, 
            0.385806, 
            0.117204
        ]
    ], 
    "nodes" : [
        [
            0.4181720430107644, 
            -0.9999999999999938, 
            -0.03246226415093772, 
            1.0, 
            -1.0, 
            -1.0, 
            1.0000000000000087, 
            0.9999999999999925, 
            -0.39518900343642677, 
            1.0000000000000004, 
            1.0
        ], 
        [
            0.9742668162853698, 
            -0.9541634366125721, 
            0.966704384790373, 
            -0.9990901466903883, 
            -0.8011330323550178, 
            -0.9886229416459518, 
            -0.8937466075959383, 
            -0.6206179331669359, 
            -0.8994889868285957, 
            0.7615941559557649
        ], 
        [
            0.9391861345103755, 
            -0.8880509762707294, 
            0.7626546342612135, 
            -0.10398651037908169, 
            0.743387868425027, 
            -0.7055660797428217, 
            0.7872135633496075, 
            -0.3503004968803444, 
            -0.5527525107188658, 
            0.7406651077144396, 
            0.7615941559557649
        ], 
        [
            0.9318492184889153
        ]
    ], 
    "pre activation nodes" : [
        [
            0.0, 
            0.0, 
            0.0, 
            0.0, 
            0.0, 
            0.0, 
            0.0, 
            0.0, 
            0.0, 
            0.0, 
            0.0
        ], 
        [
            2.1700855110017425, 
            -1.8763176856580235, 
            2.0393444034094523, 
            -3.8474596600353554, 
            -1.1017675556980246, 
            -2.5817993931960497, 
            -1.4402428710419772, 
            -0.7260095032581357, 
            -1.4695364346943827, 
            1.0
        ], 
        [
            1.7311029159763272, 
            -1.412628362036834, 
            1.0025299733962894, 
            -0.10436376983038687, 
            0.9580099103802161, 
            -0.8782988738554289, 
            1.0640619997783594, 
            -0.3657862419213771, 
            -0.6223361698479802, 
            0.9519511590540146, 
            1.0
        ], 
        [
            1.672255170937792
        ]
    ], 
    "average nodes" : [
        [
            0.0, 
            0.0, 
            0.0, 
            0.0, 
            0.0, 
            0.0, 
            0.0, 
            0.0, 
            0.0, 
            0.0, 
            0.0
        ], 
        [
            0.0, 
            0.0, 
            0.0, 
            0.0, 
            0.0, 
            0.0, 
            0.0, 
            0.0, 
            0.0, 
            0.0
        ], 
        [
            0.0, 
            0.0, 
            0.0, 
            0.0, 
            0.0, 
            0.0, 
            0.0, 
            0.0, 
            0.0, 
            0.0, 
            0.0
        ], 
        [
            0.0
        ]
    ], 
    "input width" : 10, 
    "output width" : 1, 
    "hidden width" : 10, 
    "hidden length" : 2, 
    "hidden layer details" : {
        "items" : 3, 
        "0" : "is shallow", 
        "1" : "probabilities", 
        "2" : "width", 
        "is shallow" : true, 
        "probabilities" : {
            "1" : 0.03, 
            "2" : 0.8, 
            "3" : 0.17
        }, 
        "width" : {
            "no change" : 0.6, 
            "decrease" : 0.35, 
            "increase" : 0.05
        }
    }, 
    "weight range" : 1.0, 
    "activation function" : 2, 
    "learning rate" : 0.05, 
    "momentum active" : true, 
    "momentum" : 0.001, 
    "accuracy requirement" : 0.985, 
    "epochs" : 10, 
    "batch size" : 25, 
    "accuracy sample size" : 150, 
    "fitness sample size" : 15, 
    "allow testing" : false, 
    "show output" : false, 
    "use bias" : true, 
    "clear bias" : false, 
    "bias value" : 1.0, 
    "child" : null
}