{
    "child iterations" : 15, 
    "is fertile" : false, 
    "is classifier" : false, 
    "is child" : false, 
    "weights" : [
        [
            1.512432, 
            2.174941, 
            -4.076473, 
            -0.752324, 
            -3.21837, 
            0.7562385340996518, 
            0.466794, 
            2.878863, 
            -2.232899, 
            1.252913, 
            -4.311665, 
            -0.9669602669445747, 
            4.002128, 
            2.335497, 
            -3.162014, 
            0.289788, 
            -2.774615, 
            0.9316444672494495, 
            -2.408762, 
            0.733807, 
            -0.312271, 
            -1.002948, 
            -1.583375, 
            -0.8136843523140844, 
            3.654865, 
            -0.17444, 
            -0.318633, 
            -1.259064, 
            -1.117977, 
            0.8763276674884348
        ], 
        [
            2.301361, 
            -2.192145, 
            -1.464065, 
            2.438083, 
            0.817173781341167, 
            0.703052, 
            -2.554533, 
            -1.096691, 
            0.469196, 
            -0.6380994610372439, 
            -2.49385, 
            2.343925, 
            2.538788, 
            -2.716198, 
            0.1240062913831772, 
            2.025657, 
            -1.569242, 
            1.318643, 
            0.540867, 
            -0.5177164652904589, 
            1.810109, 
            1.395728, 
            -0.391204, 
            -2.895293, 
            0.20617172912193338, 
            1.168868, 
            -1.615172, 
            0.337798, 
            1.666829, 
            0.25475884251744496
        ], 
        [
            -0.227238, 
            0.804827, 
            -2.246838, 
            2.425621, 
            -0.487744, 
            1.831742, 
            3.246473, 
            -2.493091, 
            -0.86741, 
            -0.757298
        ]
    ], 
    "momentum weights" : [
        [
            1.512432, 
            2.174941, 
            -4.076473, 
            -0.752324, 
            -3.21837, 
            0.7562385340996518, 
            0.466794, 
            2.878863, 
            -2.232899, 
            1.252913, 
            -4.311665, 
            -0.9669602669445747, 
            4.002128, 
            2.335497, 
            -3.162014, 
            0.289788, 
            -2.774615, 
            0.9316444672494495, 
            -2.408762, 
            0.733807, 
            -0.312271, 
            -1.002948, 
            -1.583375, 
            -0.8136843523140844, 
            3.654865, 
            -0.17444, 
            -0.318633, 
            -1.259064, 
            -1.117977, 
            0.8763276674884348
        ], 
        [
            2.301361, 
            -2.192145, 
            -1.464065, 
            2.438083, 
            0.817173781341167, 
            0.703052, 
            -2.554533, 
            -1.096691, 
            0.469196, 
            -0.6380994610372439, 
            -2.49385, 
            2.343925, 
            2.538788, 
            -2.716198, 
            0.1240062913831772, 
            2.025657, 
            -1.569242, 
            1.318643, 
            0.540867, 
            -0.5177164652904589, 
            1.810109, 
            1.395728, 
            -0.391204, 
            -2.895293, 
            0.20617172912193338, 
            1.168868, 
            -1.615172, 
            0.337798, 
            1.666829, 
            0.25475884251744496
        ], 
        [
            -0.227238, 
            0.804827, 
            -2.246838, 
            2.425621, 
            -0.487744, 
            1.831742, 
            3.246473, 
            -2.493091, 
            -0.86741, 
            -0.757298
        ]
    ], 
    "nodes" : [
        [
            0.20315283156293043, 
            0.22353478242973732, 
            -0.3713313373683417, 
            0.5200505560253507, 
            1.0
        ], 
        [
            0.8686789535773282, 
            0.4013901353004733, 
            -0.5609048696693965, 
            -0.9426170598291985, 
            -0.9873572520317826, 
            0.7615941559557649
        ], 
        [
            0.7032564887897144, 
            -0.999956968073815, 
            -0.9988618720881107, 
            0.9999993212447346, 
            0.7615941559557649
        ], 
        [
            0.9999340653072046, 
            -0.999997307090504
        ]
    ], 
    "pre activation nodes" : [
        [
            0.0, 
            0.0, 
            0.0, 
            0.0, 
            0.0
        ], 
        [
            1.3276709785838707, 
            0.4253049509178769, 
            -0.6341524446755844, 
            -1.761022146652171, 
            -2.52873862671648, 
            1.0
        ], 
        [
            0.8737145561152369, 
            -5.373346956355846, 
            -3.735474251807197, 
            7.448076024669198, 
            1.0
        ], 
        [
            5.159980010794948, 
            -6.759017092973782
        ]
    ], 
    "average nodes" : [
        [
            0.0, 
            0.0, 
            0.0, 
            0.0, 
            0.0
        ], 
        [
            0.0, 
            0.0, 
            0.0, 
            0.0, 
            0.0, 
            0.0
        ], 
        [
            0.0, 
            0.0, 
            0.0, 
            0.0, 
            0.0
        ], 
        [
            0.0, 
            0.0
        ]
    ], 
    "input width" : 4, 
    "output width" : 2, 
    "hidden width" : 5, 
    "hidden length" : 2, 
    "hidden layer details" : {
        "items" : 3, 
        "0" : "is shallow", 
        "1" : "probabilities", 
        "2" : "width", 
        "is shallow" : true, 
        "probabilities" : {
            "2" : 0.85, 
            "3" : 0.12, 
            "1" : 0.03
        }, 
        "width" : {
            "no change" : 0.6, 
            "decrease" : 0.35, 
            "increase" : 0.05
        }
    }, 
    "weight range" : 1.0, 
    "activation function" : 2, 
    "learning rate" : 0.05, 
    "momentum active" : true, 
    "momentum" : 0.001, 
    "accuracy requirement" : 0.985, 
    "epochs" : 10, 
    "batch size" : 40, 
    "accuracy sample size" : 150, 
    "fitness sample size" : 15, 
    "allow testing" : false, 
    "show output" : true, 
    "use bias" : true, 
    "clear bias" : false, 
    "bias value" : 1.0, 
    "child" : null
}