{
    "child iterations" : 15, 
    "is fertile" : false, 
    "is classifier" : false, 
    "is child" : false, 
    "weights" : [
        [
            -0.661714, 
            0.475611, 
            2.025646, 
            1.910554, 
            -4.474739, 
            -0.8743045807314092, 
            -0.83289, 
            2.90983, 
            3.569962, 
            0.284966, 
            -1.254795, 
            0.7378102764314791, 
            -0.643201, 
            1.964872, 
            3.001697, 
            -2.178789, 
            -4.4629, 
            -0.5517894198079818, 
            2.411125, 
            2.551542, 
            0.00583, 
            1.429096, 
            1.725582, 
            -0.6703513586405094, 
            -0.494551, 
            0.15507, 
            0.797173, 
            0.721678, 
            -2.131309, 
            -0.1812962221580241
        ], 
        [
            0.552178, 
            1.084008, 
            0.893299, 
            1.552064, 
            -0.7894936519608895, 
            1.594868, 
            -2.56852, 
            -1.969561, 
            0.697899, 
            0.6812021429282069, 
            -2.307484, 
            -1.463851, 
            -1.756965, 
            0.630378, 
            -0.27903704700394316, 
            -2.920193, 
            -0.575415, 
            -2.336725, 
            -0.710193, 
            0.5666500468904223, 
            1.585246, 
            -0.42537, 
            0.922409, 
            -4.165827, 
            -0.0915562852662013, 
            0.070736, 
            1.11268, 
            1.848185, 
            1.239925, 
            -0.351282038209521
        ], 
        [
            -2.042202, 
            1.113355, 
            -2.928505, 
            -0.280314, 
            -0.334414, 
            3.17619, 
            2.807045, 
            -1.857278, 
            -0.392581, 
            0.92745
        ]
    ], 
    "momentum weights" : [
        [
            -0.661714, 
            0.475611, 
            2.025646, 
            1.910554, 
            -4.474739, 
            -0.8743045807314092, 
            -0.83289, 
            2.90983, 
            3.569962, 
            0.284966, 
            -1.254795, 
            0.7378102764314791, 
            -0.643201, 
            1.964872, 
            3.001697, 
            -2.178789, 
            -4.4629, 
            -0.5517894198079818, 
            2.411125, 
            2.551542, 
            0.00583, 
            1.429096, 
            1.725582, 
            -0.6703513586405094, 
            -0.494551, 
            0.15507, 
            0.797173, 
            0.721678, 
            -2.131309, 
            -0.1812962221580241
        ], 
        [
            0.552178, 
            1.084008, 
            0.893299, 
            1.552064, 
            -0.7894936519608895, 
            1.594868, 
            -2.56852, 
            -1.969561, 
            0.697899, 
            0.6812021429282069, 
            -2.307484, 
            -1.463851, 
            -1.756965, 
            0.630378, 
            -0.27903704700394316, 
            -2.920193, 
            -0.575415, 
            -2.336725, 
            -0.710193, 
            0.5666500468904223, 
            1.585246, 
            -0.42537, 
            0.922409, 
            -4.165827, 
            -0.0915562852662013, 
            0.070736, 
            1.11268, 
            1.848185, 
            1.239925, 
            -0.351282038209521
        ], 
        [
            -2.042202, 
            1.113355, 
            -2.928505, 
            -0.280314, 
            -0.334414, 
            3.17619, 
            2.807045, 
            -1.857278, 
            -0.392581, 
            0.92745
        ]
    ], 
    "nodes" : [
        [
            -0.9435922953219538, 
            0.5391379510340621, 
            -0.4854597540224438, 
            -0.8255089700573758, 
            1.0
        ], 
        [
            -0.9638407633954543, 
            -0.9452410499421762, 
            -0.5726955333312264, 
            -0.7816069289723021, 
            0.9735719683679154, 
            0.7615941559557649
        ], 
        [
            0.9964166511260588, 
            0.9959850256732214, 
            0.9999906925100183, 
            -0.9999215315582519, 
            0.7615941559557649
        ], 
        [
            -0.9999998972083094, 
            0.9999960684429445
        ]
    ], 
    "pre activation nodes" : [
        [
            0.0, 
            0.0, 
            0.0, 
            0.0, 
            0.0
        ], 
        [
            -1.9973624921126891, 
            -1.7851001773966486, 
            -0.6515247652656139, 
            -1.0494872439084768, 
            2.1565875553660954, 
            1.0
        ], 
        [
            3.1614056876633825, 
            3.104431000811945, 
            6.138916817182253, 
            -5.0729609877616, 
            1.0
        ], 
        [
            -8.391854223709347, 
            6.569810114001906
        ]
    ], 
    "average nodes" : [
        [
            0.0, 
            0.0, 
            0.0, 
            0.0, 
            0.0
        ], 
        [
            0.0, 
            0.0, 
            0.0, 
            0.0, 
            0.0, 
            0.0
        ], 
        [
            0.0, 
            0.0, 
            0.0, 
            0.0, 
            0.0
        ], 
        [
            0.0, 
            0.0
        ]
    ], 
    "input width" : 4, 
    "output width" : 2, 
    "hidden width" : 6, 
    "hidden length" : 2, 
    "hidden layer details" : {
        "items" : 3, 
        "0" : "is shallow", 
        "1" : "probabilities", 
        "2" : "width", 
        "is shallow" : true, 
        "probabilities" : {
            "2" : 0.85, 
            "3" : 0.12, 
            "1" : 0.03
        }, 
        "width" : {
            "no change" : 0.6, 
            "decrease" : 0.35, 
            "increase" : 0.05
        }
    }, 
    "weight range" : 1.0, 
    "activation function" : 2, 
    "learning rate" : 0.05, 
    "momentum active" : true, 
    "momentum" : 0.001, 
    "accuracy requirement" : 0.985, 
    "epochs" : 10, 
    "batch size" : 40, 
    "accuracy sample size" : 150, 
    "fitness sample size" : 15, 
    "allow testing" : false, 
    "show output" : true, 
    "use bias" : true, 
    "clear bias" : false, 
    "bias value" : 1.0, 
    "child" : null
}