{
    "child iterations" : 15, 
    "is fertile" : false, 
    "is classifier" : false, 
    "is child" : false, 
    "weights" : [
        [
            -17.176358, 
            -7.343856, 
            -84.651741, 
            -4.647833, 
            55.967625, 
            -30.950955, 
            -63.941291, 
            -36.87331, 
            -1.576467, 
            7.257651, 
            64.752548, 
            24.333581, 
            -61.10521, 
            65.516628, 
            2.557831, 
            -29.565422, 
            58.322524, 
            19.402172, 
            -23.068721, 
            -38.613221, 
            27.858411, 
            -25.699365, 
            10.507314, 
            -22.073543, 
            -18.228744, 
            44.674035, 
            -1.184209, 
            33.82645, 
            2.900068, 
            -16.155222
        ], 
        [
            9.927275, 
            36.846927, 
            -46.515438, 
            -43.982721, 
            10.052882, 
            15.867358, 
            21.762431, 
            30.334859, 
            -28.392015, 
            32.902075, 
            49.121941, 
            -17.167945, 
            32.792149, 
            16.958447, 
            -1.748525, 
            -46.59895, 
            -46.475861, 
            27.335465, 
            -37.279608, 
            -2.46139, 
            35.494268, 
            19.889805, 
            -43.626484, 
            -16.546397, 
            -0.172176, 
            34.290034, 
            31.050731, 
            73.39878, 
            34.645012, 
            44.620251, 
            -18.669937, 
            -31.681833, 
            -48.729652, 
            12.182372, 
            18.250003, 
            3.61578
        ], 
        [
            -32.295056, 
            -12.150137, 
            15.866421, 
            21.436412, 
            -1.94716, 
            -40.453781, 
            55.436846, 
            -46.777589, 
            11.867242, 
            -24.529961, 
            -6.166043, 
            -13.046411
        ]
    ], 
    "momentum weights" : [
        [
            -17.176358, 
            -7.343856, 
            -84.651741, 
            -4.647833, 
            55.967625, 
            -30.950955, 
            -63.941291, 
            -36.87331, 
            -1.576467, 
            7.257651, 
            64.752548, 
            24.333581, 
            -61.10521, 
            65.516628, 
            2.557831, 
            -29.565422, 
            58.322524, 
            19.402172, 
            -23.068721, 
            -38.613221, 
            27.858411, 
            -25.699365, 
            10.507314, 
            -22.073543, 
            -18.228744, 
            44.674035, 
            -1.184209, 
            33.82645, 
            2.900068, 
            -16.155222
        ], 
        [
            9.927275, 
            36.846927, 
            -46.515438, 
            -43.982721, 
            10.052882, 
            15.867358, 
            21.762431, 
            30.334859, 
            -28.392015, 
            32.902075, 
            49.121941, 
            -17.167945, 
            32.792149, 
            16.958447, 
            -1.748525, 
            -46.59895, 
            -46.475861, 
            27.335465, 
            -37.279608, 
            -2.46139, 
            35.494268, 
            19.889805, 
            -43.626484, 
            -16.546397, 
            -0.172176, 
            34.290034, 
            31.050731, 
            73.39878, 
            34.645012, 
            44.620251, 
            -18.669937, 
            -31.681833, 
            -48.729652, 
            12.182372, 
            18.250003, 
            3.61578
        ], 
        [
            -32.295056, 
            -12.150137, 
            15.866421, 
            21.436412, 
            -1.94716, 
            -40.453781, 
            55.436846, 
            -46.777589, 
            11.867242, 
            -24.529961, 
            -6.166043, 
            -13.046411
        ]
    ], 
    "nodes" : [
        [
            0.09796710151511873, 
            0.028880324194471795, 
            -0.43755142481745535, 
            0.45232548623803154, 
            1.0
        ], 
        [
            -0.9999635249826425, 
            -0.9969552029604346, 
            0.9610182766415655, 
            1.0, 
            -0.9999999985231447, 
            0.7615941559557649
        ], 
        [
            -1.0, 
            -1.0, 
            1.0, 
            -1.0, 
            -1.0, 
            0.7615941559557649
        ], 
        [
            -1.0, 
            0.9999999998422011
        ]
    ], 
    "pre activation nodes" : [
        [
            0.0, 
            0.0, 
            0.0, 
            0.0, 
            0.0
        ], 
        [
            -5.456005965283751, 
            -3.242972327864429, 
            1.9590631208812441, 
            34.89263333822971, 
            -10.513248982451366, 
            1.0
        ], 
        [
            -51.43557410915267, 
            -111.67082382048703, 
            40.470262804106866, 
            -77.83417232298432, 
            -168.06144214193216, 
            1.0
        ], 
        [
            -57.51863531417195, 
            11.631423626202997
        ]
    ], 
    "average nodes" : [
        [
            0.0, 
            0.0, 
            0.0, 
            0.0, 
            0.0
        ], 
        [
            0.0, 
            0.0, 
            0.0, 
            0.0, 
            0.0, 
            0.0
        ], 
        [
            0.0, 
            0.0, 
            0.0, 
            0.0, 
            0.0, 
            0.0
        ], 
        [
            0.0, 
            0.0
        ]
    ], 
    "input width" : 4, 
    "output width" : 2, 
    "hidden width" : 5, 
    "hidden length" : 2, 
    "hidden layer details" : {
        "items" : 3, 
        "0" : "is shallow", 
        "1" : "probabilities", 
        "2" : "width", 
        "is shallow" : true, 
        "probabilities" : {
            "2" : 0.85, 
            "3" : 0.12, 
            "1" : 0.03
        }, 
        "width" : {
            "no change" : 0.6, 
            "decrease" : 0.35, 
            "increase" : 0.05
        }
    }, 
    "weight range" : 1.0, 
    "activation function" : 2, 
    "learning rate" : 0.05, 
    "momentum active" : true, 
    "momentum" : 0.001, 
    "accuracy requirement" : 0.985, 
    "epochs" : 10, 
    "batch size" : 40, 
    "accuracy sample size" : 150, 
    "fitness sample size" : 15, 
    "allow testing" : false, 
    "show output" : true, 
    "use bias" : true, 
    "clear bias" : false, 
    "bias value" : 1.0, 
    "child" : null
}