{
    "child iterations" : 15, 
    "is fertile" : false, 
    "is classifier" : false, 
    "is child" : false, 
    "weights" : [
        [
            1.809842, 
            3.326318, 
            -5.200468, 
            1.78799, 
            -0.8777809117273077, 
            2.42613, 
            -1.552685, 
            -6.023031, 
            0.081306, 
            -0.26980703009655316, 
            5.746792, 
            -1.893147, 
            -5.29007, 
            -0.292652, 
            0.3098742195003106, 
            -1.012199, 
            2.546498, 
            -0.177465, 
            -0.349996, 
            -0.6609883815444415, 
            3.423365, 
            -0.36361, 
            -1.771726, 
            -2.507919, 
            0.027603655019142748
        ], 
        [
            -2.73404, 
            -0.63129, 
            -1.694372, 
            3.002294, 
            -0.49997111428022123, 
            -1.954819, 
            2.397672, 
            0.169823, 
            -0.99323, 
            0.2591644863776248, 
            3.499421, 
            1.583328, 
            -1.901092, 
            -3.851848, 
            -0.8601599081838438, 
            0.326644, 
            -0.702981, 
            2.297491, 
            1.860406, 
            0.6278683797764424, 
            1.48586, 
            0.733314, 
            -0.848791, 
            1.066629, 
            0.004778205805178848
        ], 
        [
            -2.251096, 
            3.391331, 
            0.68443, 
            1.190427, 
            -1.31004, 
            0.365326, 
            4.096693, 
            -2.550515, 
            -1.530306, 
            0.266528
        ]
    ], 
    "momentum weights" : [
        [
            1.809842, 
            3.326318, 
            -5.200468, 
            1.78799, 
            -0.8777809117273077, 
            2.42613, 
            -1.552685, 
            -6.023031, 
            0.081306, 
            -0.26980703009655316, 
            5.746792, 
            -1.893147, 
            -5.29007, 
            -0.292652, 
            0.3098742195003106, 
            -1.012199, 
            2.546498, 
            -0.177465, 
            -0.349996, 
            -0.6609883815444415, 
            3.423365, 
            -0.36361, 
            -1.771726, 
            -2.507919, 
            0.027603655019142748
        ], 
        [
            -2.73404, 
            -0.63129, 
            -1.694372, 
            3.002294, 
            -0.49997111428022123, 
            -1.954819, 
            2.397672, 
            0.169823, 
            -0.99323, 
            0.2591644863776248, 
            3.499421, 
            1.583328, 
            -1.901092, 
            -3.851848, 
            -0.8601599081838438, 
            0.326644, 
            -0.702981, 
            2.297491, 
            1.860406, 
            0.6278683797764424, 
            1.48586, 
            0.733314, 
            -0.848791, 
            1.066629, 
            0.004778205805178848
        ], 
        [
            -2.251096, 
            3.391331, 
            0.68443, 
            1.190427, 
            -1.31004, 
            0.365326, 
            4.096693, 
            -2.550515, 
            -1.530306, 
            0.266528
        ]
    ], 
    "nodes" : [
        [
            0.48725382024821695, 
            -0.29415858737422684, 
            -0.22678613737695733, 
            0.5002973348972966, 
            1.0
        ], 
        [
            0.9448945526506147, 
            0.997850227290131, 
            -0.8902269023646532, 
            -0.943539626365727, 
            0.7615941559557649
        ], 
        [
            -0.9999976440396787, 
            0.9229042612457555, 
            -0.9879608344253565, 
            0.999654500444838, 
            0.7615941559557649
        ], 
        [
            0.9999986568715623, 
            -0.9999092493330666
        ]
    ], 
    "pre activation nodes" : [
        [
            0.0, 
            0.0, 
            0.0, 
            0.0, 
            0.0
        ], 
        [
            1.7818572328849327, 
            3.4172324374356307, 
            -1.4230183341912552, 
            -1.7693635493885123, 
            1.0
        ], 
        [
            -6.825854068235944, 
            1.6082719741199054, 
            -2.5533497764908817, 
            4.331746809068117, 
            1.0
        ], 
        [
            7.1068277595289935, 
            -5.000248269957492
        ]
    ], 
    "average nodes" : [
        [
            0.0, 
            0.0, 
            0.0, 
            0.0, 
            0.0
        ], 
        [
            0.0, 
            0.0, 
            0.0, 
            0.0, 
            0.0
        ], 
        [
            0.0, 
            0.0, 
            0.0, 
            0.0, 
            0.0
        ], 
        [
            0.0, 
            0.0
        ]
    ], 
    "input width" : 4, 
    "output width" : 2, 
    "hidden width" : 5, 
    "hidden length" : 2, 
    "hidden layer details" : {
        "items" : 3, 
        "0" : "is shallow", 
        "1" : "probabilities", 
        "2" : "width", 
        "is shallow" : true, 
        "probabilities" : {
            "2" : 0.85, 
            "3" : 0.12, 
            "1" : 0.03
        }, 
        "width" : {
            "no change" : 0.6, 
            "decrease" : 0.35, 
            "increase" : 0.05
        }
    }, 
    "weight range" : 1.0, 
    "activation function" : 2, 
    "learning rate" : 0.05, 
    "momentum active" : true, 
    "momentum" : 0.001, 
    "accuracy requirement" : 0.985, 
    "epochs" : 10, 
    "batch size" : 40, 
    "accuracy sample size" : 150, 
    "fitness sample size" : 15, 
    "allow testing" : false, 
    "show output" : true, 
    "use bias" : true, 
    "clear bias" : false, 
    "bias value" : 1.0, 
    "child" : null
}