{
    "child iterations" : 15, 
    "is fertile" : false, 
    "is classifier" : false, 
    "is child" : false, 
    "weights" : [
        [
            -642.629585, 
            -2750.900597, 
            1181.098076, 
            49.460628, 
            934.070287, 
            -1147.926469, 
            -1675.085346, 
            -749.313831, 
            1781.635428, 
            -345.273431, 
            1130.239757, 
            85.917023, 
            -1097.638649, 
            -415.84285, 
            2258.971761, 
            208.205209, 
            -897.835273, 
            1031.243112, 
            -483.835986, 
            362.402439, 
            -72.369472, 
            1278.658391, 
            303.913438, 
            1075.216968, 
            157.52618, 
            -693.567224, 
            662.124467, 
            68.171657, 
            877.748416, 
            1427.350632
        ], 
        [
            -1040.53087, 
            1545.334894, 
            -382.561816, 
            -1034.82258, 
            403.888886, 
            992.010787, 
            792.102251, 
            1436.158075, 
            297.941998, 
            560.313277, 
            1223.591357, 
            -924.810907, 
            285.040062, 
            -344.103409, 
            -1066.073471, 
            -224.599454, 
            -1883.835171, 
            -636.359924, 
            -911.758542, 
            138.02703, 
            976.089688, 
            -158.823268, 
            -582.04956, 
            107.06805, 
            768.252373, 
            321.358609, 
            -1224.544108, 
            907.037257, 
            521.022149, 
            1374.457999, 
            159.08705, 
            -951.75124, 
            -435.977689, 
            501.340288, 
            98.482605, 
            -623.755208
        ], 
        [
            546.32769, 
            -665.604283, 
            -775.397903, 
            1289.442877, 
            -990.298153, 
            463.173047, 
            -90.457721, 
            469.010571, 
            -1353.010538, 
            1295.052029, 
            -262.236294, 
            -7.347062
        ]
    ], 
    "momentum weights" : [
        [
            -642.629585, 
            -2750.900597, 
            1181.098076, 
            49.460628, 
            934.070287, 
            -1147.926469, 
            -1675.085346, 
            -749.313831, 
            1781.635428, 
            -345.273431, 
            1130.239757, 
            85.917023, 
            -1097.638649, 
            -415.84285, 
            2258.971761, 
            208.205209, 
            -897.835273, 
            1031.243112, 
            -483.835986, 
            362.402439, 
            -72.369472, 
            1278.658391, 
            303.913438, 
            1075.216968, 
            157.52618, 
            -693.567224, 
            662.124467, 
            68.171657, 
            877.748416, 
            1427.350632
        ], 
        [
            -1040.53087, 
            1545.334894, 
            -382.561816, 
            -1034.82258, 
            403.888886, 
            992.010787, 
            792.102251, 
            1436.158075, 
            297.941998, 
            560.313277, 
            1223.591357, 
            -924.810907, 
            285.040062, 
            -344.103409, 
            -1066.073471, 
            -224.599454, 
            -1883.835171, 
            -636.359924, 
            -911.758542, 
            138.02703, 
            976.089688, 
            -158.823268, 
            -582.04956, 
            107.06805, 
            768.252373, 
            321.358609, 
            -1224.544108, 
            907.037257, 
            521.022149, 
            1374.457999, 
            159.08705, 
            -951.75124, 
            -435.977689, 
            501.340288, 
            98.482605, 
            -623.755208
        ], 
        [
            546.32769, 
            -665.604283, 
            -775.397903, 
            1289.442877, 
            -990.298153, 
            463.173047, 
            -90.457721, 
            469.010571, 
            -1353.010538, 
            1295.052029, 
            -262.236294, 
            -7.347062
        ]
    ], 
    "nodes" : [
        [
            0.6323331097794027, 
            -0.16778860005912133, 
            -0.36040665991772025, 
            0.7262827682151722, 
            1.0
        ], 
        [
            1.0, 
            -1.0, 
            1.0, 
            1.0, 
            1.0, 
            0.7615941559557649
        ], 
        [
            -1.0, 
            -1.0, 
            -1.0, 
            -1.0, 
            -1.0, 
            0.7615941559557649
        ], 
        [
            1.0, 
            -1.0
        ]
    ], 
    "pre activation nodes" : [
        [
            0.0, 
            0.0, 
            0.0, 
            0.0, 
            0.0
        ], 
        [
            76.42498127408345, 
            -1894.2472552625827, 
            243.32460438280486, 
            1011.009207203859, 
            1823.0635437197325, 
            1.0
        ], 
        [
            -1569.9394604317577, 
            -500.3891333076526, 
            -2327.0697650694997, 
            -689.70348851402, 
            -2689.5612765687, 
            1.0
        ], 
        [
            2463.118996010102, 
            -2856.669720482645
        ]
    ], 
    "average nodes" : [
        [
            0.0, 
            0.0, 
            0.0, 
            0.0, 
            0.0
        ], 
        [
            0.0, 
            0.0, 
            0.0, 
            0.0, 
            0.0, 
            0.0
        ], 
        [
            0.0, 
            0.0, 
            0.0, 
            0.0, 
            0.0, 
            0.0
        ], 
        [
            0.0, 
            0.0
        ]
    ], 
    "input width" : 4, 
    "output width" : 2, 
    "hidden width" : 6, 
    "hidden length" : 2, 
    "hidden layer details" : {
        "items" : 3, 
        "0" : "is shallow", 
        "1" : "probabilities", 
        "2" : "width", 
        "is shallow" : true, 
        "probabilities" : {
            "2" : 0.85, 
            "3" : 0.12, 
            "1" : 0.03
        }, 
        "width" : {
            "no change" : 0.6, 
            "decrease" : 0.35, 
            "increase" : 0.05
        }
    }, 
    "weight range" : 1.0, 
    "activation function" : 2, 
    "learning rate" : 0.05, 
    "momentum active" : true, 
    "momentum" : 0.001, 
    "accuracy requirement" : 0.985, 
    "epochs" : 10, 
    "batch size" : 40, 
    "accuracy sample size" : 150, 
    "fitness sample size" : 15, 
    "allow testing" : false, 
    "show output" : true, 
    "use bias" : true, 
    "clear bias" : false, 
    "bias value" : 1.0, 
    "child" : null
}