{
    "child iterations" : 15, 
    "is fertile" : false, 
    "is classifier" : false, 
    "is child" : false, 
    "weights" : [
        [
            584.470338, 
            -425.380057, 
            -958.585582, 
            447.482003, 
            -992.523431, 
            -566.8091, 
            341.100344, 
            237.599468, 
            -986.312787, 
            30.247846, 
            -396.776449, 
            -410.986209, 
            636.010343, 
            286.353572, 
            -926.54852, 
            -260.392641, 
            -379.326426, 
            360.867923, 
            40.528078, 
            369.183014, 
            -115.999184, 
            -423.579477, 
            395.357813, 
            -671.869634, 
            -143.320042, 
            465.138231, 
            -331.309679, 
            -258.343477, 
            -437.011407, 
            -470.658475
        ], 
        [
            -175.584973, 
            -349.050682, 
            533.805403, 
            331.394245, 
            -3.96569, 
            459.907208, 
            -417.269716, 
            225.033563, 
            489.305032, 
            -159.177399, 
            -584.564294, 
            -793.063567, 
            -628.428176, 
            -372.368008, 
            -602.611888, 
            -135.123456, 
            7.468342, 
            83.128586, 
            283.494403, 
            616.754345, 
            379.870304, 
            -575.911323, 
            -535.86626, 
            -115.645916, 
            -187.291001, 
            306.988417, 
            793.715817, 
            111.976805, 
            -393.359061, 
            597.008795
        ], 
        [
            92.797103, 
            -47.090249, 
            448.064187, 
            -567.972379, 
            567.287261, 
            -488.450731, 
            410.009343, 
            -333.932551, 
            100.100435, 
            113.655823
        ]
    ], 
    "momentum weights" : [
        [
            584.470338, 
            -425.380057, 
            -958.585582, 
            447.482003, 
            -992.523431, 
            -566.8091, 
            341.100344, 
            237.599468, 
            -986.312787, 
            30.247846, 
            -396.776449, 
            -410.986209, 
            636.010343, 
            286.353572, 
            -926.54852, 
            -260.392641, 
            -379.326426, 
            360.867923, 
            40.528078, 
            369.183014, 
            -115.999184, 
            -423.579477, 
            395.357813, 
            -671.869634, 
            -143.320042, 
            465.138231, 
            -331.309679, 
            -258.343477, 
            -437.011407, 
            -470.658475
        ], 
        [
            -175.584973, 
            -349.050682, 
            533.805403, 
            331.394245, 
            -3.96569, 
            459.907208, 
            -417.269716, 
            225.033563, 
            489.305032, 
            -159.177399, 
            -584.564294, 
            -793.063567, 
            -628.428176, 
            -372.368008, 
            -602.611888, 
            -135.123456, 
            7.468342, 
            83.128586, 
            283.494403, 
            616.754345, 
            379.870304, 
            -575.911323, 
            -535.86626, 
            -115.645916, 
            -187.291001, 
            306.988417, 
            793.715817, 
            111.976805, 
            -393.359061, 
            597.008795
        ], 
        [
            92.797103, 
            -47.090249, 
            448.064187, 
            -567.972379, 
            567.287261, 
            -488.450731, 
            410.009343, 
            -333.932551, 
            100.100435, 
            113.655823
        ]
    ], 
    "nodes" : [
        [
            -0.7748162891489808, 
            0.6430493139305588, 
            -0.520599651065113, 
            -0.3606117642779855, 
            1.0
        ], 
        [
            -1.0, 
            1.0, 
            1.0, 
            -1.0, 
            1.0, 
            0.7615941559557649
        ], 
        [
            1.0, 
            -1.0, 
            -1.0, 
            -1.0, 
            0.7615941559557649
        ], 
        [
            -1.0, 
            1.0
        ]
    ], 
    "pre activation nodes" : [
        [
            0.0, 
            0.0, 
            0.0, 
            0.0, 
            0.0
        ], 
        [
            -722.5545025661115, 
            665.3104954459347, 
            301.3617900796124, 
            -297.3009048497963, 
            131.7716179359416, 
            1.0
        ], 
        [
            799.7222313333114, 
            -840.172938283145, 
            -1470.9139817094017, 
            -913.1775020498471, 
            1.0
        ], 
        [
            -1256.32778169537, 
            1429.825022587143
        ]
    ], 
    "average nodes" : [
        [
            0.0, 
            0.0, 
            0.0, 
            0.0, 
            0.0
        ], 
        [
            0.0, 
            0.0, 
            0.0, 
            0.0, 
            0.0, 
            0.0
        ], 
        [
            0.0, 
            0.0, 
            0.0, 
            0.0, 
            0.0
        ], 
        [
            0.0, 
            0.0
        ]
    ], 
    "input width" : 4, 
    "output width" : 2, 
    "hidden width" : 5, 
    "hidden length" : 2, 
    "hidden layer details" : {
        "items" : 3, 
        "0" : "is shallow", 
        "1" : "probabilities", 
        "2" : "width", 
        "is shallow" : true, 
        "probabilities" : {
            "2" : 0.85, 
            "3" : 0.12, 
            "1" : 0.03
        }, 
        "width" : {
            "no change" : 0.6, 
            "decrease" : 0.35, 
            "increase" : 0.05
        }
    }, 
    "weight range" : 1.0, 
    "activation function" : 2, 
    "learning rate" : 0.05, 
    "momentum active" : true, 
    "momentum" : 0.001, 
    "accuracy requirement" : 0.985, 
    "epochs" : 10, 
    "batch size" : 40, 
    "accuracy sample size" : 150, 
    "fitness sample size" : 15, 
    "allow testing" : false, 
    "show output" : true, 
    "use bias" : true, 
    "clear bias" : false, 
    "bias value" : 1.0, 
    "child" : null
}