{
    "child iterations" : 15, 
    "is fertile" : false, 
    "is classifier" : false, 
    "is child" : false, 
    "weights" : [
        [
            -15.442715, 
            4.836532, 
            -4.744001, 
            -6.948277, 
            11.00346, 
            0.114113, 
            0.477079, 
            1.522917, 
            -7.629616, 
            -8.391043, 
            10.046972, 
            -1.609977, 
            -4.595921, 
            -4.301702, 
            -4.50303, 
            -12.607711, 
            8.943428, 
            -0.495483, 
            -3.904269, 
            -7.732263, 
            1.513147, 
            0.270924, 
            -1.839037, 
            -3.343436, 
            5.875388, 
            13.489078, 
            1.143508, 
            -5.651993, 
            5.464221, 
            -2.688365
        ], 
        [
            -5.879116, 
            2.184496, 
            3.20448, 
            -8.445042, 
            -7.701978, 
            -5.190339, 
            3.469259, 
            6.327269, 
            3.315114, 
            -4.003355, 
            3.815181, 
            -3.906133, 
            -2.872593, 
            -6.358356, 
            8.009932, 
            -5.465699, 
            6.77826, 
            1.169429, 
            -1.970206, 
            6.199434, 
            10.881894, 
            -5.503118, 
            -8.22872, 
            6.663981, 
            4.898485, 
            10.109866, 
            -8.501511, 
            4.62368, 
            0.177217, 
            -8.462983, 
            5.487423, 
            0.664914, 
            -7.982753, 
            7.748106, 
            -0.881695, 
            7.562689
        ], 
        [
            7.058218, 
            -2.531121, 
            -3.913736, 
            -10.115674, 
            -8.894571, 
            5.3641, 
            8.059341, 
            -4.072512, 
            -1.254432, 
            -7.655914, 
            2.659533, 
            8.864439
        ]
    ], 
    "momentum weights" : [
        [
            -15.442715, 
            4.836532, 
            -4.744001, 
            -6.948277, 
            11.00346, 
            0.114113, 
            0.477079, 
            1.522917, 
            -7.629616, 
            -8.391043, 
            10.046972, 
            -1.609977, 
            -4.595921, 
            -4.301702, 
            -4.50303, 
            -12.607711, 
            8.943428, 
            -0.495483, 
            -3.904269, 
            -7.732263, 
            1.513147, 
            0.270924, 
            -1.839037, 
            -3.343436, 
            5.875388, 
            13.489078, 
            1.143508, 
            -5.651993, 
            5.464221, 
            -2.688365
        ], 
        [
            -5.879116, 
            2.184496, 
            3.20448, 
            -8.445042, 
            -7.701978, 
            -5.190339, 
            3.469259, 
            6.327269, 
            3.315114, 
            -4.003355, 
            3.815181, 
            -3.906133, 
            -2.872593, 
            -6.358356, 
            8.009932, 
            -5.465699, 
            6.77826, 
            1.169429, 
            -1.970206, 
            6.199434, 
            10.881894, 
            -5.503118, 
            -8.22872, 
            6.663981, 
            4.898485, 
            10.109866, 
            -8.501511, 
            4.62368, 
            0.177217, 
            -8.462983, 
            5.487423, 
            0.664914, 
            -7.982753, 
            7.748106, 
            -0.881695, 
            7.562689
        ], 
        [
            7.058218, 
            -2.531121, 
            -3.913736, 
            -10.115674, 
            -8.894571, 
            5.3641, 
            8.059341, 
            -4.072512, 
            -1.254432, 
            -7.655914, 
            2.659533, 
            8.864439
        ]
    ], 
    "nodes" : [
        [
            0.5315751898405556, 
            0.21037841397658347, 
            -0.3816615331595839, 
            0.687718341107686, 
            1.0
        ], 
        [
            -0.9964363023806212, 
            0.9999999999815526, 
            -0.22045991465548925, 
            -0.9999901899213157, 
            0.9999999496745919, 
            0.7615941559557649
        ], 
        [
            1.0, 
            0.9999999956158395, 
            -1.0, 
            1.0, 
            0.9999999999999992, 
            0.7615941559557649
        ], 
        [
            1.0, 
            -1.0
        ]
    ], 
    "pre activation nodes" : [
        [
            0.0, 
            0.0, 
            0.0, 
            0.0, 
            0.0
        ], 
        [
            -3.164160179194897, 
            12.704622376295205, 
            -0.2241394671534782, 
            -6.11262126954987, 
            8.748951455972097, 
            1.0
        ], 
        [
            21.00857592952582, 
            9.969207428952618, 
            -27.106730980590047, 
            21.644214989692117, 
            17.729739365509186, 
            1.0
        ], 
        [
            20.869446807529954, 
            -22.988216017424893
        ]
    ], 
    "average nodes" : [
        [
            0.0, 
            0.0, 
            0.0, 
            0.0, 
            0.0
        ], 
        [
            0.0, 
            0.0, 
            0.0, 
            0.0, 
            0.0, 
            0.0
        ], 
        [
            0.0, 
            0.0, 
            0.0, 
            0.0, 
            0.0, 
            0.0
        ], 
        [
            0.0, 
            0.0
        ]
    ], 
    "input width" : 4, 
    "output width" : 2, 
    "hidden width" : 5, 
    "hidden length" : 2, 
    "hidden layer details" : {
        "items" : 3, 
        "0" : "is shallow", 
        "1" : "probabilities", 
        "2" : "width", 
        "is shallow" : true, 
        "probabilities" : {
            "2" : 0.85, 
            "3" : 0.12, 
            "1" : 0.03
        }, 
        "width" : {
            "no change" : 0.6, 
            "decrease" : 0.35, 
            "increase" : 0.05
        }
    }, 
    "weight range" : 1.0, 
    "activation function" : 2, 
    "learning rate" : 0.05, 
    "momentum active" : true, 
    "momentum" : 0.001, 
    "accuracy requirement" : 0.985, 
    "epochs" : 10, 
    "batch size" : 40, 
    "accuracy sample size" : 150, 
    "fitness sample size" : 15, 
    "allow testing" : false, 
    "show output" : true, 
    "use bias" : true, 
    "clear bias" : false, 
    "bias value" : 1.0, 
    "child" : null
}