{
    "child iterations" : 15, 
    "is fertile" : false, 
    "is classifier" : false, 
    "is child" : false, 
    "weights" : [
        [
            -0.217459, 
            2.754692, 
            5.147729, 
            2.967017, 
            0.6525803186363301, 
            0.486847, 
            1.401133, 
            5.60817, 
            3.965218, 
            0.6522252620213893, 
            -2.183462, 
            -1.380139, 
            4.048771, 
            6.278122, 
            0.640894442985313, 
            -1.058078, 
            -1.521938, 
            -0.329069, 
            -0.359276, 
            -0.5690851340806524, 
            -1.490494, 
            -0.377533, 
            2.499711, 
            2.262703, 
            0.047485669980293244
        ], 
        [
            0.857936, 
            1.910595, 
            0.048299, 
            0.309044, 
            0.5430712880170294, 
            -2.119294, 
            -0.508054, 
            0.023687, 
            1.199598, 
            0.3664098782807357, 
            2.51368, 
            -1.019159, 
            3.352168, 
            1.968002, 
            -0.8551562613763475, 
            1.215428, 
            -2.48132, 
            -0.349118, 
            2.972234, 
            0.4858034435105567, 
            -0.027076, 
            0.068338, 
            1.783952, 
            -2.330255, 
            -0.91589162384126
        ], 
        [
            0.604431, 
            -1.827767, 
            -2.97664, 
            1.290163, 
            1.884095, 
            -1.795967, 
            3.375715, 
            -3.48575, 
            -1.483135, 
            0.564941
        ]
    ], 
    "momentum weights" : [
        [
            -0.217459, 
            2.754692, 
            5.147729, 
            2.967017, 
            0.6525803186363301, 
            0.486847, 
            1.401133, 
            5.60817, 
            3.965218, 
            0.6522252620213893, 
            -2.183462, 
            -1.380139, 
            4.048771, 
            6.278122, 
            0.640894442985313, 
            -1.058078, 
            -1.521938, 
            -0.329069, 
            -0.359276, 
            -0.5690851340806524, 
            -1.490494, 
            -0.377533, 
            2.499711, 
            2.262703, 
            0.047485669980293244
        ], 
        [
            0.857936, 
            1.910595, 
            0.048299, 
            0.309044, 
            0.5430712880170294, 
            -2.119294, 
            -0.508054, 
            0.023687, 
            1.199598, 
            0.3664098782807357, 
            2.51368, 
            -1.019159, 
            3.352168, 
            1.968002, 
            -0.8551562613763475, 
            1.215428, 
            -2.48132, 
            -0.349118, 
            2.972234, 
            0.4858034435105567, 
            -0.027076, 
            0.068338, 
            1.783952, 
            -2.330255, 
            -0.91589162384126
        ], 
        [
            0.604431, 
            -1.827767, 
            -2.97664, 
            1.290163, 
            1.884095, 
            -1.795967, 
            3.375715, 
            -3.48575, 
            -1.483135, 
            0.564941
        ]
    ], 
    "nodes" : [
        [
            -0.13656260591768893, 
            0.09020419312471235, 
            -0.6907575333318974, 
            0.4694927121125325, 
            1.0
        ], 
        [
            -0.38455877835745117, 
            -0.3700924641807847, 
            -0.5707337555809405, 
            -0.979703976524733, 
            0.7615941559557649
        ], 
        [
            -0.975337954885138, 
            0.987083637652726, 
            -0.23535964215112687, 
            -0.9999941678084785, 
            0.7615941559557649
        ], 
        [
            -0.9999999131993306, 
            0.9999992450384354
        ]
    ], 
    "pre activation nodes" : [
        [
            0.0, 
            0.0, 
            0.0, 
            0.0, 
            0.0
        ], 
        [
            -0.40539867607223146, 
            -0.3885302342871748, 
            -0.6486104033097195, 
            -2.290138813382157, 
            1.0
        ], 
        [
            -2.1916146761601865, 
            2.5179642137252216, 
            -0.23985590603122642, 
            -6.372630994244557, 
            1.0
        ], 
        [
            -8.476399320247568, 
            7.39487289992494
        ]
    ], 
    "average nodes" : [
        [
            0.0, 
            0.0, 
            0.0, 
            0.0, 
            0.0
        ], 
        [
            0.0, 
            0.0, 
            0.0, 
            0.0, 
            0.0
        ], 
        [
            0.0, 
            0.0, 
            0.0, 
            0.0, 
            0.0
        ], 
        [
            0.0, 
            0.0
        ]
    ], 
    "input width" : 4, 
    "output width" : 2, 
    "hidden width" : 5, 
    "hidden length" : 2, 
    "hidden layer details" : {
        "items" : 3, 
        "0" : "is shallow", 
        "1" : "probabilities", 
        "2" : "width", 
        "is shallow" : true, 
        "probabilities" : {
            "2" : 0.85, 
            "3" : 0.12, 
            "1" : 0.03
        }, 
        "width" : {
            "no change" : 0.6, 
            "decrease" : 0.35, 
            "increase" : 0.05
        }
    }, 
    "weight range" : 1.0, 
    "activation function" : 2, 
    "learning rate" : 0.05, 
    "momentum active" : true, 
    "momentum" : 0.001, 
    "accuracy requirement" : 0.985, 
    "epochs" : 10, 
    "batch size" : 40, 
    "accuracy sample size" : 150, 
    "fitness sample size" : 15, 
    "allow testing" : false, 
    "show output" : true, 
    "use bias" : true, 
    "clear bias" : false, 
    "bias value" : 1.0, 
    "child" : null
}