{
    "child iterations" : 15, 
    "is fertile" : false, 
    "is classifier" : false, 
    "is child" : false, 
    "weights" : [
        [
            0.197267, 
            -0.38213, 
            -0.163562, 
            -0.537058, 
            0.228659, 
            -0.939562, 
            0.384225, 
            -1.019374, 
            0.370276, 
            0.10542, 
            0.160702, 
            -0.46465208412084213, 
            0.80193, 
            0.439929, 
            -0.565915, 
            -0.403471, 
            0.098907, 
            1.036827, 
            -0.179371, 
            1.00101, 
            0.891512, 
            0.238476, 
            -0.766035, 
            0.47850314293468355, 
            0.471703, 
            -1.068544, 
            -0.656744, 
            -0.697363, 
            0.409111, 
            0.581062, 
            0.660059, 
            0.263697, 
            -0.233739, 
            0.45054, 
            0.694705, 
            0.14669306783002245, 
            -0.919201, 
            -0.776596, 
            0.39116, 
            0.99063, 
            0.875809, 
            0.616552, 
            -0.699565, 
            -0.394311, 
            0.896706, 
            0.593568, 
            -0.94981, 
            0.8066201395244936, 
            0.75063, 
            0.782513, 
            -0.875729, 
            0.003022, 
            0.077991, 
            -0.609046, 
            0.051723, 
            0.045044, 
            0.968408, 
            -0.061319, 
            0.19266, 
            0.5019894549893922, 
            0.734028, 
            0.898584, 
            0.481112, 
            0.527736, 
            0.073018, 
            -0.60769, 
            0.499223, 
            -0.806982, 
            -0.838287, 
            0.337507, 
            0.894003, 
            -0.41968375010985604, 
            0.831731, 
            0.545276, 
            -0.563143, 
            0.645953, 
            -0.200402, 
            -0.875781, 
            0.509731, 
            -0.504701, 
            0.60799, 
            0.457446, 
            -0.230241, 
            -0.6428700819936637, 
            0.599881, 
            -0.694054, 
            -0.431966, 
            -0.573979, 
            0.26575, 
            0.640882, 
            0.305766, 
            -0.44743, 
            -0.921723, 
            -0.533208, 
            0.97322, 
            0.6542340280861041, 
            0.582836, 
            -0.300567, 
            0.421358, 
            -0.958828, 
            0.303719, 
            -0.747385, 
            -0.420586, 
            -0.366278, 
            0.247818, 
            0.769515, 
            0.497441, 
            -0.6938751903846649, 
            0.058972, 
            -0.498445, 
            0.948319, 
            -0.57062, 
            -0.635179, 
            0.250939, 
            -0.794435, 
            -0.799323, 
            -0.510497, 
            -0.652956, 
            -0.066735, 
            -0.15176188100460508, 
            -0.659517, 
            0.055029, 
            -0.80135, 
            0.937303, 
            0.505944, 
            1.037677, 
            -0.088575, 
            -0.511187, 
            -0.445633, 
            0.048327, 
            -1.067173, 
            -0.011812404290354461
        ], 
        [
            0.63926, 
            0.282459, 
            -0.139827, 
            0.299543, 
            -0.386745, 
            0.619694, 
            0.940253, 
            0.567547, 
            -0.114389, 
            0.197103, 
            0.403318, 
            -0.7609336608621957, 
            0.759656, 
            -0.51144, 
            -0.719478, 
            0.06335, 
            -0.94771, 
            -0.5987, 
            1.003182, 
            -0.837664, 
            -0.125604, 
            0.018372, 
            -0.138254, 
            0.06232651449952353, 
            0.868348, 
            0.446931, 
            -0.252997, 
            0.544896, 
            0.076827, 
            -0.004486, 
            -0.716384, 
            -0.803666, 
            -0.747856, 
            -0.839001, 
            0.083964, 
            0.5823974119096846, 
            -0.072216, 
            0.377477, 
            -0.972222, 
            0.434466, 
            0.248892, 
            -0.674906, 
            -0.747263, 
            -0.708047, 
            -0.432104, 
            0.497303, 
            0.311374, 
            0.19214294260271703, 
            0.389757, 
            0.26373, 
            -0.676818, 
            -0.841873, 
            -0.101305, 
            -0.903704, 
            -0.492286, 
            0.259013, 
            -0.679021, 
            0.899071, 
            -1.032676, 
            -0.1184384889183896, 
            -0.301468, 
            -0.620893, 
            -0.403925, 
            0.718092, 
            -0.735955, 
            0.721302, 
            -0.78885, 
            -0.849547, 
            -0.258198, 
            -0.34144, 
            0.5866, 
            0.8529751943531796, 
            -0.705279, 
            0.556751, 
            -0.608063, 
            0.555865, 
            0.916852, 
            0.452487, 
            -0.08608, 
            -0.622211, 
            -0.995302, 
            1.014064, 
            -0.51146, 
            0.07858995562576765, 
            0.597685, 
            0.630015, 
            -0.936838, 
            -0.661429, 
            0.448367, 
            -0.405933, 
            -0.26219, 
            0.540102, 
            0.947962, 
            -0.778604, 
            0.641581, 
            -0.7859295546058398, 
            0.027413, 
            0.44214, 
            0.852174, 
            -0.207491, 
            0.852274, 
            0.001982, 
            -0.937724, 
            0.078449, 
            0.164174, 
            -0.645899, 
            -1.006327, 
            0.583472804556711, 
            0.437916, 
            0.013892, 
            -0.31461, 
            0.642793, 
            0.329451, 
            -0.908427, 
            -0.855855, 
            0.167034, 
            -0.690954, 
            0.631585, 
            -0.427145, 
            -0.6993689405366814, 
            -0.512959, 
            0.058221, 
            0.898832, 
            -0.57631, 
            0.821472, 
            0.938201, 
            0.051156, 
            -0.247642, 
            0.292603, 
            0.984404, 
            0.201657, 
            -0.7918716357916831, 
            0.620373, 
            0.252422, 
            -0.97958, 
            0.935755, 
            0.93152, 
            0.112499, 
            0.987193, 
            -0.118635, 
            0.005073, 
            -0.524018, 
            -0.653857, 
            0.937149107734079
        ], 
        [
            -0.0364, 
            0.751534, 
            -0.549246, 
            -0.146247, 
            0.985668, 
            0.205782, 
            -0.698819, 
            -0.154177, 
            0.849877, 
            -0.482382, 
            -0.742392, 
            0.181606
        ]
    ], 
    "momentum weights" : [
        [
            0.197267, 
            -0.38213, 
            -0.163562, 
            -0.537058, 
            0.228659, 
            -0.939562, 
            0.384225, 
            -1.019374, 
            0.370276, 
            0.10542, 
            0.160702, 
            -0.46465208412084213, 
            0.80193, 
            0.439929, 
            -0.565915, 
            -0.403471, 
            0.098907, 
            1.036827, 
            -0.179371, 
            1.00101, 
            0.891512, 
            0.238476, 
            -0.766035, 
            0.47850314293468355, 
            0.471703, 
            -1.068544, 
            -0.656744, 
            -0.697363, 
            0.409111, 
            0.581062, 
            0.660059, 
            0.263697, 
            -0.233739, 
            0.45054, 
            0.694705, 
            0.14669306783002245, 
            -0.919201, 
            -0.776596, 
            0.39116, 
            0.99063, 
            0.875809, 
            0.616552, 
            -0.699565, 
            -0.394311, 
            0.896706, 
            0.593568, 
            -0.94981, 
            0.8066201395244936, 
            0.75063, 
            0.782513, 
            -0.875729, 
            0.003022, 
            0.077991, 
            -0.609046, 
            0.051723, 
            0.045044, 
            0.968408, 
            -0.061319, 
            0.19266, 
            0.5019894549893922, 
            0.734028, 
            0.898584, 
            0.481112, 
            0.527736, 
            0.073018, 
            -0.60769, 
            0.499223, 
            -0.806982, 
            -0.838287, 
            0.337507, 
            0.894003, 
            -0.41968375010985604, 
            0.831731, 
            0.545276, 
            -0.563143, 
            0.645953, 
            -0.200402, 
            -0.875781, 
            0.509731, 
            -0.504701, 
            0.60799, 
            0.457446, 
            -0.230241, 
            -0.6428700819936637, 
            0.599881, 
            -0.694054, 
            -0.431966, 
            -0.573979, 
            0.26575, 
            0.640882, 
            0.305766, 
            -0.44743, 
            -0.921723, 
            -0.533208, 
            0.97322, 
            0.6542340280861041, 
            0.582836, 
            -0.300567, 
            0.421358, 
            -0.958828, 
            0.303719, 
            -0.747385, 
            -0.420586, 
            -0.366278, 
            0.247818, 
            0.769515, 
            0.497441, 
            -0.6938751903846649, 
            0.058972, 
            -0.498445, 
            0.948319, 
            -0.57062, 
            -0.635179, 
            0.250939, 
            -0.794435, 
            -0.799323, 
            -0.510497, 
            -0.652956, 
            -0.066735, 
            -0.15176188100460508, 
            -0.659517, 
            0.055029, 
            -0.80135, 
            0.937303, 
            0.505944, 
            1.037677, 
            -0.088575, 
            -0.511187, 
            -0.445633, 
            0.048327, 
            -1.067173, 
            -0.011812404290354461
        ], 
        [
            0.63926, 
            0.282459, 
            -0.139827, 
            0.299543, 
            -0.386745, 
            0.619694, 
            0.940253, 
            0.567547, 
            -0.114389, 
            0.197103, 
            0.403318, 
            -0.7609336608621957, 
            0.759656, 
            -0.51144, 
            -0.719478, 
            0.06335, 
            -0.94771, 
            -0.5987, 
            1.003182, 
            -0.837664, 
            -0.125604, 
            0.018372, 
            -0.138254, 
            0.06232651449952353, 
            0.868348, 
            0.446931, 
            -0.252997, 
            0.544896, 
            0.076827, 
            -0.004486, 
            -0.716384, 
            -0.803666, 
            -0.747856, 
            -0.839001, 
            0.083964, 
            0.5823974119096846, 
            -0.072216, 
            0.377477, 
            -0.972222, 
            0.434466, 
            0.248892, 
            -0.674906, 
            -0.747263, 
            -0.708047, 
            -0.432104, 
            0.497303, 
            0.311374, 
            0.19214294260271703, 
            0.389757, 
            0.26373, 
            -0.676818, 
            -0.841873, 
            -0.101305, 
            -0.903704, 
            -0.492286, 
            0.259013, 
            -0.679021, 
            0.899071, 
            -1.032676, 
            -0.1184384889183896, 
            -0.301468, 
            -0.620893, 
            -0.403925, 
            0.718092, 
            -0.735955, 
            0.721302, 
            -0.78885, 
            -0.849547, 
            -0.258198, 
            -0.34144, 
            0.5866, 
            0.8529751943531796, 
            -0.705279, 
            0.556751, 
            -0.608063, 
            0.555865, 
            0.916852, 
            0.452487, 
            -0.08608, 
            -0.622211, 
            -0.995302, 
            1.014064, 
            -0.51146, 
            0.07858995562576765, 
            0.597685, 
            0.630015, 
            -0.936838, 
            -0.661429, 
            0.448367, 
            -0.405933, 
            -0.26219, 
            0.540102, 
            0.947962, 
            -0.778604, 
            0.641581, 
            -0.7859295546058398, 
            0.027413, 
            0.44214, 
            0.852174, 
            -0.207491, 
            0.852274, 
            0.001982, 
            -0.937724, 
            0.078449, 
            0.164174, 
            -0.645899, 
            -1.006327, 
            0.583472804556711, 
            0.437916, 
            0.013892, 
            -0.31461, 
            0.642793, 
            0.329451, 
            -0.908427, 
            -0.855855, 
            0.167034, 
            -0.690954, 
            0.631585, 
            -0.427145, 
            -0.6993689405366814, 
            -0.512959, 
            0.058221, 
            0.898832, 
            -0.57631, 
            0.821472, 
            0.938201, 
            0.051156, 
            -0.247642, 
            0.292603, 
            0.984404, 
            0.201657, 
            -0.7918716357916831, 
            0.620373, 
            0.252422, 
            -0.97958, 
            0.935755, 
            0.93152, 
            0.112499, 
            0.987193, 
            -0.118635, 
            0.005073, 
            -0.524018, 
            -0.653857, 
            0.937149107734079
        ], 
        [
            -0.0364, 
            0.751534, 
            -0.549246, 
            -0.146247, 
            0.985668, 
            0.205782, 
            -0.698819, 
            -0.154177, 
            0.849877, 
            -0.482382, 
            -0.742392, 
            0.181606
        ]
    ], 
    "nodes" : [
        [
            -1.0000000000000075, 
            -0.23809523809523406, 
            -1.0, 
            -1.0, 
            -0.6156351791530945, 
            -1.0, 
            -1.0000000000000075, 
            1.0000000000000175, 
            -0.9999999999999988, 
            -1.0000000000000004, 
            1.0
        ], 
        [
            -0.9904544568063135, 
            0.34248891145614246, 
            -0.889169387015283, 
            0.7845429737087533, 
            -0.34045252177471247, 
            0.998278802367633, 
            0.08916643835365858, 
            0.9837584737052938, 
            -0.9912907061459146, 
            -0.9882353294143377, 
            -0.7740033701863972, 
            0.7615941559557649
        ], 
        [
            -0.6048343844283902, 
            -0.7168814128660197, 
            -0.9989376525745636, 
            0.6124932981366449, 
            -0.7964186769590376, 
            -0.39719370692164874, 
            0.7876145004532329, 
            -0.8596091475609415, 
            0.9071080986262303, 
            -0.9087225520694844, 
            0.9648074929735102, 
            0.7615941559557649
        ], 
        [
            -0.6112652573066037
        ]
    ], 
    "pre activation nodes" : [
        [
            0.0, 
            0.0, 
            0.0, 
            0.0, 
            0.0, 
            0.0, 
            0.0, 
            0.0, 
            0.0, 
            0.0, 
            0.0
        ], 
        [
            -2.670021948813395, 
            0.35690946905536247, 
            -1.4179447535287775, 
            1.0570780742981096, 
            -0.3546042889716092, 
            3.528510571893932, 
            0.08940388258104322, 
            2.4025886147045212, 
            -2.7160737944780706, 
            -2.564950866449523, 
            -1.0302369879013342, 
            1.0
        ], 
        [
            -0.700735443005966, 
            -0.9011994731790006, 
            -3.7699450663954135, 
            0.7129018743459401, 
            -1.0887423955818136, 
            -0.42031255120774264, 
            1.0651171556153902, 
            -1.2918456365022768, 
            1.510953411443816, 
            -1.5201428649520305, 
            2.011158180086542, 
            1.0
        ], 
        [
            -0.7109389039061556
        ]
    ], 
    "average nodes" : [
        [
            0.0, 
            0.0, 
            0.0, 
            0.0, 
            0.0, 
            0.0, 
            0.0, 
            0.0, 
            0.0, 
            0.0, 
            0.0
        ], 
        [
            0.0, 
            0.0, 
            0.0, 
            0.0, 
            0.0, 
            0.0, 
            0.0, 
            0.0, 
            0.0, 
            0.0, 
            0.0, 
            0.0
        ], 
        [
            0.0, 
            0.0, 
            0.0, 
            0.0, 
            0.0, 
            0.0, 
            0.0, 
            0.0, 
            0.0, 
            0.0, 
            0.0, 
            0.0
        ], 
        [
            0.0
        ]
    ], 
    "input width" : 10, 
    "output width" : 1, 
    "hidden width" : 11, 
    "hidden length" : 2, 
    "hidden layer details" : {
        "items" : 3, 
        "0" : "is shallow", 
        "1" : "probabilities", 
        "2" : "width", 
        "is shallow" : true, 
        "probabilities" : {
            "1" : 0.03, 
            "2" : 0.8, 
            "3" : 0.17
        }, 
        "width" : {
            "no change" : 0.6, 
            "decrease" : 0.35, 
            "increase" : 0.05
        }
    }, 
    "weight range" : 1.0, 
    "activation function" : 2, 
    "learning rate" : 0.05, 
    "momentum active" : true, 
    "momentum" : 0.001, 
    "accuracy requirement" : 0.985, 
    "epochs" : 10, 
    "batch size" : 25, 
    "accuracy sample size" : 150, 
    "fitness sample size" : 15, 
    "allow testing" : false, 
    "show output" : false, 
    "use bias" : true, 
    "clear bias" : false, 
    "bias value" : 1.0, 
    "child" : null
}