{
    "child iterations" : 15, 
    "is fertile" : false, 
    "is classifier" : false, 
    "is child" : false, 
    "weights" : [
        [
            5.317792, 
            -0.98732, 
            1.764864, 
            4.469292, 
            0.818085, 
            0.5201895759128023, 
            -7.873335, 
            3.972004, 
            -4.511263, 
            4.841655, 
            3.073144, 
            0.998235251583339, 
            7.199094, 
            3.704246, 
            -6.24798, 
            5.242608, 
            5.534609, 
            -0.5013297415315503, 
            -1.893321, 
            -3.29859, 
            0.934371, 
            -2.203818, 
            -2.792448, 
            0.7949268840535588
        ], 
        [
            -13.643033, 
            4.617245, 
            13.906534, 
            3.244804, 
            -2.999951, 
            -0.3172680671128807, 
            -10.949119, 
            3.88639, 
            9.125206, 
            -2.024132, 
            7.75807, 
            0.9994214845271852, 
            -14.915728, 
            0.360923, 
            8.45083, 
            0.91806, 
            1.874477, 
            -0.3953161811110182, 
            7.056341, 
            -2.372637, 
            -8.628309, 
            3.294898, 
            3.909047, 
            -0.9237438706451921, 
            14.813872, 
            1.723954, 
            -0.198108, 
            1.718332, 
            -0.590441, 
            -0.2781979524652898, 
            5.282698, 
            -3.780851, 
            -3.594297, 
            -5.278569, 
            -2.908453, 
            0.7361818539188008
        ], 
        [
            4.076534, 
            0.368533, 
            -12.893143, 
            0.391528, 
            -1.288528, 
            1.791251, 
            19.730742, 
            19.392263, 
            -3.123691, 
            -6.367355, 
            9.762002, 
            19.222438
        ]
    ], 
    "momentum weights" : [
        [
            5.317792, 
            -0.98732, 
            1.764864, 
            4.469292, 
            0.818085, 
            0.5201895759128023, 
            -7.873335, 
            3.972004, 
            -4.511263, 
            4.841655, 
            3.073144, 
            0.998235251583339, 
            7.199094, 
            3.704246, 
            -6.24798, 
            5.242608, 
            5.534609, 
            -0.5013297415315503, 
            -1.893321, 
            -3.29859, 
            0.934371, 
            -2.203818, 
            -2.792448, 
            0.7949268840535588
        ], 
        [
            -13.643033, 
            4.617245, 
            13.906534, 
            3.244804, 
            -2.999951, 
            -0.3172680671128807, 
            -10.949119, 
            3.88639, 
            9.125206, 
            -2.024132, 
            7.75807, 
            0.9994214845271852, 
            -14.915728, 
            0.360923, 
            8.45083, 
            0.91806, 
            1.874477, 
            -0.3953161811110182, 
            7.056341, 
            -2.372637, 
            -8.628309, 
            3.294898, 
            3.909047, 
            -0.9237438706451921, 
            14.813872, 
            1.723954, 
            -0.198108, 
            1.718332, 
            -0.590441, 
            -0.2781979524652898, 
            5.282698, 
            -3.780851, 
            -3.594297, 
            -5.278569, 
            -2.908453, 
            0.7361818539188008
        ], 
        [
            4.076534, 
            0.368533, 
            -12.893143, 
            0.391528, 
            -1.288528, 
            1.791251, 
            19.730742, 
            19.392263, 
            -3.123691, 
            -6.367355, 
            9.762002, 
            19.222438
        ]
    ], 
    "nodes" : [
        [
            -0.5849056603773585, 
            -0.8181818181818182, 
            -1.0, 
            1.0
        ], 
        [
            -0.9999801809491979, 
            -0.9999999921062113, 
            0.9999999943355932, 
            -0.9999999999986764, 
            -0.9999999997057976, 
            0.7615941559557649
        ], 
        [
            -0.9999998400537202, 
            -0.9999999980465637, 
            -0.9999999158006608, 
            -0.9999999844415642, 
            -0.9999999023219817, 
            0.7615941559557649
        ], 
        [
            0.7318828386876645, 
            -0.7336209710049917
        ]
    ], 
    "pre activation nodes" : [
        [
            0.0, 
            0.0, 
            0.0, 
            0.0
        ], 
        [
            -5.761002096054887, 
            -9.675168397941682, 
            9.841105420240138, 
            -14.021894279588336, 
            -11.319950092624357, 
            1.0
        ], 
        [
            -8.170787465058577, 
            -10.37341148758831, 
            -8.491612951571707, 
            -9.335905013942384, 
            -8.417368213399055, 
            1.0
        ], 
        [
            0.9327701938393353, 
            -0.9365236656828593
        ]
    ], 
    "average nodes" : [
        [
            0.0, 
            0.0, 
            0.0, 
            0.0
        ], 
        [
            0.0, 
            0.0, 
            0.0, 
            0.0, 
            0.0, 
            0.0
        ], 
        [
            0.0, 
            0.0, 
            0.0, 
            0.0, 
            0.0, 
            0.0
        ], 
        [
            0.0, 
            0.0
        ]
    ], 
    "input width" : 3, 
    "output width" : 2, 
    "hidden width" : 5, 
    "hidden length" : 2, 
    "hidden layer details" : {
        "items" : 3, 
        "0" : "is shallow", 
        "1" : "probabilities", 
        "2" : "width", 
        "is shallow" : true, 
        "probabilities" : {
            "2" : 0.85, 
            "3" : 0.12, 
            "1" : 0.03
        }, 
        "width" : {
            "no change" : 0.6, 
            "decrease" : 0.35, 
            "increase" : 0.05
        }
    }, 
    "weight range" : 1.0, 
    "activation function" : 2, 
    "learning rate" : 0.05, 
    "momentum active" : true, 
    "momentum" : 0.001, 
    "accuracy requirement" : 0.985, 
    "epochs" : 10, 
    "batch size" : 40, 
    "accuracy sample size" : 150, 
    "fitness sample size" : 15, 
    "allow testing" : false, 
    "show output" : true, 
    "use bias" : true, 
    "clear bias" : false, 
    "bias value" : 1.0, 
    "child" : null
}